<?xml version="1.0"?>
<opencv_storage>
<opencv_ml_ann_mlp>
  <format>3</format>
  <layer_sizes>
    29 70 70 43</layer_sizes>
  <activation_function>SIGMOID_SYM</activation_function>
  <f_param1>6.6666666666666663e-01</f_param1>
  <f_param2>1.7159000000000000e+00</f_param2>
  <min_val>-9.4999999999999996e-01</min_val>
  <max_val>9.4999999999999996e-01</max_val>
  <min_val1>-9.7999999999999998e-01</min_val1>
  <max_val1>9.7999999999999998e-01</max_val1>
  <training_params>
    <train_method>BACKPROP</train_method>
    <dw_scale>1.0000000000000000e-03</dw_scale>
    <moment_scale>0.</moment_scale>
    <term_criteria>
      <iterations>10000</iterations></term_criteria></training_params>
  <input_scale>
    4.0203977077492823e+00 -1.6081128541356631e+00
    1.0313468975212656e+01 -1.9167585190443639e+00
    1.0873726571063507e+01 -1.6725307570811407e+00
    1.2479538751435665e+01 -1.4449536648561634e+00
    1.2936939037431321e+01 -1.1500593018584904e+00
    2.3488405526472274e+01 -1.2469548010320912e+00
    4.6825085242871928e+01 -1.7502062625014243e+00
    6.3310269275818214e+01 -1.8777950983977074e+00
    7.3570666994305469e+01 -1.8343274951404065e+00
    9.5961241485737645e+01 -1.9071172471011415e+00
    1.2711932060870772e+02 -2.1682436349417511e+00
    1.4765556963238521e+02 -2.1997121058915927e+00
    1.5803356683950577e+02 -2.0309023146979599e+00
    1.6780274223848443e+02 -1.9603136177165847e+00
    1.8296574574257093e+02 -1.9021102235184233e+00
    1.8868974768845553e+02 -1.7792365473519782e+00
    2.2603627067679849e+02 -1.8042863864606511e+00
    2.3909656180419464e+02 -1.7452088789499016e+00
    2.6461379071941025e+02 -1.7616620551993976e+00
    3.0893978288886819e+02 -1.8366647179801832e+00
    3.3560690281045873e+02 -1.8842331967352166e+00
    3.9024350300926091e+02 -1.9259541085196081e+00
    4.1366237772428099e+02 -1.8740502417811877e+00
    4.7762206860366712e+02 -1.9740960906272025e+00
    5.1523112057613264e+02 -1.9780940058235383e+00
    5.4144673607635377e+02 -1.9376513980377958e+00
    6.0552908421137352e+02 -2.0415944223343021e+00
    6.2665925266785609e+02 -1.9150000737811474e+00
    6.5780898216977846e+02 -1.9182822107186466e+00</input_scale>
  <output_scale>
    5.2631578947368418e-01 4.9999999999999994e-01 5.2631578947368418e-01
    4.9999999999999994e-01 5.2631578947368418e-01 4.9999999999999994e-01
    5.2631578947368418e-01 4.9999999999999994e-01 5.2631578947368418e-01
    4.9999999999999994e-01 5.2631578947368418e-01 4.9999999999999994e-01
    5.2631578947368418e-01 4.9999999999999994e-01 5.2631578947368418e-01
    4.9999999999999994e-01 5.2631578947368418e-01 4.9999999999999994e-01
    5.2631578947368418e-01 4.9999999999999994e-01 1. 0. 1. 0. 1. 0. 1.
    0. 1. 0. 1. 0. 1. 0. 5.2631578947368418e-01 4.9999999999999994e-01
    5.2631578947368418e-01 4.9999999999999994e-01 5.2631578947368418e-01
    4.9999999999999994e-01 5.2631578947368418e-01 4.9999999999999994e-01
    5.2631578947368418e-01 4.9999999999999994e-01 5.2631578947368418e-01
    4.9999999999999994e-01 5.2631578947368418e-01 4.9999999999999994e-01
    5.2631578947368418e-01 4.9999999999999994e-01 5.2631578947368418e-01
    4.9999999999999994e-01 5.2631578947368418e-01 4.9999999999999994e-01
    5.2631578947368418e-01 4.9999999999999994e-01 5.2631578947368418e-01
    4.9999999999999994e-01 5.2631578947368418e-01 4.9999999999999994e-01
    5.2631578947368418e-01 4.9999999999999994e-01 5.2631578947368418e-01
    4.9999999999999994e-01 5.2631578947368418e-01 4.9999999999999994e-01
    5.2631578947368418e-01 4.9999999999999994e-01 5.2631578947368418e-01
    4.9999999999999994e-01 5.2631578947368418e-01 4.9999999999999994e-01
    5.2631578947368418e-01 4.9999999999999994e-01 5.2631578947368418e-01
    4.9999999999999994e-01 5.2631578947368418e-01 4.9999999999999994e-01
    5.2631578947368418e-01 4.9999999999999994e-01 5.2631578947368418e-01
    4.9999999999999994e-01 5.2631578947368418e-01 4.9999999999999994e-01
    5.2631578947368418e-01 4.9999999999999994e-01</output_scale>
  <inv_output_scale>
    1.8999999999999999e+00 -9.4999999999999996e-01
    1.8999999999999999e+00 -9.4999999999999996e-01
    1.8999999999999999e+00 -9.4999999999999996e-01
    1.8999999999999999e+00 -9.4999999999999996e-01
    1.8999999999999999e+00 -9.4999999999999996e-01
    1.8999999999999999e+00 -9.4999999999999996e-01
    1.8999999999999999e+00 -9.4999999999999996e-01
    1.8999999999999999e+00 -9.4999999999999996e-01
    1.8999999999999999e+00 -9.4999999999999996e-01
    1.8999999999999999e+00 -9.4999999999999996e-01 1. 0. 1. 0. 1. 0. 1.
    0. 1. 0. 1. 0. 1. 0. 1.8999999999999999e+00 -9.4999999999999996e-01
    1.8999999999999999e+00 -9.4999999999999996e-01
    1.8999999999999999e+00 -9.4999999999999996e-01
    1.8999999999999999e+00 -9.4999999999999996e-01
    1.8999999999999999e+00 -9.4999999999999996e-01
    1.8999999999999999e+00 -9.4999999999999996e-01
    1.8999999999999999e+00 -9.4999999999999996e-01
    1.8999999999999999e+00 -9.4999999999999996e-01
    1.8999999999999999e+00 -9.4999999999999996e-01
    1.8999999999999999e+00 -9.4999999999999996e-01
    1.8999999999999999e+00 -9.4999999999999996e-01
    1.8999999999999999e+00 -9.4999999999999996e-01
    1.8999999999999999e+00 -9.4999999999999996e-01
    1.8999999999999999e+00 -9.4999999999999996e-01
    1.8999999999999999e+00 -9.4999999999999996e-01
    1.8999999999999999e+00 -9.4999999999999996e-01
    1.8999999999999999e+00 -9.4999999999999996e-01
    1.8999999999999999e+00 -9.4999999999999996e-01
    1.8999999999999999e+00 -9.4999999999999996e-01
    1.8999999999999999e+00 -9.4999999999999996e-01
    1.8999999999999999e+00 -9.4999999999999996e-01
    1.8999999999999999e+00 -9.4999999999999996e-01
    1.8999999999999999e+00 -9.4999999999999996e-01
    1.8999999999999999e+00 -9.4999999999999996e-01
    1.8999999999999999e+00 -9.4999999999999996e-01
    1.8999999999999999e+00 -9.4999999999999996e-01</inv_output_scale>
  <weights>
    <_>
      -2.6706171427194811e+00 -3.3700686080820508e+00
      -1.0222007237341300e+00 2.2659219903070846e-01
      1.0878743671015680e+00 9.9946755029971124e-01
      2.8404650852241504e+00 1.8564115345937104e+00
      -3.8960214841105928e-01 -1.2152931155725304e+00
      1.2363437343512913e+00 -2.1401243301055822e-01
      2.7265045473830563e-01 1.7025029964075056e+00
      -7.7187796830940480e-01 -9.1376706518663686e-01
      -2.7709779156922396e+00 1.7516202947679593e+00
      -1.7753206103952635e+00 2.9406152649207246e-01
      -6.0704381281619157e-01 5.4828107990206965e-01
      2.1019019920587461e+00 -6.7231231906779698e-01
      1.1097841483335051e+00 -2.2419039835052779e-01
      1.8734884741606594e+00 -3.2476730179943569e-01
      2.8885408091568865e-01 2.2731481756338452e+00
      -2.3417027436206675e-01 6.7636638439847629e-01
      3.6387510052223360e+00 -1.2821334834553983e+00
      -3.6619024348226487e-01 -1.2468860266206612e+00
      1.9177687088326867e+00 1.1975671506023815e+00
      -1.6642072284692802e+00 2.8129170826623056e+00
      9.8746674097462594e-01 -9.5226149090754519e-01
      1.2749301167464835e+00 -1.1577180321196983e+00
      2.8858432362110376e-01 7.0649946109478512e-01
      2.0891742517169609e+00 3.7388791794172671e+00
      2.3635666092886836e+00 8.0390303805229402e-01
      -8.8021281575545340e-01 -2.6181218069120185e+00
      2.5691489315369159e-01 1.3589560507702978e+00
      1.8784353442296702e+00 8.5506449450890065e-01
      3.7239235624551053e+00 5.9430041114336762e-01
      1.5443394086907630e-01 1.8927204751602964e+00
      -1.9099038883690106e-01 7.8447721710024387e-01
      1.4220202881601696e+00 -2.7669595717765776e+00
      4.9006943801524712e-02 -3.2067126235929866e-01
      -2.1019457128616181e-01 -5.4315802576910199e+00
      -5.0895562829958463e+00 -5.7507814243261253e+00
      1.7964707856277458e+00 1.8815153038316113e+00
      -1.7892858562196010e+00 -4.1298283621332027e-01
      -2.3021419550391022e+00 1.3222931643606795e+00
      -6.0959910405334639e-01 -3.3634101787910513e+00
      -5.8444867445091087e-01 -4.4467070164992362e-01
      -2.3272113155921062e-01 -3.6832807419203789e-01
      -1.0233295750627431e+00 2.2187969618871355e+00
      -1.8152289064051714e+00 -2.0892003237569119e+00
      -9.9446126101506238e-01 1.0685461584656488e+00
      1.7119354342133664e-01 8.2723056253232552e-01
      7.5311800144222629e-01 -5.4039804677129610e-01
      -4.1989350957061800e-01 -1.2750942098567533e+00
      7.8728144698891056e-01 1.1496855699057231e+00
      -1.1617731317046684e+00 -2.9156020496155053e+00
      -3.3223802355148075e+00 -2.3213102650969337e+00
      1.3762539654462909e+00 -6.2806988351467197e-01
      7.6058401203007153e-01 -2.5226943886689934e-01
      -1.7090062099660008e-01 1.8858119476031467e+00
      2.0779853011194636e+00 3.4561169592553100e+00
      1.8218419898733387e+00 -6.1573229368583660e-01
      1.5974737937558849e+00 1.4696248454355501e+00
      -6.3398767922811761e-01 1.1725080452927923e+00
      3.8223124504176944e+00 -7.7561757538841258e-01
      -3.7229764378613039e-01 1.5064616195385983e-02
      1.3777140557644012e+00 1.0812578316321937e+00
      2.1833225206635531e-01 5.9580841867898660e-01
      -9.0431253970177788e-02 -8.3354378432131704e-01
      -2.7768017406381413e+00 2.7639284525362031e+00
      2.3719822636510002e+00 -2.2253189912913007e+00
      2.5234219685395765e+00 -1.6592861148200502e+00
      -1.7398725566414647e-01 1.2711230982331656e+00
      -3.2166373962289402e-01 -4.3241659607248097e+00
      -1.2689309986313804e+00 7.3169184509905982e-01
      -2.7781903277701341e+00 2.8002615309930627e+00
      -2.0725094568489300e+00 -2.2790274067945807e-01
      -2.1313996493859988e+00 -1.0241835930511844e+00
      -1.7817539810528429e+00 -2.2131987114584134e-01
      4.7317348534625339e+00 1.3769801000781072e+00
      -6.1612350996293108e-01 9.0216293715784091e-01
      -2.0671193629036422e+00 1.0120344249235569e+00
      1.9450801978158290e+00 -1.8077733317157465e+00
      -5.0025103764267997e-01 -1.6332566274136999e+00
      -2.3639127850869093e-01 1.9135819696740151e+00
      -3.9043842751094576e-01 1.1644688144529753e+00
      -2.9173013832438683e+00 -3.5525137647716014e+00
      3.2232746634660031e-01 5.1285453608744058e+00
      2.8025559804529399e-01 -3.1207464553685471e-01
      1.2271175666121257e+00 4.1562813572378443e-01
      -2.1049835185126409e-01 -8.9569057691310228e-01
      1.6051884967685244e+00 -1.7976563728241202e+00
      1.4875480183523870e+00 -1.1870988947088110e-01
      9.8392432469746771e-01 4.2703761760006748e-01
      1.3674623836815787e+00 -1.6347642396687337e-01
      1.6140632491641473e+00 3.9154681560233904e+00
      1.6977471761150544e+00 -1.0524830889341448e+00
      2.1840789314045850e+00 1.5000547720753266e+00
      3.1538806694200336e+00 1.8648747983024769e-01
      -2.2568479514596147e+00 -6.2789747706120641e-02
      -8.9012331323190408e-01 -1.1485110124677127e+00
      6.8241009461231961e-01 1.8860515230409050e-01
      -1.7174243437980012e+00 -7.9759350633538517e-01
      -1.5835540666015098e+00 -7.6761687670305057e-02
      -2.1413225504566544e-01 -1.9759220587600137e+00
      -9.7703121647254498e-01 1.6996836658137278e+00
      -1.0312431303919729e+00 -1.0952997106796043e+00
      -2.2423328383829353e+00 -1.9160605608993975e+00
      -1.1774100231752036e+00 1.3331965915558737e+00
      6.4612082524826198e-01 4.6083741056891953e-01
      -1.6802122428580146e+00 -1.4722092246028238e+00
      9.6354677409994738e-01 -1.1524851125896927e+00
      -3.7758047649439646e+00 -6.1272776880959712e-01
      -1.9094205243821125e+00 -3.6746653983034189e-01
      3.8941582742579564e+00 6.7193420007208426e-01
      -2.3898914382012593e+00 -7.3100426916758698e-01
      -2.2721076743703725e+00 -1.9441037486821411e+00
      2.5317922303621282e-01 1.1787118209848075e+00
      -1.7576469984963656e+00 -4.3730930826870802e-02
      -2.3372245890867085e-01 -8.1477199475509229e-02
      -2.7119965118579099e+00 -2.2060562880183814e+00
      -1.2231297696754551e+00 3.1590748332815743e-01
      8.4833775816314627e-02 -7.4337610596235637e-01
      3.8791489194347906e-01 -3.0018153439638734e-01
      -3.0986141005365542e-01 -2.6930164947766495e+00
      2.1032951821079955e+00 -7.0165599320006977e-01
      -1.3103446903169160e-02 -2.0554984989785119e+00
      -2.2050192547000194e-01 -1.0571358825914019e+00
      1.5630260074214744e+00 -2.0450615850125223e-01
      6.2284009044207300e-01 4.2826325829470452e-01
      -2.6302093915659255e-02 1.4911716625093598e+00
      -1.2412348868019876e+00 -5.8723233759491333e-01
      -1.3085904674754045e+00 3.8410043820562068e-01
      -1.9853620354002908e+00 -4.6094149776525262e-01
      5.3209473577774391e-01 -1.2096849482801668e+00
      1.3312888159482883e+00 -5.8433031992516471e-01
      3.5471554172346198e-01 3.9733261276982085e-01
      3.2814478928435564e-01 -1.0731248532812514e+00
      4.9961479598100245e-01 8.7788047143009140e-01
      7.3848827720855204e-01 -3.6988953942153979e+00
      2.7247090764370552e-01 -3.3447766131030904e-01
      1.0193496609405046e+00 6.0790205352793814e-01
      -2.2955218017548447e+00 3.3454678074391997e+00
      7.3239323244826182e-01 -1.0507858016632182e-01
      -2.5997279746473623e-01 -1.5541444951824466e+00
      3.9410143630612648e-01 7.3921282836442215e-01
      -8.9273146244298884e-01 1.7104899844745938e+00
      -2.7929838576755257e+00 -9.5941920266452851e-01
      -1.0819902878794250e+00 -1.1269953910820194e+00
      -1.6678349271962564e-01 -1.0363144843073651e+00
      3.0619014870019576e+00 3.7360300853817358e-01
      -2.0656155776091469e+00 -1.0606269962489840e+00
      2.7057479151539159e-02 -2.2987384926951668e-01
      -4.5517577881554755e-01 -2.2546350277000911e+00
      -1.0175216920040790e+00 -3.0859036925811285e+00
      -3.1853749444035184e+00 -3.2878168296314749e+00
      -1.2534609164932264e+00 1.9253929034316204e+00
      -1.4831395761529822e+00 6.5184798869811456e-01
      -6.0274021420124269e-01 -2.1362708278577203e+00
      5.7937118570817014e-01 3.2746990467063313e+00
      8.0704742047940747e-01 -8.5716309741194086e-01
      1.6107697539673085e-01 -2.9283260299971552e+00
      7.2899865075787107e-02 1.6005663963801162e+00
      3.1714916478674344e+00 -5.6105175742531466e-01
      5.1442513719477911e-01 1.7501400480917328e+00
      1.8824647848882997e-01 2.3077236207802323e+00
      -1.9930313874961527e+00 2.9981728140837651e+00
      -2.0624596415508898e+00 1.8412282998560153e-01
      3.5812495021887375e-01 -1.2026143581913276e+00
      -1.4879535485489035e+00 -5.0258795549594282e-01
      -4.1589138107632856e-01 9.8620691258025439e-01
      2.4473444496146470e+00 2.0786807132423983e+00
      1.5081040977378251e+00 -2.3579660749243683e+00
      1.4664610607378818e+00 1.3878978657880661e+00
      -1.7980528957055426e+00 -2.7832152423262744e+00
      1.8419462017878570e+00 6.7043318139567765e-01
      1.4239782769732330e+00 3.7732361090320219e+00
      1.6677663381900225e+00 1.4521748154932832e+00
      2.0052456876675158e+00 2.8552306147739102e+00
      2.4564012954799033e+00 2.5346499689761985e-02
      5.8413586448813659e-01 -4.8782735707087971e-01
      2.1562757576842966e+00 -2.0108034018003114e+00
      -1.4859789375857015e+00 -2.0119018342529023e+00
      -2.5070801306889594e+00 1.9089157920394551e+00
      1.4133414473641139e+00 -2.0898766657255754e+00
      9.4245385236094192e-01 -1.1789310735502914e+00
      3.6584779757671798e-01 -2.0358496740960446e+00
      1.6800148706957212e+00 7.5583901065056236e-01
      -2.7620275129218252e+00 6.9529611130206403e-01
      -7.7528087261022716e-01 5.6483056329860459e-01
      -2.2576094341103428e+00 3.9584312196046878e-01
      -8.0752848759511831e-01 1.0662784498117881e+00
      1.0841213471311966e-02 2.4938100790021517e-01
      2.8017916109552943e-01 -8.5297912548972316e-02
      -7.0398020543081019e-01 -8.2288548775440828e-01
      -1.2324657019788414e+00 -6.1622224251627111e-01
      -1.3550260797089959e+00 7.0868004083037706e-01
      5.0576949317002562e-01 1.9400328946601930e+00
      6.1699281040817577e-01 -6.4292346337345663e-01
      2.8737294519488565e+00 3.7344437131032707e-02
      1.7510776838993851e+00 2.5912387279377040e+00
      3.2153980837912061e-01 3.5504823967216108e+00
      -1.7249125469294420e+00 7.4450026270871972e-01
      8.9626895066612222e-01 -1.0476592749825016e-01
      1.7075539339887515e+00 1.4451787326888268e+00
      2.3130836407854094e+00 -1.5759310142333116e+00
      1.8880380036893416e+00 -2.2963089050008814e-01
      -8.3620761680839550e-01 2.1294550556274841e+00
      -1.5181073310455819e+00 -1.6840709439730561e-01
      -1.1094722368090935e+00 -1.9786454687930330e-01
      1.2788353183788639e+00 5.1695974386346967e-02
      1.4681031979017787e+00 2.4362075148473689e-01
      3.9141603144583571e-02 1.6768878380452903e+00
      -2.0519859545496009e+00 2.1640795634033894e+00
      -1.6684938751972715e+00 -4.5979408134927680e-02
      -1.8601849499740482e+00 -7.7089242046371609e-01
      9.9908968435140566e-01 1.6041678253729652e+00
      -1.2154032828146122e+00 6.9030896355077476e-01
      4.1046394650622464e-01 1.1074689699638551e+00
      1.4653445402296332e+00 -2.5362799550998689e+00
      -3.6928719507794261e-01 -3.2674968389836512e-01
      5.4987144728794857e-01 1.5675897970933510e+00
      1.0474616845913822e+00 -2.3265042797598334e-01
      -1.3477287774526032e+00 -2.2073558785205960e+00
      -1.6521923382259025e+00 5.1735868085782726e-02
      -1.2399751048404737e+00 -2.5323608829873856e+00
      1.0058514195514616e-01 1.5852871348213553e+00
      1.5533272809240004e+00 8.5934691540821440e-01
      1.2452260310161818e+00 2.9130771762798002e-01
      1.0779472923686026e+00 -9.4695081541672466e-01
      -1.3914083341158821e+00 2.4153740569559970e-01
      -4.8468164971429872e-01 9.6211437498053787e-01
      1.0607899457641665e+00 -1.8412523038890676e+00
      9.3110759410640742e-01 -1.2422000105492641e+00
      -5.0737681981673588e-01 3.3157272869174820e-01
      3.0984167395830575e-01 6.7431299535914380e-01
      1.1674753414326435e+00 1.3289652020224825e+00
      2.5819104651072605e-01 -1.7659677905461204e+00
      2.9308080079004167e-01 2.1396965184302772e+00
      1.3239569540675811e-01 -6.3777077192771392e-01
      2.9275996565630975e+00 -1.9011208502741092e-01
      4.6772378130681036e-01 -9.8988233153514252e-02
      -9.3198999941434102e-02 2.9852844318325689e-01
      1.3470073169710786e+00 9.1954578070460702e-01
      -9.8605449588789140e-01 -2.0336327237150389e-01
      -3.1660108251049340e-01 6.7144454580574198e-01
      -7.5547439425066243e-01 4.2428642224790682e-02
      1.1612127148016622e+00 7.4647254972089294e-01
      1.0486080717067967e+00 1.1573358939473424e+00
      -7.1552834323881687e-01 -9.3981089992626132e-01
      7.2696011959082774e-01 -1.2209561791175910e-02
      1.5854694435992980e-01 8.0144258694283554e-01
      4.4601554380482245e-02 -2.0105206915145710e-01
      -7.1789423556517418e-01 8.4093025802596544e-01
      6.6116466825343478e-01 -2.1107736831473284e-01
      3.1248143291672509e-01 -1.4950182305747908e+00
      -1.1865008570813149e-01 -2.3734871685238595e-01
      2.2524885858721128e-01 1.6384189305619621e+00
      8.2805191378547832e-02 1.0131527995419592e-01
      -1.2196779966611069e+00 6.1878362969341705e-01
      4.8550438046201932e-01 -1.3399320802133512e+00
      -1.1426982648159147e+00 -1.7799087188610596e+00
      1.1082040054915605e+00 2.1536917424471236e+00
      2.1553353432998028e+00 1.9542260755654379e+00
      8.6900020306242054e-01 -9.5177822746776553e-01
      3.0246332046760016e-01 1.2417834187338630e+00
      -1.8489553865763433e+00 1.5168566973570274e-01
      -1.1426319132678942e+00 -1.0057603780445865e+00
      9.5307858062056361e-01 5.2747425748515464e-01
      -3.0391494735629687e-01 5.0958765284581908e-01
      1.3992909742058335e+00 1.8327943370427618e-01
      1.6380221158362833e+00 8.0620606759891175e-02
      -3.5963510622673955e-01 2.2893821250107840e-01
      3.0338370542355619e+00 -1.1127118592123852e+00
      -9.4497463558539241e-01 1.9202707688664000e+00
      3.6466333161291087e-01 -2.0393251656811242e-02
      -7.8522996615094909e-01 5.1437739638865176e-01
      3.0238042963633340e+00 -7.2518295440243796e-01
      4.1323094530349208e-01 7.1321343707008789e-01
      -3.1918075680844366e-01 -2.3097281991344287e-01
      -1.2271246668274169e-01 8.4549861004084603e-01
      5.8866257991915416e-01 -3.7194059908974136e-01
      -1.4167396276607434e+00 4.9520089502407205e-01
      -1.5973986200777348e+00 1.2416513995143177e+00
      -9.3025592953647918e-01 -2.0042128738663958e-01
      3.6616660700552345e-01 8.8941752318709977e-01
      5.2750027867124272e-01 -1.8312686656664579e-01
      -4.7000312946103368e-01 5.6346475565936083e-01
      -7.9436728622312369e-01 4.8010171248653494e-01
      1.5933927889016167e-01 -1.5278373796731681e-01
      9.7342358332287238e-01 4.1886377555330917e-01
      -2.4077254633549802e-01 -1.5148407412286260e+00
      -1.8021154780480533e+00 9.1304096449832661e-01
      -3.5587842501091899e-02 6.7859473649059351e-02
      -2.2445278200383190e-01 -9.8004051282542670e-01
      -4.2901875081623597e-01 -5.1589908272809892e-01
      -4.0121453206543811e-01 -5.2964152368265827e-01
      -1.7007707754259885e-01 8.2095740766134806e-01
      -1.0312588488127350e+00 1.4743608326109032e+00
      1.2700971964497823e-01 -7.2283472243564151e-01
      -1.1147337904018741e+00 -2.5802202391956719e-01
      -7.9525306250496874e-01 -2.4732201774679554e+00
      5.0107940993900195e-02 6.0560377863254322e-01
      -8.0307994802546590e-01 -1.3172650820449807e+00
      8.5690370643872993e-01 1.1199525188301716e+00
      -1.3429249709569491e-01 1.4153113184717168e+00
      5.7190497622566605e-01 7.8382117762630577e-01
      -5.3983793096910715e-01 1.0948100497691802e+00
      1.1503212270683021e+00 9.9999875786437306e-02
      -6.2109623789487378e-01 1.9943080231876078e+00
      -5.7927648610520688e-02 -1.0820340429988726e+00
      1.2503467281860259e+00 9.4381325952742123e-01
      6.1166827991063710e-01 3.2009150517154410e-02
      4.8195192789023461e-01 -3.9804119927603571e-01
      2.9531839338288823e-01 8.1981035244798617e-01
      -1.3865333939075737e+00 1.3928478777421090e-03
      4.4582677943465066e-01 -6.2363883511951634e-01
      4.7686491779687085e-01 1.8118169301342285e-01
      9.3518648531808479e-01 -1.7156854833954222e-01
      -6.0983277082324716e-01 -3.8174041197380565e-01
      -9.6447273299516278e-01 -3.8454784919976376e-01
      -9.0908816782957924e-01 1.0211867542086524e-01
      9.6226174806099829e-01 -3.5285733248078832e-01
      -6.2366604318485686e-01 -4.8746346117512518e-01
      7.2829201710345709e-02 -8.4419963827743039e-01
      1.4265246747592089e+00 7.7086961319466196e-01
      3.4382241172001549e-01 -1.5200766226180601e-01
      5.9652752310132662e-01 -2.7824980535652357e+00
      1.4485716179151522e+00 7.4410682738799236e-02
      -4.4562827515026604e-01 -1.5616269152283088e-01
      1.1311449337882653e+00 -1.1394575651897003e+00
      -1.3076484450972381e+00 3.6379671656666701e-01
      -7.8535090804015495e-01 2.9059293335997666e-01
      -5.8692645664503651e-01 -3.7993736132122191e-01
      -6.7774537860607809e-01 -1.5762753714677664e+00
      3.4553699199786125e-01 -2.5699989051805017e-01
      -4.8573177793605726e-01 8.5292763599014254e-01
      -7.3599406465050998e-01 1.8544884505480674e-01
      5.6940722151066450e-02 -1.2570821387772796e-01
      4.7381633654645761e-01 7.0732317132295319e-01
      1.4000711557883019e+00 -9.6851602419693525e-02
      2.4947524190326453e-01 4.3276175836768344e-01
      1.8011792541521013e-01 8.4442797369682554e-01
      9.0318940457977115e-01 8.1276858305371025e-01
      5.8553504272542234e-01 4.4856561771610531e-01
      2.3902055390450352e+00 -3.9292005205332431e-01
      1.6190423292146838e-01 -8.2103908377956114e-01
      -7.0106653522423468e-01 -1.1291784419098954e+00
      -1.2528350255769409e+00 6.6589613759519906e-01
      -1.3248505820668937e+00 2.3626064316722303e-01
      -6.5388042170390626e-01 8.5079918967129464e-02
      -5.2276690942600135e-01 -1.3357518486235427e+00
      5.8620573610235427e-01 -9.7974756285215986e-02
      -7.2495304520132064e-01 -1.0800116765703116e+00
      -2.5376618720948724e-01 -1.1300256144353416e-01
      -1.9975820448024742e-01 2.0924930440242524e+00
      -1.5624894890492515e-02 6.3137932955423803e-01
      4.4899714221530734e-01 -8.1536908947083109e-01
      -4.7338079162296702e-02 1.5745202027928036e+00
      -3.7329536390203188e-01 -1.1374857579025011e+00
      1.6479028309028809e+00 3.8448032655720177e-01
      -4.6575040833778690e-02 6.3362860468995497e-01
      9.8956244880165989e-01 1.3983077247214550e+00
      -3.3337750970007331e-02 2.3867900658474836e-01
      2.2268688024095709e-01 -5.5022123925673505e-01
      7.0480997656831867e-01 4.4325698782670536e-01
      4.9236873848661189e-01 1.1502884686584420e+00
      3.7347010315464996e-01 -3.0001886043379483e-01
      3.6937130102574711e-01 3.1837666894273461e-02
      -4.8937321243253279e-01 -5.7369114762589191e-01
      1.7356605508487957e+00 -4.0826129107220255e-01
      5.8534631001772669e-02 1.1871419963815280e+00
      5.4065231466979347e-01 -1.5713310587470974e-01
      -2.7591060183190463e-01 1.3859164880592891e+00
      -9.0344124834382966e-01 1.2572912880225344e+00
      1.8698077893394296e+00 -9.9068881031638500e-01
      -2.0120727824348417e-01 -4.2908628798411580e-01
      -4.6041652749249173e-01 1.3732586027089528e+00
      3.8032720497690259e-01 2.2095195443760911e+00
      1.9268627861625182e-01 9.3325362576593252e-01
      -1.0376627204789401e-01 -4.1286587522162482e-01
      -3.7654349519520830e-01 3.3758368614039563e-01
      1.4437553011045925e+00 -6.8741089897795804e-01
      5.8943460466221531e-01 -9.5714065231840029e-01
      -9.5246413109063677e-01 -9.8287899410065535e-02
      -5.0165732491755266e-01 -8.4628627349414967e-02
      1.7513155549164650e-01 -4.1401238716408795e-01
      3.0763990805290303e-01 -7.4565490016328217e-01
      9.4966610765858583e-01 -3.8913723342084333e-01
      -5.9799179950999992e-01 -5.4128182303812078e-01
      5.0315678966788313e-01 -1.7126654703812482e-02
      8.5858756875018960e-01 6.3562947392592573e-01
      4.0683657020350467e-01 -9.8382427168579778e-01
      -9.7725934823511673e-01 -4.9676066395191315e-01
      -3.0706053791248845e-02 -2.2179183387716686e-01
      2.6270970593790099e-01 -5.7665165512305372e-01
      -2.6398881357961070e-02 9.7498690865651072e-01
      1.1089123612635421e+00 2.0380173309311225e+00
      1.8307270851187649e-01 9.2153440963410105e-01
      -6.3234376417675544e-03 -6.1528523363324339e-01
      8.3558753766076121e-01 -1.8996577032450437e-01
      7.4502520862667132e-01 -9.9296390653031252e-02
      -1.2159960007586053e-01 -1.9235066869315948e-01
      -1.2925868181501305e+00 -9.3497639162501733e-01
      -1.8123722203741104e+00 -2.8978706935833670e-01
      1.0534423471792449e+00 -1.0224332496768303e-01
      4.7409158533093826e-01 3.9082037129498254e-01
      4.0408946557112324e-01 2.9718643022156316e-01
      -9.2220133683257688e-01 -1.8137048415502774e+00
      6.9369940327786428e-01 5.5384098629146028e-01
      -3.8397072653731175e-03 -4.5796844752248711e-01
      5.5437166366788948e-01 2.8548810485485449e-01
      -1.7451715272994717e+00 1.2722842637410596e+00
      -3.0927329312145946e-01 -1.3417692763447988e+00
      4.9283646265179937e-01 -1.2047710793710529e+00
      -1.6238034225289152e-01 2.1089327100763475e-01
      -3.7966108843457236e-01 -1.2047228174773210e+00
      5.2622187861774061e-01 -9.0304328931105293e-01
      -1.5049193547211268e-01 1.3079421304539371e+00
      2.6048698471706483e-01 9.8129020987034229e-02
      3.4968617166165167e-01 3.2253907905026996e-01
      -2.9253997756534339e-01 -7.2368237145388126e-01
      -2.5412889289610840e-01 1.1310659486818811e-01
      1.1431888083696393e+00 -7.9704123356795908e-01
      -1.8332684004599209e-01 -1.4816309341508696e-01
      3.5242180845389431e-01 3.6121495927652930e-01
      -5.7460376441839445e-01 -2.8561995582516597e-01
      -3.0893702381461879e-01 -3.8182299322117214e-01
      3.8119989771978546e-01 -1.2151728916010758e+00
      -2.7810540147593316e-01 -9.9457887500651321e-01
      6.4483107221239977e-01 5.7695042002385433e-01
      -9.4856611660581625e-01 -2.4123437741938236e-01
      4.0360188259687269e-01 2.2002181722521672e+00
      4.7617281976681614e-01 9.4604208766105280e-01
      1.0829415169594199e+00 -8.6840887525631882e-01
      -4.2891027416420496e-01 -2.6148047146733655e-01
      9.1520035709000236e-01 -1.0538375775309481e+00
      -5.5070721298080250e-01 5.3086446054817371e-01
      -7.0875585898147486e-01 5.1018291052331199e-01
      2.3276974929670249e-01 -1.0378340394951526e+00
      8.8263410172696177e-01 2.2998139653551065e-02
      -9.5653277636044864e-02 1.6585026283261736e-01
      -4.0515132991900432e-01 1.2717372733976479e-01
      -8.1030888681082935e-01 5.1592904758089431e-01
      -3.5383387758573576e-01 -7.4788709902163142e-01
      -8.7140691046510746e-02 -9.8160223561757798e-01
      1.3003838295374088e+00 3.0639893611181834e-01
      -1.2462273485938673e+00 5.9302396264257673e-01
      6.7686591071934599e-01 -1.5060539282643584e+00
      4.7735932168806294e-01 8.3295569869597796e-01
      7.9294131655505518e-01 -8.2135022725656670e-01
      -5.2450014166130299e-01 -1.4550807954250638e-02
      -2.6503877728940772e-01 -3.0347938520616125e-01
      -3.1722459536854923e-02 1.0632222731087080e+00
      -1.4226566518943478e+00 9.6559727748737367e-01
      -6.7569279037764785e-01 1.0146660037668391e+00
      5.4297202683402834e-01 -2.2061280514866857e-01
      -1.7708022186926051e-01 -2.8524702039402772e-01
      1.4281207227856074e+00 -3.1705182266367810e-01
      6.6608659539498161e-01 2.1029357441529853e-01
      3.5224973100336643e-01 -2.1979925790723218e-01
      2.3436895621311249e-01 4.2342701757935620e-02
      6.2728760991445554e-01 2.0212888303373910e-01
      -7.0477101990713753e-01 9.9358410757038010e-02
      5.3707153046698630e-01 -3.8942801809296335e-01
      3.7144247176930295e-01 -1.3492231097559132e-01
      -2.1817351670616252e-02 -8.1379183686295875e-01
      2.0320847727256025e-01 6.0081649136953541e-01
      1.7148302804050067e-01 -1.7106913001238919e-01
      -6.1400693749469415e-01 -6.0038692241186076e-01
      1.4897041748588533e-01 -6.5493600927089946e-01
      1.3426012172914623e+00 1.1948852620672711e-01
      6.2686014528109890e-01 7.5643002412219096e-01
      -1.3226407366056575e-01 2.7535313171316489e-01
      1.0514138283358543e+00 -7.9867617420602732e-01
      1.6133584791841474e-01 -1.4177263273136820e-01
      -5.0615959505144259e-01 3.6655954153384368e-01
      8.9675727940564331e-01 8.3362775422250857e-01
      -7.5729519911685061e-01 -8.8792532268251745e-01
      1.6897057685220787e+00 -1.7370400269914328e+00
      9.1037343002281867e-01 1.8976919414663503e-02
      -1.4562713285806414e-01 6.7576944874077405e-01
      -1.1510338923822003e+00 1.6460408151440347e+00
      -9.6326075918123544e-01 -5.5607260067435060e-01
      -4.6269083825819335e-01 -3.6114995232998826e-01
      5.2372607250008574e-01 -6.9637905716058923e-01
      5.5418349109931209e-01 3.7869387383364389e-01
      -9.2774374360745504e-01 5.9809431648287126e-01
      2.2332946447956942e-01 1.6129071734331972e+00
      -6.0233867567552402e-01 1.7059720999969641e+00
      -9.0947017804123520e-01 -8.4971131311393874e-02
      6.9642467344470282e-01 1.1480014965135714e+00
      5.5855871843054250e-01 4.1832798449545927e-01
      8.9547193732529562e-01 4.0032313998840235e-01
      -4.5152029498893348e-01 4.7878381964251626e-01
      6.0708007415500886e-01 -9.0776998295243683e-01
      -8.6035233773961195e-01 3.7098576491468355e-01
      3.3450625988146604e-01 -2.1250190857307302e-01
      -5.4369504440016925e-01 -1.6475382571089805e+00
      3.7336069493043988e-01 -3.6306254497297347e-01
      7.8594126876838555e-01 1.0480982112166538e-01
      -1.3618746143485014e-01 8.9296574537206630e-01
      2.1903977984964010e-01 6.7088957613848899e-01
      6.2591089339836581e-01 -7.9097533397372743e-01
      9.0430549819486630e-02 2.9654708685366132e-01
      1.5798091428305580e-01 3.8679129185025640e-01
      5.7840799807449983e-01 5.8449415504679458e-01
      3.1673476888566610e-01 8.4068330106045186e-01
      1.5334090419070698e-01 8.5055036662474559e-01
      2.1015624679489466e+00 4.4282206791177992e-01
      9.1552110737184056e-01 -1.5789981551971426e+00
      -9.0733286021031989e-01 2.8473671843135656e-01
      -4.6029458366854176e-01 9.5671253635963538e-01
      5.6362736766362047e-02 1.1318567573877195e-01
      4.1988885025963352e-01 -2.3686523037615190e-01
      -1.2155303380727506e-01 -3.8576091377093868e-01
      6.9115615308651540e-02 -8.2396174988672322e-01
      -1.6804413386846846e+00 -5.7112378258679021e-02
      1.5567151205874277e-01 5.8713358884270350e-01
      -5.0951861178318991e-01 9.9246807206822019e-01
      -3.3170291029776855e-01 -5.8385178292916617e-01
      5.6856817604914101e-01 1.1032605367774997e+00
      -5.2124513189562394e-01 4.7019282119716682e-01
      -8.4778484453456571e-01 -1.6658230702057986e-01
      8.4458973739764298e-02 4.7699166393399545e-01
      5.6785144380992636e-01 3.4794151148137059e-01
      5.7287482492518360e-01 -7.9353945978616292e-01
      4.5719419064843375e-01 3.7706008247166389e-01
      6.3062986010303501e-01 -6.8638369969383506e-01
      -4.3230427002305188e-01 1.6481057516565145e-01
      4.1300853249535779e-02 8.4899159284484049e-01
      -6.6178725519508463e-01 -4.0665318202685724e-01
      2.6775919602385961e-01 -2.9999882705463277e-01
      -1.8905057342519424e-01 -5.0701638113246872e-01
      3.8456095569749149e-01 3.3558713423181133e-02
      -2.9998526372573137e-01 -1.2119882226112863e-01
      1.3137044680428576e+00 1.7128515129204309e+00
      2.7448725553910580e-01 -1.5420182381661807e-01
      -4.8332448587718857e-01 -4.2326437184159960e-02
      4.8917119249532554e-01 5.7366584884465399e-01
      -3.5133761195446106e-01 -6.6630810218903946e-01
      2.1859005847432522e-01 2.8976139485010510e-01
      -4.5192525531174799e-01 3.4012334541893019e-01
      1.5051165468066599e-01 -3.9689197990307007e-01
      -2.0915040798327325e-01 -6.6069551345388255e-01
      -6.8806011296728531e-02 3.4682367441905404e-01
      -3.3263528688570777e-03 -9.8728238615947539e-02
      7.3014185158250011e-01 1.0304671549857872e-01
      2.2784506019767678e-01 4.8797080762052236e-01
      -5.8847677992078007e-01 -9.1404145755898825e-01
      -5.4318389799239997e-01 -5.0285043780449112e-01
      6.4778409496033096e-01 -7.9623254203298754e-01
      -7.5504580705334404e-02 -2.2362999087481742e-02
      -7.1700407131786037e-01 -5.7858024113861239e-01
      4.6912923769314802e-02 1.6028744058097816e-01
      -9.0055658255384599e-02 3.6559298219918401e-01
      -2.2137012237007719e-01 1.5513507857699795e+00
      -1.2279818554731506e-01 1.1182946580703076e-01
      -1.0290500729317651e+00 -3.2373996397965882e-01
      2.9631046823526089e-02 6.5160778384877605e-01
      3.1747313019062601e-01 3.3157149013096454e-01
      9.0621293098307826e-02 -1.0142060954196650e+00
      2.4187527028073183e-01 3.8221653518717641e-01
      4.6637735837380068e-02 -4.7091898693407974e-01
      -1.3244236565323757e+00 1.6828015452703021e-01
      -2.1645973216162562e-01 4.1827668120636435e-01
      -6.0383989002921988e-02 -6.3261995517659297e-01
      4.1000564004171125e-01 5.4647438380081959e-01
      -1.0514754678689577e+00 7.3336436620232970e-01
      1.6144079243118736e-01 -2.5392442556384942e-01
      -1.4224573309036437e+00 -1.6318772580758120e-01
      -8.4345947893035966e-01 7.3200241459447979e-01
      -2.0005807481639726e-01 1.9112188618027559e-01
      3.1753382611909065e-01 -4.6417398009495181e-01
      9.2711440123500855e-01 9.2006049795549438e-01
      1.0394834795681767e+00 6.2907018129523506e-01
      7.4340558781657506e-01 -4.9334416537244541e-03
      -6.2118435932589366e-01 6.3674927504287882e-01
      8.4129258470835766e-01 1.3261498479612455e+00
      5.5631698418888409e-01 -5.0373056828074769e-01
      1.1331752146516247e+00 -4.0257253381428726e-01
      -7.5164825585201078e-01 2.4582897824302333e-01
      5.4007619118506456e-01 1.4244601871312874e+00
      -1.0299366663590055e-01 -6.1084664003618817e-02
      -4.4222451695812209e-01 1.8012700577445071e+00
      -2.9710482882165882e-02 1.6125969045793606e-01
      4.2875227267641358e-01 -4.5079522584731663e-01
      6.1179442404225415e-01 -3.0683677778653915e-02
      -5.1869973437935357e-01 -8.7227631831214791e-01
      -9.4025338571223926e-01 -3.2184295345955261e-01
      -4.4070855273622217e-01 1.0292171510447433e-01
      5.8870589741157386e-01 -5.0430976038111405e-02
      5.4113341725322073e-01 9.0141731126766433e-01
      -1.4378994760350450e+00 -1.3556077840257927e+00
      8.9573705431554718e-01 2.1778632279588866e-01
      -1.2864192153499410e-01 -3.2490386277261407e-01
      -3.4975972591164045e-01 -6.0926041943895226e-01
      1.9633965947586030e-01 5.8699004081917738e-01
      1.2864516607366274e+00 1.1119569545376479e-01
      -9.4220754635039727e-01 5.7596520816098673e-01
      -6.5295617747584411e-01 -7.3392568813691517e-01
      -1.8665077848602776e-01 -1.4772616647438844e-01
      3.3841662245962428e-01 2.7097488369006129e-01
      1.8718010709716112e-01 -8.8950498442145376e-01
      1.3597472111592349e-01 1.5822339432926447e+00
      -3.6751237252268515e-01 -4.6237718952037171e-01
      9.9902884252670532e-01 -7.9481536691687060e-01
      -4.1848838645545683e-01 -1.5922893914230735e-01
      -2.1136076807946186e-01 -6.0239127785752855e-01
      1.4221088085696081e+00 3.9261242472190477e-01
      2.3105239300782851e-01 -8.6052470865267372e-01
      4.8637662644290491e-01 2.6824406939755652e-01
      -1.9036683443793367e+00 6.1016317363238659e-01
      2.8526057784059322e-01 1.3746910112527828e+00
      1.6287459320807347e+00 -3.0172850347063052e-01
      -7.6312492366222162e-01 -8.1952508078027086e-01
      -2.5130926349100408e-01 -5.9509074734354528e-01
      4.1056334421502544e-01 -4.8942488786585137e-01
      3.1117307517020765e-01 7.8278655671765696e-01
      -4.6933450598175153e-01 -7.4530007916198654e-02
      -1.5323856862030982e+00 -2.2159130472897184e-01
      9.5951404241739491e-01 -6.8038503674598771e-01
      1.1269789615923775e+00 2.9044483406456828e-01
      -1.5979688737155562e-01 -1.0553169424057274e-01
      -5.7939552960637852e-01 9.3845396229890618e-02
      3.4481307050989823e-01 -7.7853617051120538e-01
      7.9688932991757500e-01 1.0057532455753779e+00
      -9.3903002949888759e-01 5.8932993047222570e-01
      -4.8012017249739558e-01 1.6998352299341599e+00
      2.9055655279370440e-01 -1.0305315970894774e-01
      -5.3293382952839960e-02 1.6174420616960680e-01
      -2.3260433098732370e-02 -2.3908530450437709e-02
      5.1335382029313559e-01 1.5628466167330077e-02
      7.8556913580895271e-01 4.7092383516533670e-01
      4.7184273022651990e-01 7.1852262145329127e-01
      -1.4021765367151622e+00 -6.2765476089640637e-01
      -2.3259057558809301e-01 2.9382750100717164e-01
      3.0430619893384364e-01 1.7097500542543320e-01
      2.4744412278234371e-01 -2.8761036057833761e-01
      -1.5692972391685600e-01 3.3878915870202220e-01
      -3.8864679104754346e-01 -6.3170901470565277e-01
      4.7019658272815490e-01 8.2618441629001127e-01
      1.2310806322849412e+00 -3.8135115186929858e-01
      -2.2631455208580625e-01 -6.4973982606147695e-01
      6.3886150036617062e-01 1.7557710976360541e-01
      -2.0389438202232473e-02 -4.5814165775991172e-01
      5.3890986495721681e-02 -4.7812376693126679e-01
      -5.9001195216491853e-01 -2.9003590597175710e-01
      3.6739219503133208e-01 4.0407413293278199e-01
      1.0573359782953013e+00 -5.8700546822514876e-01
      -7.9770791155773602e-01 -3.7046826544242795e-01
      3.5497335712836037e-01 4.8209516594006441e-01
      4.8113903797404067e-01 -8.0164509801810357e-01
      -2.9217917530754767e-01 -3.0458532425956208e-01
      9.3132770473036627e-03 -1.0348912838386597e+00
      -1.1473901862433378e+00 -5.9193839607714538e-01
      2.8836995708816632e-01 2.8411421138455739e-01
      2.4830097510913880e-02 2.7855493525020730e-01
      7.3170696529080859e-01 -9.8527283217703887e-01
      3.1197793267971674e-01 -3.8496795475218698e-01
      -6.1429279660097902e-01 6.7193921460631259e-02
      -1.0129748409536311e-01 3.2586656127194963e-01
      1.0280575725040052e-01 6.0955611456915093e-01
      1.0424705339548880e-01 1.1068158684162257e+00
      1.4728473293659627e-01 -4.5312322135194580e-02
      8.3197074042963859e-01 -1.5754429381749760e-01
      5.8335661674574080e-01 -2.4329543390761341e-01
      -1.1674049460112577e-01 -3.2578826200920724e-01
      1.0386198083637463e-01 8.8647572236500605e-01
      1.8126996905390086e-01 5.8904211065307466e-01
      -6.6103690055014597e-01 -2.6699594588236014e-01
      1.3332462857593164e-01 -3.0223530171196161e-01
      -2.8181512360054600e-01 6.6861731029978791e-02
      3.5468420829883401e-01 1.0181546075253798e+00
      2.0361897706874080e-01 -7.4717888000152488e-01
      -2.3204380820010881e-01 -6.1329250269135209e-02
      8.2018711895946339e-01 -5.4272413559521659e-01
      4.9803618145874046e-01 4.2500420649122400e-01
      -4.5073848048922521e-01 -2.3372623384504165e-01
      1.1770572289686276e+00 2.2235591988038617e-01
      -5.8458367623661744e-01 -8.4203424519707203e-03
      2.3583738489449357e-01 5.2961366482349592e-01
      -5.0233589010559421e-01 3.6438540506893763e-01
      -1.6179546404874429e-01 1.4278267256261266e+00
      1.8572745043172634e+00 -5.3480585018306726e-01
      8.2608096799037267e-01 -6.8195625136795424e-01
      -1.4825119041059540e+00 -3.1339082857018079e-02
      3.9329237481867829e-01 3.1145306560643171e-01
      1.8877973619161029e-01 -3.0570819601383770e-01
      -7.7343869527531761e-01 6.2649006218225500e-01
      -7.2610295230727517e-01 -7.5210635100583137e-02
      7.5049881780458194e-01 -4.3229562450805725e-01
      -8.8274627201494860e-01 4.2425311706033247e-01
      8.7628389834701875e-03 -6.6135254678093436e-01
      2.9958653922094364e-01 9.0435996144616684e-02
      -3.3418448559487585e-01 -7.9407641359431624e-01
      4.6525123951613245e-01 9.7763877573272859e-02
      1.2125153100833590e+00 5.4344264955731969e-01
      -6.1447313281536442e-01 -1.1085143446414313e-01
      3.8484262118988644e-01 -1.9425597857618923e-01
      3.5592092025791827e-01 2.2514801357910719e-01
      6.1068605985504798e-01 -6.4098216213883163e-01
      4.2831336041721235e-01 5.0432651970963871e-01
      1.0520829314376816e+00 5.8006469637638081e-01
      -9.9491864413340222e-02 8.7684744507772264e-02
      -4.9870664270343823e-01 2.2269037434697073e-01
      -1.1364954664506366e-01 2.7861905552986721e-01
      2.9123298211123133e-01 6.6648698041717291e-01
      7.4679418047416957e-02 4.1028523417472873e-01
      6.4699331933859405e-02 -2.5388504777632293e-01
      -2.3447264757742864e-01 -8.8174249555862907e-02
      -6.9265162194081820e-01 2.4993947280959350e-01
      5.7031015179691369e-01 -9.8308623983817303e-02
      7.1002782354714034e-01 -9.6949094672409608e-01
      1.0635417947610857e+00 3.0112431120229116e-01
      3.7180499548303214e-01 6.3685338228590377e-02
      1.4098782149943348e-01 4.9597596338083201e-02
      -3.4917249456810717e-01 -4.2059914549492598e-03
      2.3205418354151161e-01 1.0261758805091892e+00
      9.2411827609074992e-01 -8.1989418383078783e-01
      -1.8162981492124003e-01 -5.6227771434430940e-01
      -3.3487050282289749e-01 -1.6707919125220966e-01
      2.9921345577799835e-01 2.4226585679129747e-01
      -2.0230656790773965e-01 -2.6930136290056567e-01
      9.4674302074308908e-02 4.0432193842823538e-01
      1.6721352424856523e-01 1.5572022175122388e-01
      2.6621482352598108e-01 -4.4979922243420878e-01
      -6.2744547107983750e-01 5.1131284710208380e-01
      -8.2192898896298702e-02 -2.6461007411649823e-01
      -3.5139404427371967e-01 2.2288381777736305e-01
      -4.6057369819562033e-01 -3.4128550396950014e-01
      4.1737269644231573e-01 -1.4357876045724785e-01
      6.7912974585533992e-01 6.9072107535288263e-01
      -2.0206133024835485e-01 4.5207239210132777e-01
      7.8200925065031845e-01 -1.3079723100073495e-01
      3.7551933902087714e-01 -4.2709697233275729e-01
      6.1159632828171329e-01 -4.9166160234637002e-01
      1.5905557381377747e-01 5.2055827980099410e-02
      1.4674262567824992e-01 1.4945867408683472e-01
      -3.0455367178003068e-01 3.3641194753507525e-01
      -5.2366215224182777e-01 -9.4564743544621993e-02
      -1.7804769974935844e-01 3.8603713178678212e-01
      -6.1509411359521766e-02 3.2899543621883320e-01
      -2.9342317378866872e-01 1.7847605960505566e-01
      6.3815666041331556e-02 -4.1840125017053575e-01
      5.8749874739961105e-01 1.1420502793324393e-03
      -1.5040383080585248e-01 -2.9029484557863861e-01
      -5.6656755981211371e-01 -3.2770021174150765e-01
      7.0544680540814017e-02 -3.3337212095353580e-01
      9.2870590632653105e-01 -3.2496936976183555e-01
      6.1073409085092945e-01 4.2001343437048089e-01
      -7.3051952621437188e-01 3.5209163538392885e-01
      -5.5271715378373210e-01 -1.9079806874229882e-01
      3.1659303379199888e-01 -8.1838865395385829e-01
      4.9797772158543668e-01 -5.0636328458902102e-01
      1.2319738800552255e-01 -1.3452433969215927e+00
      6.4235251461503851e-01 -3.5805713614112966e-01
      -6.9111972061778149e-01 4.5196973684106434e-01
      1.1873611207025173e-01 6.7521087609720309e-02
      4.1655970993425206e-01 -5.2522675212672632e-01
      -6.7876053114129276e-01 -1.8303037332095556e-01
      4.8531534605894502e-02 -4.2877479473432935e-02
      -1.1992823048646002e-01 2.0729328608106845e-01
      -9.6600144101145979e-02 -8.3814071130296075e-01
      3.2752347277403859e-01 -3.7508803912604516e-01
      -4.8383001911282797e-01 -5.2039472875229009e-01
      4.9770987151804169e-01 -2.4983083729519234e-01
      8.1178110117153743e-02 1.1479021493154402e-01
      4.1455060828961936e-02 1.9703083531004237e-02
      -6.0353606886886246e-01 -3.3104767193811474e-01
      1.2151609998791360e-01 -2.9426706033703987e-01
      -7.8052625788513075e-01 -1.6414689896800591e-01
      -1.6083331916684798e-01 -2.5070986437338505e-01
      -3.0061445687614446e-01 5.3804077313772225e-01
      1.0434182448827958e+00 8.0735070452780611e-02
      2.6458672828232288e-01 -1.3971654909507361e-01
      1.9111771601055777e-01 2.7268530571148408e-01
      -1.9004704536566489e-01 -2.3529773013852162e-01
      -2.5252242139488834e-01 3.8097088228695580e-01
      -2.8078700449983601e-01 2.6664763563071253e-01
      -2.1025273536327729e-01 -1.8062150733596882e-01
      -4.1364573399649529e-01 5.5103375952653111e-01
      1.3465888906589010e-01 -5.8500969677690795e-01
      1.3572536975705368e-01 1.0181701110123992e-01
      1.7290691840585540e-04 -1.0200173698128870e-01
      7.2079171528694064e-01 -8.9249678696126628e-02
      -1.0259513709775507e-01 1.6473851436061615e-01
      -8.5859973649175636e-01 6.5143814013691126e-01
      2.5517793063432187e-01 -9.5426326424340291e-01
      2.6605704338575081e-01 1.3896276745596828e-01
      1.9120187448573581e-01 -2.8997528349575447e-01
      -3.7588724623076171e-02 -4.4716610056538125e-01
      1.4586749626275260e-02 8.7057413596986755e-01
      -2.4605416811604058e-01 -3.7399322344883329e-01
      2.0664321710866104e-01 1.8037436296281122e+00
      -9.3561245438496166e-01 -1.1504719907816785e-01
      2.3576107392728105e-01 -6.7202200185312821e-01
      6.4263123586386206e-01 -2.4698411520957073e-01
      -5.9188667526910665e-01 -7.5911738682222785e-01
      3.1134023728194121e-01 3.6645197476404923e-01
      -5.7488282896597132e-02 -2.4353423287057516e-01
      -2.6168472090706546e-01 1.5321625896860716e-01
      -2.6541572716585282e-01 -5.7451256597220457e-01
      -8.7129875695228565e-01 -8.1868636647887405e-01
      3.6852686882359187e-01 8.9490588084134792e-02
      4.5176696005265132e-01 1.4368982053389234e-01
      -3.3734125657361591e-01 -5.7300256411413730e-01
      -5.6097970931073229e-02 3.3815011935977329e-02
      -6.4471975958571404e-01 -2.4693898732461206e-01
      -4.7672442523554875e-02 -4.6609327794838734e-01
      -5.9788940545433870e-02 -8.4532167665334645e-01
      1.3415744982088298e-01 -9.2492978805132603e-02
      -7.0740922000285178e-03 3.1847480700111057e-02
      -2.6460862812205255e-01 -5.3033198509053137e-01
      -1.4597688409399415e-01 -4.7911863841599338e-02
      4.9272934373443877e-01 -7.9336835069272749e-02
      -4.9447943973506348e-01 1.1792599246800738e-01
      4.7424887502292801e-01 -6.2433876009205258e-01
      -2.7452326841126634e-01 -3.9111136946653424e-01
      1.8811731054121486e-01 -5.8615145933700978e-03
      1.4113512738989312e-01 2.1762508578202369e-01
      -3.6852521005267547e-01 -2.1270909244313416e-01
      5.9909311848653286e-02 -1.8733143577855238e-01
      7.7129917720176730e-02 -5.3714935577920753e-01
      -3.3089503425520278e-01 1.7240501837592079e-01
      -2.6617686647394162e-01 -3.9742510067054693e-01
      2.8668115009425382e-01 2.2422747203688265e-01
      -5.4113035266190412e-01 -1.1174905468351942e-01
      -4.5259385964508222e-02 -3.1338245935036130e-01
      1.4131932528501778e-01 4.7549660316234987e-01
      2.1736396675854086e-01 5.8580726287056822e-02
      -1.6757170616893924e-01 -5.6308811356199660e-02
      5.5096277616376044e-01 -1.0273959301180668e+00
      2.0466235816543463e-01 4.2163695379872884e-01
      4.4582197778001365e-01 -4.3896961592390621e-01
      3.4255299247471149e-01 3.9994300112857267e-01
      -1.6696529871989449e-01 2.7542748232837688e-01
      -6.4180072767322488e-02 -2.9958932709065478e-01
      -5.4233090338277279e-01 -4.8287798108067309e-01
      -2.6453151478146458e-01 -9.9142604385948074e-02
      8.2813057105500798e-01 -3.3060418203751532e-03
      2.7284360779502109e-01 -2.3781294201584036e-01
      -2.2714690141018778e-01 -2.4675739541834893e-01
      -3.7055692389923345e-01 4.5510972258843679e-01
      7.7628338689481865e-05 -5.2973463259237796e-02
      2.9189786034079852e-02 -3.9120578191740846e-01
      -1.5787753720910663e-01 -4.5238126887770275e-01
      1.5688325906229802e-02 5.7122785828915834e-01
      -1.7097159606720086e-01 1.2036764380117186e+00
      2.0614373519781234e-01 -2.7488909939743456e-01
      2.7498269348438905e-02 1.2117669647443044e-01
      -9.2055661530506233e-02 2.8337332555022951e-02
      -2.2853501886593808e-01 3.5229352510302636e-01
      -4.8195885138166444e-01 -5.1007744633508034e-01
      4.4243911237438643e-01 -1.0874948462807058e-01
      2.3855878156985205e-01 -1.6980089727355052e-01
      -5.1687101314320505e-01 -2.2343937407146106e-01
      4.3471317346148813e-01 -5.2606676069517533e-01
      4.6799724926504199e-01 -8.0820806656728161e-01
      1.9961629835360739e-01 2.6476710919036434e-01
      6.0898533274458366e-01 -1.3998576746485489e+00
      -1.9328209385483167e-01 -1.5173830992459716e-01
      3.7312445585192239e-01 9.0760375346164157e-01
      1.8777138272889946e-01 1.8825424954589434e-01
      -3.1085388068820102e-01 6.0011696568592447e-03
      2.6263096506982692e-01 1.1858990961950076e-01
      6.5607472433487934e-01 -9.4421585130864027e-01
      -5.0878304674944169e-02 1.2725240907133212e-01
      2.1279022465933203e-01 1.1824537816263771e-01
      4.4856565725051512e-01 -4.2703120968215569e-01
      -9.1762232179432435e-01 -7.7428688550266564e-02
      -4.8709811199508524e-01 2.3690025992976003e-02
      8.1402768196039466e-01 -1.1457668573877199e-01
      -1.7587247532886460e-01 5.8151947162622530e-01
      -2.5757805718774252e-01 2.3326741885634672e-01
      8.5231548340677610e-01 -6.4416226486842543e-01
      7.8671959847609219e-01 -1.8220306576570505e-01
      -8.5564820657278953e-02 -1.1427772871589982e-01
      9.9112089948763513e-02 4.7790539207642757e-01
      -7.9316265272081121e-01 -2.3141700891755998e-01
      -2.2369407280843581e-01 -1.6113409388323130e-01
      1.3195461395079225e-01 6.5579749672467325e-02
      3.5353924909400425e-01 4.4607904382724672e-01
      -2.1666467656908073e-01 1.3480421811986405e+00
      2.0896705774648552e-01 -1.4463326933424454e-02
      2.5353975652620198e-01 2.5292070285369801e-02
      1.5141749455892087e-01 4.6208088911908321e-02
      -9.9570313835528157e-01 1.2174006441883387e-01
      -6.9025637412024698e-01 7.7711745940444790e-02
      3.8264532021045866e-01 1.5533514227395132e-01
      -6.2523745361816777e-02 3.6984091473197961e-01
      -1.2404915088388312e-01 -2.7514905556720820e-01
      -4.8429785145461690e-01 -1.1473598428065047e-01
      2.7935245475793125e-01 -3.1655114430932718e-01
      2.8164977892106285e-01 1.8215315748612010e-01
      -1.9322077421764486e-01 -6.0567294438921671e-01
      1.6710630672171348e-01 -9.4086562732767359e-02
      2.2864208271557535e-01 -3.1758041698472184e-02
      2.9459967227169792e-01 3.0847789633450629e-01
      4.2879618119414886e-01 3.3929782747570153e-01
      -1.8644060914378052e-01 -3.0501296441358305e-01
      6.0449306494108201e-01 -1.5560263267970287e-01
      2.9409898436264580e-02 -2.7844176615077178e-02
      -3.9906947588341252e-01 -6.5217395906414311e-01
      2.6727139538318168e-01 -3.3026824631323709e-01
      -1.7076925372576332e-01 9.0069138451825889e-02
      -4.3609829596630373e-01 -1.5395670070648237e-01
      3.0161321673613928e-01 1.6433908046700783e-02
      4.3500834653285564e-01 -6.8649501452530737e-01
      -2.3405028806308165e-01 -3.6715020094240075e-01
      5.4032155665766779e-01 -1.4390779969777645e-01
      7.3065409356465716e-01 -7.6763903722808738e-02
      -1.5124049011072227e-01 4.0356055997439279e-02
      -1.0114513472658777e+00 1.6499460855530793e-01
      -4.8019805861804848e-02 -2.3467267892441884e-01
      -4.7245516690243738e-01 -4.5193601875296280e-01
      -7.9366212845777606e-01 -4.8248351073419210e-02
      -1.1024521226058848e-01 1.0793001769299022e-01
      2.4615184752198485e-01 4.9483680942030678e-01
      -2.2738910575552893e-01 3.0476979039011265e-01
      -3.3874290804076286e-02 7.2536168070872098e-02
      1.9333055096510338e-01 -6.8394470775468660e-02
      -3.1383975926872920e-01 8.8090781948606989e-01
      -5.5926280732274536e-01 4.8693030408033888e-01
      8.5595718561819012e-01 1.5403921376561770e-04
      1.5233066061536977e-02 4.1917894586393012e-01
      6.6763933162596892e-02 4.2039166299293795e-01
      -1.0963055296932076e+00 -1.2443551936618759e-01
      3.1953658653492473e-01 1.2605226481816084e-01
      7.0043211855506049e-01 -1.4787608647591979e-01
      2.4827032114918432e-01 6.4858481934374879e-01
      -6.0459263198852066e-02 1.6597408628268434e-01
      4.7646225280436100e-01 -1.2489979237703325e-01
      -3.2235599018204197e-01 5.8914661600720630e-03
      -6.9441535464217677e-02 2.0806088389551344e-01
      5.0021892168837390e-01 -1.6604170450271571e-02
      -3.6407190554877573e-02 -3.8539262219038882e-02
      6.8045287491673379e-02 3.1761824874256783e-01
      -2.4348206811680251e-01 -7.7519402411273786e-01
      1.7239960597794565e-01 2.2463283082000358e-02
      -1.5609407997746996e-01 -2.4812109490898704e-01
      -7.1950735637228244e-02 8.5053958105385918e-01
      4.3172158189737925e-01 2.0322215722804199e-01
      -2.2376155982831311e-01 -5.0637764750050718e-02
      1.9158753887596933e-01 -2.6014372891709797e-01
      2.3477328372993062e-01 -3.2251629695765688e-01
      8.5777416228393499e-01 1.3992556760352881e-02
      2.6044103705812011e-01 -2.5110901919956025e-01
      -4.0716998834078512e-02 -3.3179998828829765e-01
      5.3636173807237530e-01 -5.7729622191986824e-02
      -3.9938838205888799e-01 -9.9042648750572937e-01
      -2.7401101447919768e-01 -1.5542303021401777e-01
      -3.3685756420825669e-01 4.9619400942725056e-01
      -6.6992919162859516e-02 3.7139220241118132e-01
      3.1711377886300052e-01 -5.3205553944709183e-01
      2.9751117423152440e-01 -2.3232965629357419e-01
      -2.2433697301077479e-01 -6.3565059986564953e-01
      -6.1052091683839493e-01 5.4606400556181689e-01
      -8.9022324408318276e-01 1.5640173276742794e-01
      1.4194945620306985e+00 2.6952342573369764e-01
      1.6024452205189099e-01 4.7011758127772274e-01
      -3.6373891494689164e-01 -2.6290918677872416e-01
      -2.7422115615277337e-01 4.6698513758418470e-01
      1.0783931741187024e-01 -1.9877578976817190e-01
      3.9182878300445895e-01 4.8166061664642013e-01
      1.1345095783951840e-02 -7.2705585405743978e-01
      2.2763178937930405e-02 -7.8719459905666936e-02
      -1.4336705175919970e-01 -1.3307009557722088e-01
      2.3879163288945329e-01 -5.5615523822239377e-01
      5.5212012038922731e-01 3.8242794836653571e-01
      -1.9740003533380457e-01 1.2414768431298498e-01
      -1.5353579726604313e-01 -1.3702903346617801e-01
      -1.4201003301825368e-01 -1.4043483254967123e-01
      -2.0934789463053488e-01 1.0258015702288967e+00
      3.0326339816866787e-01 -6.0632565487340410e-02
      2.4910792014498784e-01 -8.6201001035356786e-02
      6.4311775531451718e-02 -1.3694443687405231e-01
      7.0941331550155471e-03 5.0505166992536121e-01
      -6.6037193230916591e-01 -1.3927981648564862e+00
      1.4426477296962517e-01 -2.3173481471149335e-01
      1.6314965733250228e-01 1.8643398676778092e-01
      5.5303996565872537e-01 -4.3166308481162707e-01
      -3.7856610924400091e-01 -2.3536190728861178e-01
      -7.0270913304956772e-01 2.3277946117967199e-02
      4.8731177257393465e-01 -7.7664825681016891e-01
      3.8568633243223703e-02 -5.7844637443814913e-02
      -4.2410029180999848e-01 1.7146089089737956e-01
      6.6496553041763595e-01 2.6618260647052244e-01
      -3.4216249758879735e-01 -3.8801687710092993e-02
      1.5797615676162055e-01 1.6816818872550424e-01
      -4.0931530766748453e-01 -4.4010335423426011e-01
      6.0495552079026482e-01 3.1523876905525466e-03
      -1.8880279009602513e-01 5.2470382312111041e-01
      -6.8381550405715072e-02 -1.0745681111692823e-01
      4.9522865826848717e-01 3.9145500648775755e-01
      4.5113894556343315e-01 -4.3457992109848775e-01
      -9.2768424841534158e-01 5.9696363080268884e-02
      2.0192188865444713e-01 -2.2809207832044429e-01
      -1.7204593969405058e-01 -1.0340106952637291e+00
      3.0409350968042603e-01 -1.8252253157885473e-01
      -2.0288776070399847e-02 4.3192938431561767e-01
      -1.1737857749916392e-01 -2.6948787626309079e-01
      6.3479993195902618e-01 -1.3875038929257745e-02
      -3.1651288429541685e-01 -2.5059800882338851e-01
      -3.8027528201762840e-03 -6.5342564271527048e-01
      -2.4008148005131180e+00 -1.5467496798435310e-01
      -1.7917777650496203e-01 2.0917006025757365e-01
      -9.7182987213438188e-01 9.1465955010277128e-02
      -3.0602742571426195e-01 4.7678218554034302e-01
      -9.4987172041990295e-02 5.9822173961364078e-01
      -3.8047918421846671e-01 -1.3119862902160761e-02
      -2.5471707083516421e-01 1.0318611846839809e+00
      -2.6424020930343484e-01 5.6601548871879008e-02
      -3.4412072037435693e-01 -4.3549648678676223e-01
      -2.8353616616294186e-01 -3.0120130323512623e-01
      9.0367264572803203e-04 4.9626379102306779e-02
      6.3914224106786155e-01 3.0120097672516383e-01
      -2.7692345478934216e-01 -5.0046417644648506e-03
      -5.0456140318075571e-01 4.6770268173527024e-01
      8.2709983900240769e-01 -1.5812188489545648e-01
      7.5270202023718216e-02 1.8375121525679400e-01
      -5.2741752424359391e-02 -4.5763026597026253e-02
      1.9120004968404540e+00 -2.0917468065350708e-01
      -7.4337662933666915e-01 -8.1020160210845638e-01
      1.4303240254061993e+00 -9.3196084623895747e-01
      4.8694345395984662e-01 -3.8561843937561795e+00
      -2.8062634372889250e+00 -1.4629109536490450e+00
      3.4017093808908250e-01 -1.7160522747940180e-01
      5.2598031525601452e-01 -5.3371439774571094e-01
      -1.1545902910483770e+00 1.4576121722466576e-01
      -4.6360161019688455e+00 -2.1325496975893374e+00
      -1.2298775939318942e+00 -4.5477773553543577e-01
      -1.4467930311462787e+00 3.6389983643905328e+00
      -3.6795431404546797e-01 3.0462545005036151e-01
      7.0421101722166835e-01 -1.2782616594957987e+00
      6.9312861546698235e-01 4.2936952258836397e-01
      8.9657922453810934e-01 -9.8492512091730822e-01
      3.3695653876263911e+00 -2.5470789220465107e-01
      3.0412951887321298e+00 4.1009754483500022e-01
      -1.2625900274481241e+00 2.4908273169906838e+00
      1.3913439309813678e+00 -4.3021382095177585e-01
      -9.2192953547149858e-01 -3.6842346092734451e-01
      -1.6367019207340774e+00 2.2871096559783113e+00
      4.8977470898888448e-01 -1.3968843598016680e+00
      -2.3713618842173947e-01 1.4206314112594450e-03
      2.2881833713532753e+00 9.9701347083012892e-01
      -4.2154753889043745e-01 -6.0705221488620953e-01
      -2.9232543603470834e-01 1.7803600643654402e-01
      -7.7720450561289989e-01 6.5131060652820782e-01
      -4.3429203583273557e+00 1.1275625666624178e+00
      -8.0651686161837322e-01 -2.5398411681362667e+00
      5.9879405446907419e-01 -5.8800544391700982e-01
      -2.7283971164082366e-01 2.1297207170338250e+00
      9.0826991928084155e-01 -2.8243568860349882e-01
      -2.3545436576174222e-02 -4.9418136284968393e+00
      -2.8224967534107646e+00 -1.4256736185344234e+00
      -1.6070712547906854e+00 -5.4402359507475255e+00</_>
    <_>
      -1.6123695611319314e-01 1.5468830649084356e-01
      3.7965206437518706e-01 1.1862141391075582e+00
      3.2996754735631732e-02 -6.8996097106845922e-01
      -7.6819805579844913e-01 -7.9825375393480380e-01
      -7.5601879882948719e-01 6.0622504078165940e-01
      1.0605080611673843e+00 -8.4678083975543361e-01
      -2.7596166263051353e-01 1.7367879831405724e+00
      -5.8445849364406499e-01 -7.3026200046559464e-01
      2.4829716458101156e-01 1.4826999092103228e+00
      5.0916621964170176e-02 -7.8530580860488378e-02
      -4.1453551688911588e-01 -1.0389437128420880e+00
      -5.2452274770478780e-01 1.0655720901377901e+00
      1.2188389105101882e-01 -1.0479563790298214e+00
      5.1380398071492306e-01 1.3602528236641365e+00
      -3.9479488121891454e-01 -1.1861804105302569e+00
      2.0816879919646020e-01 5.9719294366832076e-01
      7.6180843340810689e-01 9.1655984301093207e-01
      1.2404208396852123e+00 -2.4276007286042070e-01
      3.7420018756347706e-01 -5.6082458812802916e-01
      9.6243540133507532e-01 -4.0233290467199512e-01
      1.0661472938728573e+00 1.1579870698113888e+00
      -2.9523394890134991e-01 -1.5017372748336499e-01
      6.4635968733550242e-01 9.7965884053869035e-01
      -5.0727012769427392e-02 1.1025834538841288e+00
      -2.4658898889357559e+00 -1.1684261195025010e+00
      -2.9013777092642166e-02 1.7175312460235809e-01
      2.2709856542385545e-01 3.7609234806833830e-01
      1.7710414730487223e-01 1.2387583631123282e+00
      -7.6432644042950393e-01 4.5612734948673822e-01
      6.5119812350054007e-01 8.8951471824473716e-01
      -2.1898595515850658e-01 -2.7252488562026678e-01
      4.7041344870942664e-02 -8.2328262070305136e-01
      1.0037399895399178e-01 4.8836775152954143e-01
      -2.2932954448277890e-01 -4.2151308790593062e-01
      8.6946568816434222e-01 -5.8387298606720983e-01
      1.8716252060558830e-01 -3.6829265264758509e-01
      -2.3867656831956988e-01 8.3777581318222841e-02
      -2.9597447681748829e-01 5.8485443090428836e-02
      -1.2651610259978749e+00 -3.3603233242936736e-01
      5.3073894352846573e-01 -8.8295072536914765e-01
      4.0058766140979962e-01 -4.8681292594693776e-01
      -1.8561629594973214e-01 -8.6913751900763037e-01
      7.6936807625390846e-02 2.4461737175127226e-02
      -9.7560078322338395e-01 6.9125009011778349e-01
      -1.1453795869932644e+00 -2.0808756759816097e-01
      -2.8266660241271935e-01 -3.6600340721467228e-01
      1.5580554656701548e-01 -6.5570805095237428e-01
      3.1143078781329914e-01 -1.0505132286021626e+00
      3.4986822189642586e-01 9.5037424462955045e-02
      -1.0731650445753504e+00 2.2174038017072173e-01
      9.1353841602091113e-01 2.0629022713454431e-01
      6.1109500758788560e-01 -2.0041335850713793e-01
      1.5737966878036285e+00 7.5294034394080148e-03
      2.6755133532598463e-01 6.3543644404067223e-01
      -4.3609296263402930e-01 -5.4049738212334308e-01
      1.1076237421463961e+00 7.2957622610761064e-01
      4.3067873235971821e-01 -1.1476606210942085e-01
      2.2795989332032146e-01 1.1716866934024677e+00
      9.6650816749201153e-03 5.7737467891980498e-01
      -1.0848024084412842e+00 -9.3042288403749396e-01
      -4.8678361348211446e-01 -1.3180540510009595e-01
      4.7490182097753081e-01 -4.5073492668519566e-01
      2.9533097273814363e-01 8.5876452387031965e-01
      -1.0062737294354261e-01 7.7003409406776982e-02
      -8.2791910665624457e-01 1.4983984226705514e-02
      7.0451135126938819e-02 -1.2621714309786133e-01
      2.8084187665974708e-01 -1.0719483459790868e+00
      -1.2081210263641266e-01 -6.5230268422691517e-01
      2.9779838206851433e-01 -6.9076903338394569e-01
      2.3425709901488967e-01 -1.0876734552923242e+00
      5.7768207598760224e-01 1.6530687143857406e-01
      4.6371751467572675e-01 2.7439621111582983e-02
      2.4759257759855241e-01 1.5326899418305101e-01
      -1.6948466040429397e-01 5.1492259215818348e-01
      -3.1907294886274912e-01 3.1399026806264108e-01
      -3.9442517327921067e-01 3.0927624388278635e-01
      6.3024522655026671e-01 -2.0123277179470326e-02
      1.1469150395542393e+00 4.7520584082986941e-02
      -1.0083056463794540e-01 -3.3169339289710748e-01
      1.7667705956898178e-01 -7.2629816814895232e-01
      5.6455520764845413e-01 7.6519926861354816e-03
      -1.0040145473388071e+00 -1.7200852841352482e-01
      -1.8100657188901798e-01 -3.2959642147376472e-01
      1.1080856443057389e-01 1.5079899470276695e-01
      4.9683841507318061e-01 -5.1023440210950521e-01
      3.3231908886714484e-01 2.9599403977457173e-01
      -4.3684058985362689e-01 7.8822577866397270e-01
      -1.3025235677870067e-01 2.9019269573527384e-01
      -1.0302208102580952e-01 -7.9591543766968498e-01
      1.4401400522075154e+00 3.2101558496167144e-02
      -4.3149553582517036e-01 -5.0413093176459844e-01
      1.0618146234742974e-01 -1.3335284328889707e-01
      -5.6454910167425702e-02 3.8036395499317971e-01
      -4.8250975345869952e-02 -1.5863318068252250e-01
      4.5979328907586242e-01 5.6432051257483476e-02
      1.7471014922811372e-02 7.3192862141772375e-01
      3.6923445627579660e-01 9.9869160992286890e-02
      2.9672718930925401e-01 -1.2306589192900000e-01
      -9.6171747528277729e-02 -9.1936925007780820e-02
      4.1397188548638825e-01 3.9145347432867178e-01
      6.0722181361016891e-01 -3.7083629824001857e-01
      2.8382349309377636e-01 7.1023995792247541e-01
      -9.5716152883280281e-02 -3.6655562903739403e-01
      -2.6844457231213165e-01 -1.1804090351491170e+00
      -2.3842534046948349e-01 -4.3704835336211856e-01
      8.8516400290633013e-02 -5.1034318970155723e-01
      5.2250315841696315e-01 7.7822218858647763e-02
      -3.7803445081910952e-01 1.2369524014591983e-01
      6.9206824090308217e-01 -3.5902947026041676e-01
      6.3874034181464210e-03 -1.0645148422817421e-01
      -4.5159946274831103e-01 1.0603432406231295e-01
      -8.9850197822872957e-02 8.9094001162555045e-02
      -2.2804897149408795e-01 -9.0549764135694794e-02
      -4.3176708928686669e-01 -7.6907679862571021e-02
      -3.2496185309013065e-01 1.2338293134966840e-02
      5.0915602689086847e-01 1.5966122928830731e-01
      -4.0238111784196312e-02 -1.2896641125497607e-01
      -1.2976940546699958e-01 3.3148044971941681e-01
      3.7018448689975286e-01 -2.0643294144335139e-01
      -4.0529870198199230e-01 2.1602297943314336e-01
      -1.2512901067050647e-01 2.9470089811982447e-01
      -2.7595685491143534e-02 3.9339256923267207e-01
      1.0200291178844663e-01 -2.7084260474021286e-02
      -1.1385088011678002e+00 -1.7220213882278279e-01
      -3.2178745946270371e-01 1.2130189988147723e-01
      -9.2510599059893492e-02 8.6103745479760116e-02
      -3.3529759922239444e-01 -1.3283472480550301e-01
      5.6924125742367222e-02 -3.9503347507923103e-01
      -2.0653500135996844e-01 -9.2509400115149687e-02
      8.6950417990849760e-01 4.8035594985846408e-01
      3.2515619080506281e-01 1.8499533570423402e-01
      4.9708123329269660e-01 2.2064388419180736e-01
      -1.1405135167800160e+00 -3.6978856714359959e-01
      1.6804966983016059e-01 -1.1749718195164875e-02
      2.3030024740750350e-02 4.4897950962570077e-01
      3.8722004860954901e-01 -4.5243020880786655e-01
      -2.2468315169370587e-01 -2.2932128375304064e-01
      -5.5583741027196110e-01 -9.8836480445226704e-01
      -1.2425861568130561e-01 2.1304292882952616e-01
      -5.1404213437720704e-02 -1.3832398792546541e-01
      -4.3260126525025305e-01 1.3990018630871240e-01
      -3.3453889643018542e-01 1.4816704503689587e-02
      7.4544609598367040e-01 -7.5803395232963733e-01
      3.8337138897964634e-01 1.4107973686664699e+00
      -1.1119569552892511e-01 -3.3613464712465119e-01
      4.1746040406684082e-01 -4.0560731502347580e-01
      8.3989054017186715e-01 -5.9066799029692052e-01
      1.5327909293717907e+00 7.9512636977290974e-01
      -1.5628149758804268e+00 6.4014410401017752e-01
      -3.7877628736752861e-01 3.4564555733007624e-01
      -7.7232399590356871e-01 -9.3104393252003981e-01
      5.0269296499149702e-03 -7.3657955687118470e-01
      -7.8467835477665046e-02 2.6743936756014552e-01
      -3.3364248433197763e-01 7.3588411732578130e-01
      1.5844745059572458e+00 -2.0825747307714719e+00
      2.9043866736811819e-01 -7.3251240386607475e-01
      2.3861241283438786e-01 -1.2235415648218808e+00
      1.0590242818879582e-01 -1.2425009392911042e+00
      4.0886807340810338e-01 9.5180057480922087e-01
      1.4517855325658073e+00 1.2290334493653323e+00
      -6.7869698266149114e-01 2.6539633573825400e-01
      -1.9996672727767515e+00 1.1158783107527819e+00
      -7.8753691769591505e-01 -3.2992388461336691e-01
      6.5411120874912654e-01 3.9644361933979322e-01
      -5.5541590322660606e-01 3.0681991554923432e-01
      -1.2916011247187071e+00 -2.6683815840049113e-01
      4.4586981308884177e-01 -2.8787552258380661e-01
      -2.5542376772867477e-02 -7.1061152784575948e-02
      -3.9693676182565949e-03 -9.7247370212459355e-02
      9.2314206135554466e-01 2.7305628281809134e-02
      -9.6046822969240842e-01 5.7729283678427556e-01
      4.9047999802839037e-01 -6.6389956902023184e-01
      -8.4799568203782727e-01 7.3428695096228802e-01
      -3.5078462268635935e-01 -1.9435752698991959e-02
      -1.0455701283566455e-02 -3.5053636158750751e-01
      2.9337548831916338e-01 -7.0919072057598520e-01
      1.5336875828918545e-01 2.6722575966826478e-01
      -4.6574866454859415e-01 -2.4400411040329001e-01
      -1.6600305239595159e-01 3.7624274648343375e-01
      1.6480441224603674e-02 -1.0193949877026486e-01
      -1.2357659478534420e-01 3.5802757448271591e-02
      1.2955066435080309e-01 -7.9965703115220110e-01
      2.6805468507731317e-01 1.3524593102376465e+00
      -7.0592947640672410e-01 1.3361405822403841e-01
      -1.9937828961549751e+00 -2.3665433478063505e-01
      -4.0888339060298923e-01 1.7345005580625131e-02
      -1.7707010253378241e-01 -2.5833734115629986e-01
      -2.7293628286070284e-03 -4.4023508089757191e-03
      6.0340361297869261e-01 1.5420428386790744e-01
      -1.6969581374309253e-01 1.1487599119568613e-01
      2.9528903777154947e-01 -7.8891115300888340e-02
      -1.0304934458909969e-01 1.2318752780097288e-01
      2.1733615450994320e-01 4.4318067179753819e-02
      -8.3904534074531290e-01 3.9707392549029291e-01
      -4.3532069241382765e-01 1.2086888152502721e-01
      -7.9859074160849819e-01 2.2576494138289777e-01
      5.8043636541863664e-03 -5.0010585377794514e-01
      -4.4338994523747921e-01 -5.8355517371787888e-02
      -1.3333621326305220e-01 1.5013296534176845e-01
      -9.3109150717609401e-01 2.1596583919577833e-01
      -1.1287302042465731e-01 2.3883281070276358e-01
      -4.3743118700618699e-01 4.2908719426626923e-01
      -3.3530710659610763e-01 -1.4865262268908344e-01
      -9.3919182348659591e-01 -9.9909168644774657e-02
      1.3990635640904019e-03 3.9780558340945860e-01
      2.7329014410915314e-01 -5.4309935669054836e-02
      3.4260060282079929e-01 -5.4127083349321492e-01
      -4.1586297839323838e-01 -2.9283193848126193e-01
      -8.1101736163194438e-02 -2.1210747492011212e-01
      -3.6930336910706740e-02 -1.2240399663496802e+00
      -1.0297788129219766e-01 -1.2817826808120689e-01
      9.8830298298796226e-01 -2.0001412325967674e-01
      3.1329822647815836e-01 -4.0154884683601044e-01
      3.7973918828688863e-01 -7.1778839326014277e-01
      -3.3557017210426965e-01 3.6514962821473235e-03
      -1.2914922204246795e-01 -2.3640689947100457e-01
      -1.4720004959197208e-01 -9.0778820131020721e-01
      4.4605634985940124e-01 5.0258427648957404e-01
      3.1537356544585371e-01 -9.8801890179350194e-01
      1.2022827996738770e+00 8.6824966358568775e-02
      -1.1571607970001576e+00 5.6134344676764772e-02
      2.8620520378624092e-01 -3.1326280439706466e-01
      -4.1899243797566266e-01 8.4798980080769237e-01
      -1.6918241068423920e-01 4.4850304345973542e-02
      1.0628642308504478e-01 7.9972874519818571e-01
      -6.6968312468282032e-01 2.1017283309274046e-01
      4.3748894526561127e-01 -2.5397596115086551e-01
      8.2357329808023416e-01 2.3119071913561770e-01
      1.6073108840789911e+00 -1.6537994031562359e-01
      -2.3564576338864721e-01 1.0776524270207870e+00
      -1.8612518961176583e-01 -2.7356946971356400e-01
      -7.4352483947872494e-01 2.4735246575210837e-01
      -8.6704780588880292e-01 -1.9834665805322521e-01
      3.4642767123843003e-02 2.5340454547577301e-01
      -1.1384990498735186e+00 -5.9054012189986904e-02
      -4.6374816282540976e-01 -1.7107459838514918e-01
      3.8998968893006629e-02 2.6188745617495318e-01
      -5.2466002628899655e-01 8.0816803599206483e-02
      4.4942910435495237e-01 -5.7427550994677050e-02
      3.2053747807221594e-01 6.0119013841137503e-01
      6.9464697762935221e-02 -2.8450332428131969e-01
      1.9307779741392106e-01 -4.2436627906577268e-01
      7.4934806211337845e-01 -3.2870993651848740e-01
      5.4571531636580246e-02 1.2440287495944948e+00
      -1.9197128351388090e-01 -1.7620842190686528e+00
      2.4377344783445604e-01 -3.4794261055170350e-01
      -8.5267846890944121e-01 -1.3308459617323070e+00
      -1.2938095642268308e+00 -2.6727860501683659e-02
      -9.1844658246911981e-01 8.6447095616495462e-01
      3.5567040305391684e-01 -1.3328599375221042e-01
      -3.7633897428067609e-01 -2.3696263803774439e-01
      -3.4755163570357628e-01 -2.3566593620976168e+00
      -6.5727885090748572e-01 1.1700309678185488e+00
      1.3875560898070707e+00 3.6028744151426401e-02
      -3.2977569014741470e-01 -2.8442811145700131e-01
      1.1200475659270920e-01 -2.8234724795060390e-01
      2.2833309829308668e-01 -1.4358427451289091e-01
      -2.2981923862729428e-01 -7.1473039050426057e-01
      6.4078530674939116e-01 2.2485510083375712e-01
      -1.6280172331742233e+00 8.2068588194062420e-01
      -7.5553209708758340e-01 -2.0101373121077060e-01
      6.6989271609010859e-02 8.7561458280917159e-01
      -5.7454256841967011e-01 7.1366719815397783e-01
      -1.3790733175097918e+00 3.3659036436823880e-01
      -9.5955669352506645e-01 2.3860756449233306e-01
      -4.6436329874767590e-01 6.9447301754673740e-01
      6.9710057769519640e-01 3.8087450146554708e-01
      -7.9803453243858180e-02 3.4801130936798902e-01
      -4.6445147328542696e-01 3.8842559864110793e-01
      -7.4902755211617589e-01 1.6706103865512228e-01
      5.6264771061862640e-01 -3.3329988782636727e-01
      1.0103964360540305e+00 4.6331746968218757e-01
      -6.9073155688136578e-01 5.9122705659076832e-02
      3.7308739892177428e-01 -1.1783836434281655e-01
      -1.6447088239163321e-01 -8.9830767016900515e-02
      -1.4557340740501365e-01 1.5429326228680029e-01
      -5.8384121214085072e-01 9.7776295282150510e-02
      -3.2762406488242701e-01 -2.9103071801521455e-02
      -6.8646719730101224e-01 -1.4886143238809221e-01
      -1.4268110648034646e-01 -2.9694944706596293e-01
      1.3880049853451735e-02 -3.4590734461830730e-01
      6.7694883954178520e-01 -2.2245885274041718e-01
      -7.9179754549213305e-02 1.4148680318564630e-01
      -1.9231507703150749e-01 -2.3356070315895764e-02
      3.3123045441102034e-01 -3.3916547417465520e-01
      -9.4042056270395746e-01 5.9646686752241503e-02
      -4.4588617795181512e-01 1.3511796986304128e+00
      -3.5356919201362733e-02 2.7868315763628193e-01
      9.9937121317651489e-01 1.3811377977093231e-01
      1.5613069299571296e+00 -4.9814575327165095e-01
      1.1579729925396762e-01 1.4693598833475358e-01
      2.0695019313265794e-01 -6.8482287237595241e-01
      -4.6533205807227562e-01 2.5552252819958077e-01
      4.0796082062283573e-01 -1.7442749972052335e-01
      -6.9837304341365714e-01 4.7844841325374704e-01
      -5.4845669565862665e-01 3.1638620502698467e-01
      2.2940555802230048e-01 5.2255862205002657e-01
      -2.1634729405156869e-01 1.0206586796556543e+00
      -2.6283364056093763e+00 8.7540458825829545e-02
      -5.5980688561079787e-02 -4.0330657323788516e-01
      2.6674133071463002e-01 5.5001267119862551e-01
      -1.3137323888105212e-01 6.1497739755213818e-02
      1.2759022864826444e-01 2.0331584313216158e-02
      -4.2907226486091871e-01 -3.5203234708817508e-03
      5.4291554610211656e-01 -3.8300895766453638e-02
      6.9391202697682189e-02 6.8051398611257627e-02
      6.4200901439947566e-01 7.2574086403282767e-01
      2.8947608106101436e-02 -1.2503125654606548e-01
      5.6821516502549918e-01 -5.5275100930910252e-02
      4.3650644888463097e-01 5.1980142034086352e-01
      4.1323193506753297e-01 -2.8655608926051640e-01
      -4.6964786587858665e-01 -6.1250934258731327e-01
      4.7379303057630878e-01 -2.2696686863904281e-01
      -4.2635210258380268e-01 5.6418373457229998e-01
      -1.5864475950523685e-01 -4.8822049104770510e-01
      1.3174671443838379e-01 -5.9802523638318583e-01
      4.4589174516261751e-02 -8.1241932096134684e-01
      -1.0882703639860376e+00 4.0679551164943130e-02
      1.9182625156753913e-01 -5.6070878405875546e-02
      1.1607196009537483e-01 -1.9432751875571580e-01
      -7.2953624633196390e-01 -3.1615357636855645e-01
      -1.1824904276641776e-01 -7.4175817202173600e-01
      -2.4727410720522527e-01 1.8546992174265137e-01
      7.7893270172810569e-01 -7.9169260731230795e-01
      3.3109387481109953e-01 -2.0895501460439997e-01
      3.3911274321515233e-01 -1.2250679704211398e-01
      6.3341069283741913e-01 -3.9421302081930600e-02
      -5.1476644107897040e-01 4.1833203933907681e-01
      4.8016465779768425e-01 2.7868184526767394e-02
      -7.3860901254148115e-01 -6.8459189929338315e-01
      -4.8391297231746572e-01 -5.7227155345433611e-01
      2.7424217238709026e-01 5.2855603347515701e-01
      -5.9284300231760021e-03 2.7417624150913700e-01
      -1.4171787139714649e+00 1.6039327285208341e-01
      -1.0758188247492193e+00 -2.5106660969997852e-01
      -1.9185575311225059e-01 1.7134054994510273e-01
      1.5285231238012895e-01 7.3512114741522971e-01
      2.7582856940314832e-01 -2.5285481404579357e-01
      -3.2770822382642623e-01 3.1626217476933566e-01
      3.5994173903304466e-01 3.8507013985737149e-01
      4.1763194954966926e-01 9.9890505313882851e-03
      1.2434208614319431e+00 4.0971631518170848e-01
      7.3040383071592030e-01 -3.8089801415336610e-01
      3.5274717468660849e-01 -3.5937910500133959e-02
      5.3142832216948899e-01 5.6750753698434075e-03
      2.3089667895296831e-01 2.0937184564015437e-01
      -4.4597144963845986e-01 -1.2944486674400526e+00
      -4.2406822474165129e-01 -1.1252925208851623e+00
      -4.5659715695690817e-01 1.2306296004954982e+00
      -2.1169079465703958e-01 -9.5407243120195259e-02
      -4.6396910719335965e-01 8.4944666897482923e-02
      -2.1476105671856752e-01 -1.2964953644199906e-01
      -8.6320380720844650e-02 -1.7361725623903113e-01
      -7.1998103488668119e-01 3.8555444626687446e-01
      2.8870398641989731e-01 -3.2622604052489967e-01
      1.0406176166717340e+00 -5.0524464879581787e-01
      1.3732472064058657e-02 -3.9213024386057244e-01
      -1.4764134084273958e-01 4.8914894227590633e-01
      9.0901473383549439e-02 2.2522047322519674e-02
      -7.1622869795886612e-01 5.9372642987397484e-01
      -4.6573203440894562e-01 -3.9897068711419259e-01
      -1.6940330102141288e+00 -5.2808045148070770e-01
      1.0504001216384438e-01 -1.4932513318979840e-01
      -8.0150450051892175e-01 2.9085549106020286e-01
      -4.4213854977723249e-01 -7.7825703740606533e-01
      2.8441970696348101e-01 -1.5422936198363893e-01
      4.5454342719665780e-01 -2.9264409660937857e-01
      5.3161629199104476e-01 -8.8115487879789595e-02
      8.1127102904839682e-02 8.7334402572695191e-01
      2.4021422695117069e-02 5.6905492414096281e-01
      6.3961285020342051e-01 1.5485525728324998e-01
      -1.4436862621913564e-02 3.7772403400417554e-01
      -4.6071933619741423e-01 2.2076374517429484e-01
      3.9038702194546682e-01 5.5000432129108956e-01
      -5.0570526344058986e-01 -1.0272478872244835e-01
      -8.3284368066071757e-02 -7.9184583817845944e-01
      -3.2888481652290591e-01 -7.8038163306208919e-01
      -4.2190161925273423e-01 -8.7691691509060851e-02
      -2.5540980325415288e-03 -4.0909877000347913e-02
      -1.4646567247476855e-01 -6.3868097361495046e-01
      -1.0327496109793968e+00 4.9923308159093494e-01
      7.1209785148480351e-02 -4.8873319507343756e-02
      2.6615535299072629e-01 3.5679724873053964e-01
      -1.6842609261906680e-01 6.0957857189778286e-01
      -4.1486097390532273e-02 8.5134085720853869e-01
      7.3711548477251990e-02 -4.9204907098567528e-02
      -1.5472484196830341e-01 -2.3891294730370835e-01
      1.1018722489956564e-01 -8.2342572803101810e-02
      3.7349735364099768e-01 -2.7884618775792624e-01
      -1.4647534595807754e-01 1.2185251784820142e-01
      2.8698555828351280e-01 -5.0818787563629050e-02
      -3.5932149696516473e-02 -1.0536802519896300e+00
      -2.7063950541611575e-02 2.0298876417713529e-01
      -7.4688177885601348e-01 -1.5443053578305213e-01
      -3.1860890792755392e-01 -9.9717073607572537e-02
      1.6675433189051242e-01 -1.5327577980597773e-02
      1.7450024722202706e-01 1.1080580372106218e-01
      -1.0204593629202872e-02 3.1073883125661855e-01
      1.4111994245626019e-01 8.5695537813803263e-02
      1.4095147226556123e-02 1.8076611838128437e-01
      1.0816742881341516e-01 -1.4332459440317288e-01
      8.8181899628349700e-02 -3.4675899356003403e-02
      1.9781603487308994e-01 -1.9758317524151162e-01
      1.7990167390433298e+00 -7.0354229455044590e-02
      4.2559350839055921e-01 1.1067650816923225e-01
      -2.5189603023756979e-01 6.1964924468342245e-02
      1.1808319721397280e-01 2.6770122485992970e-01
      4.6822363679572286e-02 -2.5010956610220414e-01
      -1.5085280441541667e-02 1.0243408403903834e-01
      -3.6981390091717775e-01 2.5786768520141162e-01
      -1.5782049367684026e-01 -1.1356524021821357e-01
      -2.8384789074998081e-02 -1.3492921644395514e-01
      -1.5004365448408918e+00 -3.9121121185237134e-01
      2.8009561360321678e-01 -4.1384978202471277e-03
      -4.6325496023312014e-04 -3.9621488615644268e-01
      1.7398035730258721e-01 1.1062547181064823e-01
      8.5976227765927962e-02 5.7192409743930239e-01
      1.5270614182585721e-01 -5.3478589929965947e-01
      2.5459921599687624e-01 1.6937644769218257e-01
      -2.2773110442551599e-02 -1.0195741694934608e+00
      -1.2365690085447753e-01 -2.5014647880384411e-01
      4.1539993883811066e-01 -2.5728913487884070e-01
      2.6767449520219595e-02 -1.4267758947282322e-02
      6.7007644374131681e-01 -1.7363864911993043e-01
      -3.9915412063332112e-01 5.2676214651121300e-01
      -2.7042030434700298e-02 1.2687245002880396e-01
      -3.7963550207409053e-01 -2.9939107033782592e-01
      9.7240748100833108e-01 -1.1119692240130883e+00
      -5.6792159382647789e-01 -1.8114835201687413e-01
      -7.2870566563962491e-01 -2.2025459825630648e-02
      5.8415616495545664e-01 2.2676440200748432e-01
      5.3840499281903076e-01 5.2089270122850384e-01
      -8.8132448617468509e-02 3.8845813817712904e-01
      3.0592604714381844e-01 -2.0175095047580194e-01
      -2.3693313735790197e-01 2.3065037395204899e-01
      3.6882782302694939e-01 9.6080004959954057e-02
      2.3960523618769380e-01 5.3710872835241924e-02
      1.2452085023341976e-01 -4.7563131879303244e-01
      6.5771671090146722e-01 -4.3693865899284878e-01
      5.8020877945849547e-01 -7.4116782582448124e-02
      2.6637671114930939e-01 1.4282689561331222e-01
      -3.6152275113877769e-01 3.0752761723085975e-01
      -1.9547580960852023e-01 -2.9489237503439081e-01
      6.5942637667175423e-03 -2.3527402273878142e-01
      1.2570969762626323e+00 2.6171862234543719e-01
      2.0357410605685652e-01 1.0235166816915685e-01
      -2.4896483171635239e-01 -3.6522908377656138e-01
      1.0510745617116273e+00 -3.0845272368180926e-01
      3.9007189139884663e-01 6.9538816077625895e-02
      1.5376785787990738e-01 -1.1434915313336178e-01
      4.0363489098853211e-01 2.6023378380365149e-02
      -7.9242064149170410e-01 1.0955829895715592e+00
      -8.2000216108922372e-02 3.4889862079677519e-01
      1.0386994972951799e-01 -2.6488227144481508e-01
      2.7941944187888562e-02 4.0553991263936795e-01
      1.6786883879112005e-01 -2.3524076658077908e-01
      -5.5580218372062018e-01 -6.1086124886365578e-01
      -7.6694928868112322e-01 8.6165780991983534e-02
      -8.7515393098256267e-01 8.8010802597092863e-01
      -1.7477436065793444e-03 -1.8592241808673576e-01
      4.0050333458942705e-01 -5.7651625768953618e-01
      6.9156102400522293e-02 -1.5210985569510611e+00
      5.3879227129287810e-01 4.5706738794094717e-02
      -2.9176916586949517e-02 -1.1458431350397864e+00
      1.4888855346363710e+00 1.9493479026479954e-01
      1.2459075591474633e-01 -4.3738893780056420e-01
      6.3279092705440920e-01 -4.2093074938859158e-02
      -1.6687936053897406e-01 -5.5987759883624422e-01
      -6.7535999419922954e-01 2.4591935337482279e-01
      -5.3273684413793754e-01 -1.9103091388567308e+00
      6.3205983668269183e-02 -8.1325190303101136e-01
      6.8120533928560822e-01 -6.2716770347469919e-02
      -1.2245518288548735e-01 -2.7742243292639551e-01
      5.9905591765247825e-02 1.5797806849498299e-02
      -3.4693021094425641e-01 6.7351421416840418e-01
      1.6430122296892538e-01 1.3445817202253421e-02
      6.3539964521679371e-01 1.4555531715059256e+00
      -9.9427320526251223e-02 1.0163322690386758e+00
      2.4766749465425597e-01 5.2160755476400311e-01
      -9.5742840859542391e-02 -3.1327489216533605e-01
      1.7305442232721333e-01 -5.2949424576502334e-02
      8.7768264464164958e-01 -7.6283624295089758e-01
      8.0917301630752880e-01 1.7846178156841719e-01
      5.6280410954412918e-01 -3.4192542184623871e-02
      -3.7661347794931005e-01 -7.0163347450897151e-01
      -1.3654137764584073e-01 2.1875518540246972e-01
      -5.7935312632300820e-03 -8.7642489764842746e-01
      -6.2023316430217723e-01 -1.1987525695682189e+00
      -7.4653470863846536e-02 -2.0451626040877213e-01
      -2.3443906227015096e-01 9.2865885098331802e-01
      -1.9182026991630538e-01 -5.3801036921889533e-01
      5.0509597787329510e-02 4.6076457117319297e-01
      -2.3617112590064368e-01 -2.2997514736603369e-01
      1.9407663910226139e-01 8.0908978188580138e-01
      -1.7042278432325747e-01 -6.5954471530339148e-02
      -7.7828162276615917e-02 3.1648177510805764e-01
      -6.8970025772773016e-03 4.8737069587288567e-01
      -2.9747093247770284e-01 6.1218243903889658e-01
      4.8965476684268139e-01 2.9619945728022856e-01
      6.2765607772802001e-01 -8.2756685644984923e-02
      4.3393942648247948e-03 2.2219681567303962e-01
      -1.9433435133100097e-01 -1.7660550073551393e-01
      -1.9067774489524982e-02 1.6176193371384306e-01
      4.1824631126631073e-01 -4.1019363254799379e-02
      -1.4156629238660554e-01 -3.6110387932113708e-01
      -3.9572268314203957e-01 -1.6793680620540022e-01
      -5.2635342771361449e-01 1.5748500932739565e-01
      -8.8511746727155310e-02 3.7294858574727852e-01
      -9.9603498218942255e-01 3.8836323735972539e-01
      -2.7628318912401872e-01 2.9290392215318883e-01
      -1.7390091115550377e-01 -5.6948220555146659e-02
      -4.0263873427528152e-01 -3.0135407904627159e-01
      -2.6933749437701410e-01 1.1200477988685124e-01
      -2.6970850694392828e-01 -1.9919791519470459e-01
      1.2580340417497862e-01 -1.5146990624975184e-02
      9.1575992948406792e-02 -6.4705443584248928e-02
      1.1488579351118186e-01 6.2423870142085380e-01
      -1.2289812658163259e+00 1.9858045488400358e-01
      -5.9550110154130489e-02 -6.1684744610496806e-02
      1.2857973388895066e-01 4.1878741817335174e-01
      -1.7084791970055085e-01 -1.6636033078577461e-01
      -1.3237546230115804e-01 -1.6495826533280619e-01
      -1.2068222219166698e+00 -7.8546071441995635e-01
      -3.0542307290116200e-01 -1.0331904960620700e-01
      3.7046494870370413e-03 5.4190587519067163e-02
      -2.1007204498525214e-01 4.3731351276995939e-01
      2.0500566739549222e-01 -8.9437135260191969e-01
      1.6471999365053761e-01 -1.6581248579167396e-01
      -1.9236113087599041e-01 -6.1574807528746300e-01
      5.0564965179116392e-02 5.2159198371092630e-01
      9.0109000323933153e-02 -5.6411400473451911e-01
      -2.4383396939242735e-01 -9.1534432073378513e-01
      -6.3129066586728100e-01 -7.4624561546879653e-01
      4.4435756715525310e-01 -9.7475013056085136e-01
      -6.3400816477000033e-01 -1.1464009647199408e-01
      -1.2258120091652193e-01 -1.0170955586822997e-01
      -1.0255874720317582e+00 5.2640235038621030e-01
      -3.2645376641610774e-01 7.1342163791353566e-02
      4.2156605991471274e-01 -6.6659988823584690e-02
      6.6528001349600463e-01 1.2935777452460067e+00
      -2.6966954034755874e-01 -5.8479324858746762e-01
      9.5442902133126939e-01 -1.6408843858816483e-01
      2.6920202824752056e-02 3.4868143522117234e-01
      4.3524001267668810e-01 -2.9577143557642172e-01
      3.0501304990904138e-01 -1.7923623302271513e-01
      -1.3338377548604599e-01 1.6566256295275195e-01
      -2.6003171654789980e-01 1.0446213769102306e+00
      -1.0478967408519733e-01 8.2782911967658829e-02
      2.0276657031017323e-01 3.4362382363373500e-01
      3.4759527133868852e-02 2.0046104728716363e-01
      -1.1573572782014234e-01 -4.3856935552422055e-01
      2.4018966612990142e-01 -9.4283506143203535e-03
      -6.2652283166540645e-01 -4.5375994949791254e-01
      4.2985350815394979e-01 2.5945186928398575e-02
      1.3007928327407017e-01 -5.2475972551920358e-01
      1.8037079907573823e-02 -1.6586905272766132e-02
      -5.1604495595134636e-01 1.9725997057908648e-01
      -5.0001762338822964e-01 7.9079720252587760e-01
      1.2307042577809045e-01 8.0102211490574893e-01
      -2.1732734816393032e-01 -1.2493824332380478e-01
      8.0937831942241689e-01 -3.4357541560436838e-01
      6.0967964991546886e-01 -7.4969588390957465e-01
      -1.2770401704087531e+00 1.0133712021581798e+00
      4.2273198120168415e-01 -3.3641685293203233e-01
      6.5766077207117191e-01 -6.5438776958682665e-01
      -1.5594476029140349e+00 6.8953260582645548e-01
      -5.2970061664079963e-02 -2.1391880289380851e+00
      -1.0929330066193899e+00 4.6142546340800311e-01
      8.5960921241025856e-01 3.9935236653891298e-01
      2.3418276585812334e-01 -6.3937672255759170e-01
      1.4784375753092531e+00 7.0907349516708040e-01
      7.1814109984643104e-01 -6.0412235063945485e-01
      1.2167629402850796e-01 -1.3415536999096489e-01
      1.4567511697724960e+00 -9.1074834292362494e-01
      -1.0237007266487752e+00 1.2056257762822671e+00
      -1.3003577612480084e+00 5.0154726908657743e-01
      1.6857393696731570e-02 1.3795354288973392e+00
      -7.1721534358963612e-01 1.1040680401379857e+00
      -2.0592892503018811e-01 -5.6531019306897456e-01
      -1.3013849426830002e+00 -1.4150479372438343e+00
      1.0884443340368569e-01 1.8263453358641007e-01
      9.4644813818895823e-01 -6.5895574230764009e-01
      8.9362785298521719e-01 -9.8225483860414464e-02
      -1.0314983570348251e+00 -7.0337188204623791e-01
      2.1271566050355144e+00 2.1620982227428229e-01
      1.5762079473774302e+00 8.7118042319397948e-01
      1.2576688953499624e+00 1.0959877107327680e+00
      7.7097480323377499e-01 8.8358329702008642e-03
      4.5734392399587520e-01 -1.7804935808527236e-01
      -6.4905325008164505e-01 7.9521399073754628e-01
      1.1197248408648581e+00 -3.7979234072872575e-01
      -1.1597685649291540e+00 1.6341814773997004e-01
      5.5573167134226176e-01 -1.1678082061836805e+00
      -6.7710964172046473e-01 -7.0425715214633389e-01
      -2.7256493145584981e-01 6.6699834160042115e-01
      2.3205185161584435e-01 -1.4994764127796364e-01
      3.1511272931824313e-01 4.8160934720260518e-01
      -7.6233809707623912e-01 -1.1625125674187786e-01
      6.3020928946894228e-01 -5.9937827880092331e-01
      -1.2831212401318112e-01 7.5488792681390071e-01
      -6.1506344436829541e-01 -4.6108065771223478e-02
      -2.5324638188865561e-01 9.4863477264398555e-01
      3.5442090087251049e-01 6.6022718848009743e-01
      2.6258807187160332e-01 2.0223013391175476e-01
      -1.7571365393981176e-02 -2.7486732809946424e-01
      3.4869436091409617e-01 -7.5128179134898609e-02
      5.0455897530714666e-01 -1.0713987643201355e+00
      -1.6217052221069805e-01 4.6699027171065505e-01
      1.0281972024586470e+00 5.3998067755341869e-02
      -1.7297588183605317e-01 -6.3553212252783775e-01
      8.3626248139229986e-01 8.5985120061631184e-02
      3.5040814237568224e-01 7.8114633159193847e-01
      -1.5008554369981378e-01 1.4824962294204587e-02
      -2.2668195383190257e-01 4.0262528701771744e-02
      -3.9767901914738218e-01 -1.7616406872210846e-01
      -5.8462478414215246e-01 4.9873305118330885e-01
      -7.6407190408860737e-02 -1.5477811752438930e-01
      7.8242082373844474e-02 -3.8820939008914590e-01
      -3.0698937677849908e-01 1.2051770084840140e-01
      4.9448169811655873e-01 1.1918080105347530e-01
      2.9771578822289085e-01 2.1510620473544595e-01
      1.0068011790680078e+00 4.6898908534123401e-01
      3.1623496393220490e-01 2.9678882453485819e-02
      -2.2461564127082821e-03 -6.0363748461668186e-03
      5.0067226735369352e-01 2.3732966616545192e-01
      1.3216827033434200e-01 -1.5958535991295433e-01
      -4.2269967475239334e-01 -1.0380840671052385e+00
      3.2447275448119456e-01 5.7278455758178359e-01
      -4.1662170584530400e-01 8.9254527434781195e-01
      -6.0432707466004480e-02 -1.2941466167397000e+00
      5.6460534577340171e-01 3.8264157223796075e-01
      2.2711682459496921e-01 1.1743650939364345e-01
      3.8868883192397223e-02 4.7347507639958292e-01
      -2.2186679725463315e-01 -2.6419932736677632e-01
      3.6980902870908450e-01 -7.9808770591398281e-01
      -1.0343393901964339e+00 4.0481473341918212e-01
      2.6967155152670713e-01 8.2230832881398055e-02
      2.0129076762205747e-01 8.8189754563214429e-02
      -6.0871020620675853e-01 5.0772414720139036e-01
      -9.7917817864929873e-04 8.3970874272037213e-02
      4.3577875323656445e-01 1.6412333963120507e-01
      1.9026689951808182e-01 4.4740411193257557e-01
      6.8933267257571429e-01 -5.0729801035317690e-01
      1.4314006952757607e-01 -4.1359053671471319e-01
      -1.6630504357648096e-01 6.0597178797886475e-01
      1.2342363299244770e-01 4.7917114680795958e-01
      -3.3457450198773198e-01 -2.8486036351350413e-01
      2.0614733232661556e-01 -3.6402109712057557e-01
      6.9815077032515915e-01 -1.0751282431681315e-01
      -6.7568576997330454e-01 -3.1012606360863820e-01
      9.9754168767755780e-01 -1.0932836900719280e-01
      -2.7127534982632784e-01 -5.4210235442421761e-01
      1.7536036265167565e-01 2.8996703269593982e-01
      -9.9519839036551039e-02 -3.6616147153028916e-01
      9.6697331848724810e-01 -1.0959997727191359e-01
      7.6826676150629436e-02 8.0894494213492529e-01
      -5.2051971185836279e-02 2.5853889495964094e-01
      -4.7183337289406502e-01 2.4072424046011504e-01
      1.9196951597197889e-02 7.9113138846157768e-02
      -9.7544817291510466e-01 8.7752031418105603e-01
      8.8966539755643059e-01 -7.6205718644256970e-01
      -1.0873111230541549e-01 2.4223977762591745e-01
      -6.2209751708031025e-01 2.1847513778180366e-01
      1.9268170119113451e-01 -1.6400683552131268e+00
      2.2068471585566718e-01 1.0966090970010560e+00
      -1.1675005471832244e-01 2.3075403475507508e-01
      6.1922436734989858e-02 -2.2278096490630106e-01
      3.3335012361561889e-01 -1.1503374707349444e-01
      1.1350622364504570e-01 -2.9658624814650134e-02
      -5.7011793643637454e-02 -3.5823048722868775e-02
      3.2255101452677204e-01 -2.9239443669304604e-01
      2.1751268568414003e-01 -1.4032066704914974e+00
      2.4520622034941427e-02 1.4066715119839521e+00
      -6.3567956585722085e-01 -8.5716826982602176e-02
      2.0691160654238341e-02 1.3667352716120668e-01
      -1.0004193566786737e-01 -3.5126413513169635e-01
      -8.7387563596685502e-01 1.6096829735515436e-01
      2.3034750807692592e-01 -1.4970660722545334e-01
      -1.9428207675233045e-01 3.8668128335565516e-01
      8.9941334303162257e-02 -6.0920528986492162e-01
      5.4189042726094892e-02 4.3103127243740791e-01
      1.3346325106739523e-01 -5.6194687037330038e-01
      4.5677273134665597e-01 -3.9737972379327030e-01
      2.1219167952545170e-01 1.3546749519079360e-01
      3.5156197025706087e-01 -1.8890474651497981e-02
      3.9597681974546668e-02 -1.9272447439388526e-01
      -2.6726335038005045e-01 -2.5778962431169555e-01
      -8.8691436907676075e-03 -7.1381168613327856e-02
      2.2475837424113224e-01 4.8768786998925662e-01
      -4.3631172179518940e-01 -2.4377914782035262e-01
      -6.3985375075502615e-01 1.8676794473358452e-01
      -1.8552681253367571e-02 -2.6779157611435533e-01
      -2.7199346425468990e-01 3.3486778628260699e-01
      -4.6293705727031405e-02 -6.0597549622117769e-03
      1.3175602684333468e-01 1.0145178459640627e-01
      -3.1197351145686497e-01 -2.3901175408864236e-01
      3.2661253601929963e-01 1.4591640873712330e+00
      1.3981779216332088e-01 -2.7856641648257735e-01
      2.1025517642187447e-01 -1.0919848418631077e+00
      7.5757656260860576e-02 -2.5707417540317085e-01
      7.1017635460961168e-02 -7.1116897969350701e-01
      -1.4829920383631240e-01 1.9484065865226746e-01
      -2.4721013478837633e-01 -1.8852095152429321e-01
      -3.4252102761473197e-01 1.1018787148548455e+00
      -5.6258080295167635e-02 2.9220899210034779e-01
      -2.0902454706338000e-01 9.1155126037197512e-02
      1.9587535119482954e-01 -1.2605615942761692e+00
      -7.5715824689666103e-02 3.1036135979246565e-01
      4.4187491936964102e-01 4.7743285476172609e-01
      7.9093115793369850e-01 -1.5555591752311834e-01
      -1.2219986368735131e-02 7.8879403756729513e-02
      1.2625280181893866e-01 -5.3836185738607547e-03
      -7.9915550302991856e-02 -5.9411838798156043e-02
      2.6585631475637578e-01 1.2102873391333765e-01
      -2.4262444382465281e-01 1.1347429645676304e+00
      -8.7849531800071257e-01 1.4941313016100119e-01
      -2.1475076398421861e-02 1.9593517195638920e-02
      2.1372455074415497e-01 1.9036647948365007e-01
      -1.8526439526685240e-01 1.9115535384885382e-01
      -2.3213998348574003e-01 3.7983524650769052e-01
      -1.4008584942120809e-02 -2.0272166896905608e-01
      -7.0196225405790208e-02 -6.5597673993191785e-01
      -4.6892986309463003e-01 2.1714693011992892e-01
