<?xml version="1.0"?>
<opencv_storage>
<opencv_ml_ann_mlp>
  <format>3</format>
  <layer_sizes>
    29 100 100 35</layer_sizes>
  <activation_function>SIGMOID_SYM</activation_function>
  <f_param1>6.6666666666666663e-01</f_param1>
  <f_param2>1.7159000000000000e+00</f_param2>
  <min_val>-9.4999999999999996e-01</min_val>
  <max_val>9.4999999999999996e-01</max_val>
  <min_val1>-9.7999999999999998e-01</min_val1>
  <max_val1>9.7999999999999998e-01</max_val1>
  <training_params>
    <train_method>BACKPROP</train_method>
    <dw_scale>1.0000000000000000e-03</dw_scale>
    <moment_scale>0.</moment_scale>
    <term_criteria>
      <iterations>1000</iterations></term_criteria></training_params>
  <input_scale>
    4.0203977077492823e+00 -1.6081128541356631e+00
    1.0313468975212656e+01 -1.9167585190443639e+00
    1.0873726571063507e+01 -1.6725307570811407e+00
    1.2479538751435665e+01 -1.4449536648561634e+00
    1.2936939037431321e+01 -1.1500593018584904e+00
    2.3488405526472274e+01 -1.2469548010320912e+00
    4.6825085242871928e+01 -1.7502062625014243e+00
    6.3310269275818214e+01 -1.8777950983977074e+00
    7.3570666994305469e+01 -1.8343274951404065e+00
    9.5961241485737645e+01 -1.9071172471011415e+00
    1.2711932060870772e+02 -2.1682436349417511e+00
    1.4765556963238521e+02 -2.1997121058915927e+00
    1.5803356683950577e+02 -2.0309023146979599e+00
    1.6780274223848443e+02 -1.9603136177165847e+00
    1.8296574574257093e+02 -1.9021102235184233e+00
    1.8868974768845553e+02 -1.7792365473519782e+00
    2.2603627067679849e+02 -1.8042863864606511e+00
    2.3909656180419464e+02 -1.7452088789499016e+00
    2.6461379071941025e+02 -1.7616620551993976e+00
    3.0893978288886819e+02 -1.8366647179801832e+00
    3.3560690281045873e+02 -1.8842331967352166e+00
    3.9024350300926091e+02 -1.9259541085196081e+00
    4.1366237772428099e+02 -1.8740502417811877e+00
    4.7762206860366712e+02 -1.9740960906272025e+00
    5.1523112057613264e+02 -1.9780940058235383e+00
    5.4144673607635377e+02 -1.9376513980377958e+00
    6.0552908421137352e+02 -2.0415944223343021e+00
    6.2665925266785609e+02 -1.9150000737811474e+00
    6.5780898216977846e+02 -1.9182822107186466e+00</input_scale>
  <output_scale>
    5.2631578947368418e-01 4.9999999999999994e-01 5.2631578947368418e-01
    4.9999999999999994e-01 5.2631578947368418e-01 4.9999999999999994e-01
    5.2631578947368418e-01 4.9999999999999994e-01 5.2631578947368418e-01
    4.9999999999999994e-01 5.2631578947368418e-01 4.9999999999999994e-01
    5.2631578947368418e-01 4.9999999999999994e-01 5.2631578947368418e-01
    4.9999999999999994e-01 5.2631578947368418e-01 4.9999999999999994e-01
    5.2631578947368418e-01 4.9999999999999994e-01 1. 0. 1. 0. 1. 0. 1.
    0. 1. 0. 1. 0. 1. 0. 5.2631578947368418e-01 4.9999999999999994e-01
    5.2631578947368418e-01 4.9999999999999994e-01 5.2631578947368418e-01
    4.9999999999999994e-01 5.2631578947368418e-01 4.9999999999999994e-01
    5.2631578947368418e-01 4.9999999999999994e-01 5.2631578947368418e-01
    4.9999999999999994e-01 5.2631578947368418e-01 4.9999999999999994e-01
    5.2631578947368418e-01 4.9999999999999994e-01 5.2631578947368418e-01
    4.9999999999999994e-01 5.2631578947368418e-01 4.9999999999999994e-01
    5.2631578947368418e-01 4.9999999999999994e-01 5.2631578947368418e-01
    4.9999999999999994e-01 5.2631578947368418e-01 4.9999999999999994e-01
    5.2631578947368418e-01 4.9999999999999994e-01 5.2631578947368418e-01
    4.9999999999999994e-01 5.2631578947368418e-01 4.9999999999999994e-01
    5.2631578947368418e-01 4.9999999999999994e-01 5.2631578947368418e-01
    4.9999999999999994e-01</output_scale>
  <inv_output_scale>
    1.8999999999999999e+00 -9.4999999999999996e-01
    1.8999999999999999e+00 -9.4999999999999996e-01
    1.8999999999999999e+00 -9.4999999999999996e-01
    1.8999999999999999e+00 -9.4999999999999996e-01
    1.8999999999999999e+00 -9.4999999999999996e-01
    1.8999999999999999e+00 -9.4999999999999996e-01
    1.8999999999999999e+00 -9.4999999999999996e-01
    1.8999999999999999e+00 -9.4999999999999996e-01
    1.8999999999999999e+00 -9.4999999999999996e-01
    1.8999999999999999e+00 -9.4999999999999996e-01 1. 0. 1. 0. 1. 0. 1.
    0. 1. 0. 1. 0. 1. 0. 1.8999999999999999e+00 -9.4999999999999996e-01
    1.8999999999999999e+00 -9.4999999999999996e-01
    1.8999999999999999e+00 -9.4999999999999996e-01
    1.8999999999999999e+00 -9.4999999999999996e-01
    1.8999999999999999e+00 -9.4999999999999996e-01
    1.8999999999999999e+00 -9.4999999999999996e-01
    1.8999999999999999e+00 -9.4999999999999996e-01
    1.8999999999999999e+00 -9.4999999999999996e-01
    1.8999999999999999e+00 -9.4999999999999996e-01
    1.8999999999999999e+00 -9.4999999999999996e-01
    1.8999999999999999e+00 -9.4999999999999996e-01
    1.8999999999999999e+00 -9.4999999999999996e-01
    1.8999999999999999e+00 -9.4999999999999996e-01
    1.8999999999999999e+00 -9.4999999999999996e-01
    1.8999999999999999e+00 -9.4999999999999996e-01
    1.8999999999999999e+00 -9.4999999999999996e-01
    1.8999999999999999e+00 -9.4999999999999996e-01
    1.8999999999999999e+00 -9.4999999999999996e-01</inv_output_scale>
  <weights>
    <_>
      -1.4962636504585887e+00 -6.3524489618850355e-01
      -1.1564644567755571e+00 8.5639690398606055e-02
      1.5604390182402184e+00 1.3332797492062649e+00
      5.8626856480324774e-01 -8.2037357790340248e-01
      -6.0081827380398778e-01 -4.9492623650292761e-01
      1.4734446823380309e-01 -2.4035680978920895e-01
      8.2801087880315027e-01 -1.0571126500753285e-01
      -7.9941109158468915e-01 -5.5031754087116713e-01
      -2.2373223738914900e+00 4.6059273595224859e-01
      -3.3121584611448773e-01 -3.1515019105173647e-01
      -1.0884029624623421e+00 1.4485336352926519e+00
      2.6312165149092004e-01 4.5235623360411303e-01
      1.4702449191584077e-01 2.8707409630171654e-01
      2.2369329030494409e-01 -1.1745328076922026e-01
      -2.7720280651567930e-01 1.0651110744151614e-01
      -1.2754984510981432e-01 4.9641662135421449e-01
      1.6658972910625083e+00 -1.4069094615379166e-01
      1.1795702286155282e-01 -1.9459104208135722e-01
      5.8702081367105086e-01 3.4856590188605829e-01
      -3.2065527512288816e-01 -2.8634817385149523e-02
      -1.4238029851268397e-01 2.9088275973045730e-01
      8.8902424542094349e-01 -1.4382013477430688e+00
      -5.2068253775473472e-01 -1.0653428216644499e-01
      1.0698168344920751e-01 4.9997529637077820e-01
      4.9288005753480330e-01 6.7121361162127136e-01
      6.5542157273589519e-01 -1.3564810802895280e+00
      3.9385502605156458e-01 -6.1609233492486060e-01
      9.8524160626790624e-01 2.6387311879329711e-01
      4.8443324982554598e-01 1.9671653044132855e+00
      -7.5071026970715393e-01 7.0937947529177336e-01
      1.7862714260083173e-01 7.5089380277442130e-01
      6.7208527376862492e-01 -6.2636915514149749e-01
      -1.6840934346111185e+00 -9.8725563679980832e-01
      -7.1621146539954383e-01 -1.0111696981869427e+00
      -2.6475975950731527e+00 -1.0571685948129088e+00
      -5.7296055243622712e-01 5.9871884169877310e-01
      6.7056284148978074e-01 7.4820975704970072e-01
      -1.0056086795339585e-01 4.3688036642597877e-01
      7.4343501365082909e-01 -2.9811489062813179e-01
      3.5870519702041742e-01 -3.5447422760442387e-01
      -4.6906026354381399e-03 -5.9269803209938710e-01
      -6.4048902069923841e-01 1.4047099352302819e+00
      3.9198941227880885e-01 -8.7830612688574006e-01
      -2.1617029063343590e-01 -2.6873227020352686e-01
      1.6595360374675711e-01 3.5281211993243300e-02
      -3.1956093296711413e-01 -3.4203937526268952e-01
      -9.8396405466565262e-01 -9.8447336180739434e-02
      1.6568431850449727e-01 5.3723644963189132e-01
      8.0620010063867409e-01 -2.6189741719146525e-01
      1.5965184198420523e-01 9.6722669230203701e-02
      2.9157421601220723e-01 3.1740027562456529e-03
      -6.5949270358647905e-01 -3.2170701155581366e-01
      -3.8311462613624461e-02 7.2919702262035124e-01
      -5.7384618641133833e-01 -1.0817213922077713e+00
      -5.2633534640488078e-01 -4.0330652406996437e-01
      -7.8910875931664834e-02 -4.9501874244179572e-01
      8.4077475735774343e-01 2.9367296565974771e-01
      -5.1630091307717196e-01 -4.9796861243029450e-01
      -1.0013468646074071e+00 8.9536000462195686e-01
      1.8605032756653936e-01 1.3534167692732326e+00
      -4.5890902597663585e-01 9.9436226400469885e-01
      6.8252184225046353e-01 1.1847707794874102e-01
      3.1006127825996471e-01 1.1516749401696542e+00
      -1.0215221348571641e+00 2.9924519054308013e-01
      -2.0050866999093140e+00 -1.1249899679166890e+00
      4.0429016449655725e-01 -2.5400837705731122e-01
      9.6526538252022331e-01 -2.5110055276078191e-01
      2.5597985099251469e-01 3.7490401166510179e-01
      5.7154451307088461e-01 -4.9646051857117857e-01
      3.4867035731825763e-01 -1.1600593633879461e+00
      4.8546131843276863e-01 3.1116992179004610e-01
      2.1636746902396053e-01 9.2893972261954130e-02
      5.5982821354846635e-01 -2.3691216511824320e-01
      -8.6287377027362264e-02 2.9266781101465966e-01
      -6.7673603015803954e-02 -1.4752372763481494e-01
      8.6943534085905372e-01 3.9846416357465719e-01
      -7.0282684367372483e-01 -1.8640032713092519e-01
      -8.0867963942951171e-01 4.9599982998386492e-02
      5.9694144164009955e-01 -2.0679017668547348e+00
      6.4315604392082126e-01 -2.7036535878090900e-01
      1.6431494810609806e-02 2.5039025949679322e-01
      4.1170829896725797e-02 -4.9095980385101828e-01
      -1.3407393723101242e+00 1.0802718822266918e-01
      -5.2240732771161702e-01 4.2286646263614502e-01
      -8.7759064738115822e-01 -1.1077067832900269e+00
      -1.1806386431838128e-01 -1.3474441398544312e-01
      -9.2598487417206521e-01 -3.5878161795917274e-01
      -1.3037740442913008e+00 3.7058755196475651e-01
      -7.7655359155202763e-01 1.4129890109386516e+00
      1.1827811687271612e+00 -3.2002469892484309e-01
      -2.7531642571695125e-01 4.7799345255368060e-02
      -9.3549986402196791e-02 1.4998263215235353e-02
      -1.7801498334521665e-01 3.5879656881431427e-01
      2.1488821023104127e-01 -1.9843981011812814e-01
      -2.4393690933675422e-01 2.6973777642873248e-01
      -5.3541434924749032e-01 1.0070173513343246e+00
      -3.0020277180413985e-01 -9.9439519272791987e-02
      -1.1673196772758903e+00 5.0040866536124419e-02
      4.6087297837993346e-01 -1.3181699442248473e-01
      7.5422963914716346e-01 -5.7042099792400836e-01
      -1.2965801387693574e+00 -6.0981759342180775e-01
      -7.7587463612662655e-01 -4.2404431156373301e-01
      1.4633852093916615e+00 -3.4900573468994123e-01
      4.0376769663627393e-01 4.3080954314464170e-01
      -5.8330585965875814e-01 -4.9520061488747633e-03
      9.1364422575677207e-01 -5.4196713660434248e-01
      9.2538523363394604e-02 -4.1716117673323261e-01
      5.8046349209445647e-01 6.9047290762508007e-01
      -1.0218190259307480e+00 1.2501185744141258e-01
      -1.5296589877544153e+00 -1.0743572166700366e+00
      7.8773751287608484e-01 9.1219168765000835e-01
      4.4290864861430679e-01 -1.1096465130829571e-01
      8.1104937336888960e-01 3.0026658008365320e-01
      -7.0612728590983209e-01 -3.2391219697861995e-01
      -4.8760520380646523e-02 -6.1248098452759470e-01
      6.4556962197642598e-01 1.7004087700091303e-01
      -4.4621644351767559e-01 -4.8651481793692047e-01
      -6.9747035077006767e-04 4.5682334556122201e-01
      4.0546606355607095e-01 1.5500073868088076e+00
      9.8910976192211730e-01 -1.2027007216514815e-01
      7.7156290027407171e-01 1.0028694589620752e+00
      3.7462484599175011e-01 7.4668618498216399e-01
      7.0166450701325142e-02 -5.8988538499673948e-01
      -2.6921688311385372e-01 4.8961483074619150e-01
      9.0132539550983670e-01 -4.4693447888872034e-01
      4.7337554301059082e-01 -1.6863746959983744e-01
      -2.5881097224051258e-01 -5.4387683230308770e-01
      1.0356397729774898e+00 -4.9990636075439637e-01
      3.8626478743273247e-02 1.0254586181323244e+00
      6.4736152808667780e-01 -6.4113090143735410e-02
      -1.1569457299665234e-01 6.5961365260920679e-01
      2.6912479341637352e-01 2.7921114716920228e-02
      6.7258606906851626e-01 -2.1867054278692236e-01
      -8.9617187023277700e-01 -1.0494482981290973e+00
      -5.0901702213331179e-01 -7.6366576771492012e-01
      -9.8904357327342973e-01 3.7844485303956871e-01
      -2.9409666665141976e-01 1.2496225507521286e+00
      6.0136777192807467e-01 -6.8490245033508756e-01
      -4.5727826166559882e-01 -3.6920687556318066e-01
      2.2989809910251080e-01 -2.8344695008985343e-01
      1.8890854767582652e-02 2.4259070392801560e-01
      -3.3881794746814364e-01 1.8134762976070073e-01
      3.9096449742096140e-01 -8.6108861768153844e-01
      4.4504733428194715e-01 3.1710966954950320e-02
      1.4077102229222127e-01 -2.6063608315894521e-01
      -9.8794649189221562e-01 -6.4804210648329164e-01
      1.1857523616129628e-01 -5.6090759107841337e-01
      -6.6366451760828893e-01 -7.4539155428336695e-02
      -1.8793198310849657e+00 -6.5167952468058443e-01
      2.8534686138229054e-01 -4.9017911181842455e-01
      -1.0141320827595606e+00 -8.3822569648065848e-01
      -3.5603541444108050e-01 -7.5048666756678206e-02
      9.3892858668543921e-01 8.1439652425567377e-01
      -2.1051643090169500e-01 -4.5948137582101145e-01
      -3.4213245366597694e-01 -2.8400989134269378e-01
      1.0141016305513448e+00 8.0958946256868680e-01
      -1.3219066381449827e+00 1.1033654657715909e-01
      3.4348050891822196e-01 -1.2040070259123931e-01
      -8.9735926958577072e-01 -6.4437547904894810e-01
      4.3333971881559477e-02 6.9340369365262544e-01
      6.7431228004815241e-02 2.6484811841466199e-01
      7.4475381583347844e-01 3.2533190142815283e-01
      -1.6585244067046308e-02 -8.0592980350510413e-01
      -4.7570190771651610e-01 -8.1389772617316380e-01
      -3.0034558410027662e-01 -2.7533218869639120e-01
      3.9745004900887704e-01 -7.1036932660346574e-01
      5.8119486540346588e-01 -5.1340180183412010e-01
      6.0718359643920264e-02 -1.8956235746690700e-01
      9.1688864849312057e-01 1.1040770399868998e+00
      -5.4297368337887519e-01 -4.2822461386251826e-01
      -3.0392391941624392e-01 3.5964052000948604e-01
      -3.8459455927241726e-01 -9.5539373905661285e-01
      -7.3485000590422112e-01 -5.4971408655144871e-01
      -1.9188120168037048e-01 7.3964906579067025e-01
      -6.6197185124048952e-01 1.2117209428931663e-01
      4.1637792029516751e-01 -6.3079310656819332e-01
      -6.6643783471904333e-02 4.3880131797087113e-01
      -2.1589884623054950e-01 -4.4109191885239413e-01
      -2.6193088958693433e-01 -4.6671558762270310e-01
      -2.3383590070153240e-01 1.1175678009284833e+00
      -1.0157266986004998e-02 8.2846090732100397e-01
      5.2765957496517624e-01 -5.3259213603761080e-01
      6.5613707250882514e-01 -3.1961971049303944e-01
      -2.5315061695180902e-02 -7.3207969802135708e-01
      -6.8516491060779117e-02 -2.1134502269901216e+00
      -2.4642239751934275e-02 -6.4146737986372981e-01
      -1.0905236631601516e+00 2.0399005708135078e+00
      7.5206962863501303e-01 -7.1463331722150386e-02
      -1.1643192506720719e-01 -5.0940436788349797e-01
      -4.5912245578897504e-02 6.8390860349263294e-01
      -3.9669424542494419e-01 -9.9124324147830978e-01
      -5.9967881644402654e-01 1.7430204485019804e-01
      7.0149312463810387e-01 3.3529057007221064e-01
      -1.2789376810527664e+00 -4.9829744561943917e-01
      -2.7119947393748056e-01 9.6588121775385805e-01
      -6.0739760657411412e-01 -2.4530412816246253e-01
      4.4521599839420452e-02 -1.1285316388662273e-01
      -9.5800235533299771e-01 3.7229166326876784e-01
      -9.3356698052276876e-01 -1.7300767366334815e-01
      5.3616121204988454e-01 2.8197836131484022e-01
      -1.3902205746827561e+00 -5.3186532247290086e-01
      -4.5492789243776321e-01 -9.0146928193727355e-02
      1.6749337976913173e-01 1.4349101001581028e+00
      1.2574714758929159e-01 -5.1300577116076462e-01
      -8.7433504106392071e-02 1.0666170097604019e-02
      9.7733324647299269e-01 4.9163423992832350e-01
      -1.7477969242389164e-02 -7.8259177883836106e-01
      3.3098634793577253e-01 -8.4283649699569596e-01
      -2.0034052228539125e+00 -1.6149496160810306e+00
      -7.0034912721740381e-02 4.9636376695014067e-01
      -3.0290227781880497e-01 5.7268813386887341e-01
      2.0097832494629111e-01 -5.4143934255700388e-01
      1.2570783383195230e-01 6.6055658998210998e-01
      8.6858782659612749e-02 -3.3471514609784941e-01
      1.3048924978547887e+00 -6.3194903668447056e-01
      4.0885854868544895e-02 -1.4965090143407181e-01
      7.9948581689638865e-01 8.1927681244345612e-03
      2.7843996506403695e-01 2.9335796757632193e-01
      2.1162770675860884e-01 1.6865457976527942e-01
      -7.8228600221774669e-01 7.6372743144148061e-02
      4.8793715216296363e-01 4.8158124845053329e-01
      -3.3951333233066577e-01 -5.2504364873706411e-01
      -9.5039833047928068e-01 -1.2459927259750982e+00
      -7.9370429756739524e-02 4.7771530940591883e-01
      -6.0705230292051084e-02 2.5970907268867638e-01
      4.8167607339725965e-01 -9.4137365363314374e-01
      -9.0507792183845595e-02 6.0301927323432958e-01
      -2.3399726517122946e-01 -3.5105426100551346e-01
      8.2330640448596204e-01 1.0166444908003580e+00
      -1.9478072029143509e-01 6.3973111060277221e-01
      1.8329785259139544e-01 5.1897531149438947e-01
      4.9548252340188594e-02 -1.6397740439170863e-01
      -1.0252141653649745e-01 -4.8054572939130452e-01
      3.7419297173578109e-01 3.9772498529920708e-01
      1.2406272553916287e+00 -7.8353920819023259e-02
      -2.3448703522681291e-01 -7.4236449503748136e-01
      1.2804028241540446e+00 1.3591647747490256e+00
      1.8315726421376560e-01 7.0564549348434008e-03
      2.4756516226296746e-01 -1.5491276884944216e-01
      -8.3350956415906327e-02 7.7744707134372940e-02
      1.8215796698673370e-01 -5.4507546008918195e-01
      3.1994261798898534e-02 2.4989597291565757e-01
      8.7026512428051928e-01 -3.5042591473169848e-02
      1.6255132691422816e-01 -5.9763733460811741e-01
      2.2517462613993209e-02 -4.4852787625313040e-01
      -1.5828989715547011e+00 -3.5381501879313937e-01
      -5.5511465834821017e-01 -5.6718912839673639e-02
      -5.9284400881691990e-01 2.1560895370853550e-01
      2.7724048101481245e-02 -2.9023953198682606e-01
      -3.0486339427363340e-01 -1.0462635562863900e+00
      -1.1919947041444250e+00 -4.1036447814990645e-01
      -1.8038666615898621e-01 4.3623492920758344e-01
      8.8171157471586703e-01 -1.9325245584751552e-01
      1.3975221156044010e-01 -5.4583132242830668e-01
      5.4969996914538244e-01 -6.0617141233276073e-01
      5.9467582345977543e-01 3.0104740748908299e-01
      -2.5435688902977943e-01 -3.6370314862558556e-01
      -1.7206334648681507e-01 -1.2778315689843928e-01
      -6.4613675510871116e-01 2.1653858205322707e-01
      -4.8099978823600170e-01 1.3324088551979838e+00
      4.9017711226363286e-01 1.2619257029450529e-01
      -2.4170052365600309e-01 -1.5058647266235725e-01
      2.5525053235301692e-01 -4.6344084956188702e-01
      3.5593506931495311e-01 -6.6504285612187730e-01
      -4.4873964299263785e-01 -2.5605171872661964e-01
      -5.8912515118315162e-02 7.3282440647832670e-01
      -1.0908165372513433e-01 -6.8763140436418779e-01
      3.3407849682176144e-01 1.6996265056482679e-01
      4.8757168801764555e-01 3.0364026717871478e-01
      8.6148983815453800e-02 2.9366174339471929e-01
      2.9656508599008807e-01 -1.4586394782780596e-01
      3.3311811733646901e-01 6.9401722149636647e-01
      -9.2362261177249971e-01 -4.6107538312231017e-01
      -2.1896595664459192e-01 1.1777351350521410e-01
      1.0610219677582053e-01 6.2455450178219796e-01
      4.4184568692724568e-01 -3.6704614394413060e-01
      -4.8100710789561102e-01 -5.3073152952527158e-01
      -2.7219127383922459e-01 -4.6749525623406546e-01
      1.7014837031042396e-01 3.4458643444025583e-01
      -2.0194708639004445e-02 4.5199158692944058e-01
      -4.0049216624102996e-01 5.8183830748089249e-01
      -6.8955117633724819e-02 -2.8135937367607883e-01
      -1.4187272014894374e+00 3.2713477534964952e-02
      4.2866518970385015e-01 6.8935774373281833e-01
      -3.9443156253443190e-02 -2.0266892006692511e-01
      -1.8164927734023570e-01 6.4350714273374221e-01
      6.2816675830431801e-01 2.9110815745516372e-01
      2.9956885185179000e-01 -8.3271062777443769e-03
      5.3724999315977107e-01 5.9914132437139056e-01
      3.8534863805500691e-01 -2.6393057658276420e-01
      -4.1523043272135390e-01 -3.5400183758259685e-01
      -6.0725855982801002e-01 -8.0294538444540675e-01
      5.0291621992896907e-01 -7.2078540752909281e-01
      1.1309399061566099e+00 -5.1876268357454136e-01
      -3.2937942784613072e-01 9.8593719993664911e-02
      -3.0675711389179844e-01 -2.9433840178205989e-01
      3.8030958658966885e-01 -1.5144046380423798e-01
      -5.7397173564036519e-01 1.6434355128436337e-01
      -1.3731900210326324e+00 -5.1484977908107121e-01
      3.1618229956267513e-01 -2.1937963800083279e-02
      -8.0012107331404103e-01 -2.5418435837123959e-01
      -1.4412455457133777e-01 -2.3883822574460506e-01
      -1.5375553299957775e-01 2.5202367744567883e-01
      -4.2406415630806477e-01 -4.5400463740794028e-01
      -3.0680667500699761e-03 1.5432504096062385e-01
      5.7808906600591381e-01 1.8107006122916475e-01
      1.7442443859027901e-01 2.0192391037073434e-01
      5.3764377649191153e-01 2.7400365696803647e-01
      -8.1802545543742189e-01 -7.5788312256603518e-01
      -9.0602044035605034e-01 7.6591376435508807e-01
      1.4673094582332402e+00 7.0170242602515143e-01
      4.6525472303757859e-01 -1.2760637143162535e-03
      -1.5321340351779003e-01 -9.1519738414621266e-01
      -3.9843482389850221e-01 7.3554834994467388e-01
      -5.9515628311721338e-04 2.7519824499276251e-03
      -8.9990567259152665e-02 5.3860984088900299e-01
      7.7499835352684610e-01 -9.4660300667765845e-02
      4.9119632472102409e-01 3.3253894342407891e-01
      9.6143691993064884e-02 3.9307747070589899e-01
      -1.0508808491087415e-02 -1.0363644077984847e-01
      3.8863460903953317e-01 2.7020247009099196e-01
      -8.8760130358533251e-02 2.0690509895986195e-01
      5.2020200652902471e-01 3.7607176689944910e-01
      -1.3403835565855627e-03 1.0538391239955505e+00
      4.3090394071721022e-03 7.4817784769185422e-02
      -2.9449426675148827e-01 -7.6675375565710302e-02
      -5.0121378354415114e-01 1.0660307739569404e-01
      4.7417523680346046e-01 2.6870991157761803e-01
      -1.5035154038704013e-01 2.2059825768006966e-01
      -2.4365518862667485e-01 2.1883768258137432e-01
      5.9415894388041313e-01 -1.0687143585986363e+00
      3.7374889563715147e-01 -1.6086196319311644e-01
      -5.4186381528796945e-01 -6.8863262460553332e-01
      5.4308311656527819e-01 5.9994301149666351e-01
      1.6255915624506082e-02 -3.9204826347719679e-01
      -8.5166379596824238e-01 -8.0895628723890456e-01
      4.3131492390199083e-01 5.7659374881724834e-01
      2.9747484777567568e-01 -7.8513845780521208e-01
      3.4720546916122613e-01 6.6267615552958903e-01
      1.9504936405672452e-01 -9.4606971607732937e-01
      9.0569326838122854e-01 -4.3714727175246432e-01
      -5.8585563338814306e-01 6.9388158752304890e-02
      1.2657587646006951e-01 -2.0612602168575886e-01
      5.1616605191016418e-01 1.2205847050121936e-01
      -8.3603030857590044e-01 1.0806447990146471e-01
      2.0423054114016798e-01 -2.0792599999634212e-01
      -5.4726047826242630e-01 3.3452461231565034e-01
      -7.7023986304538405e-01 9.7243383185774512e-01
      -9.0360671968885553e-01 9.8846688615110689e-01
      -7.1768541542811789e-03 2.4588171234339218e-01
      -2.0826137333971637e-01 -7.7251069235417205e-02
      -5.2544942209531642e-01 1.1827612798005858e-01
      9.1342937844381267e-01 -5.9281565862200403e-01
      -6.4799383895143961e-02 -1.3266828647504883e-01
      -2.8772865441357531e-01 3.8481125839363040e-01
      1.2242917530344617e+00 6.3364237583399929e-01
      -8.0580782202209911e-01 6.9938798673137847e-01
      5.1902616723933492e-01 2.9300589602368676e-01
      1.8393234766903846e-01 5.4453567715777607e-01
      -1.1426723643632681e+00 -2.7061735328661701e-01
      4.0333665523375489e-01 -3.9044141169435614e-01
      6.0933610618199985e-01 2.2518514574448703e-01
      -3.1190376805818376e-01 -5.2283850568252188e-01
      -3.0779467294917623e-01 -2.0090744552951906e-01
      7.2690691248828307e-02 -1.6484921985680190e-02
      1.0449364790989333e+00 -6.2673189087030234e-01
      4.9019940037801085e-01 -8.0524310862753701e-01
      7.5844421445102839e-01 1.5275126442677464e-01
      -2.9380401462728422e-03 -2.9720891882290668e-01
      4.7417686789625968e-01 -1.4100417508628710e-01
      -2.7039919854073247e-01 4.6754978945476799e-01
      5.9442898406556333e-01 1.7754965604544970e-01
      -4.3457203614695461e-01 6.5603521714427826e-01
      -3.2978599659823473e-03 -8.3351324909470573e-02
      1.1440822315153749e-01 7.9779694249868049e-01
      2.2308476233266267e-01 -3.7255194695010785e-01
      1.5573837951121028e-01 -1.8542703823689367e-02
      7.7587950446424592e-01 -7.8045331270339724e-01
      -3.0905752697268779e-01 3.5423389924682175e-01
      5.0379908472724189e-01 2.7958730826666994e-01
      7.6823698466068735e-02 7.7432317777572326e-02
      -3.9796870468983825e-01 -2.6158600606504462e-01
      -4.7369888790153658e-01 -7.2253923417239380e-02
      -3.9700354434429047e-01 1.2737786149447925e-03
      1.2636736334843560e-01 2.9352788382753175e-01
      -9.3696153569561602e-01 -6.7081808931242493e-01
      4.0391638685222636e-01 -1.5072643660490876e-02
      -7.7991521285211793e-02 -1.6718765908442259e-02
      3.0033763550931447e-01 3.4308294285188512e-01
      -3.2348835029796061e-02 3.2208397347537499e-01
      -5.6566695972584091e-01 -2.5713744063914762e-01
      -5.1045744854641661e-01 -1.0586414341737023e+00
      7.8475058127836339e-01 -6.7954705537579652e-01
      5.9963608075744512e-01 -6.2303886482163640e-01
      -3.9895526936880638e-01 2.8543095338097091e-01
      3.1279996631885781e-01 1.0890791504311333e-01
      -4.3004591332972197e-01 1.1027159409887257e+00
      -9.4943389634959230e-01 -3.8432795056244799e-02
      -8.8714759814935179e-02 -5.0395655773812742e-01
      -4.1438334543542377e-01 1.7506488559323644e-01
      -2.2402274244726395e-01 5.5878124221286951e-01
      -1.5525119964920311e-01 8.6291053939113860e-01
      3.4967691355419195e-01 -6.0527553567335933e-02
      3.0801508836294487e-02 1.6682093530097344e-01
      6.7994423064082110e-01 2.5982062341630596e-02
      1.7736760122735787e-01 -1.4879460966117342e-01
      1.6164417696692776e-01 2.3613771148328203e-01
      -7.2725475522112715e-01 -6.7399010788305444e-02
      9.0603467218525920e-03 6.3924676486389248e-02
      -2.3548742270592224e-01 2.6392868044237332e-02
      8.3087610034071491e-03 -7.8170143807853074e-02
      -2.9596835107831104e-01 5.9540132104787657e-01
      2.9254839958541451e-01 -3.2845773221484031e-01
      -7.0860059306759438e-01 -5.2046161819282977e-01
      3.9555305047195977e-01 -7.6447170436843459e-01
      5.1584904670790133e-01 -2.4092993977666337e-02
      -1.5506524764951576e-01 -4.7565154327736736e-01
      2.9775874413177650e-01 7.5775029156245899e-01
      7.7529688700016752e-02 8.1414072867465959e-01
      -2.1863026186750864e-01 -7.7157934521630345e-01
      -2.7702269506915433e-01 4.4123746663320562e-01
      5.7528031389828338e-01 5.1913683002310647e-02
      -2.9667706513397923e-01 -4.3687028490094565e-01
      -4.3002569214541564e-01 2.2211906969193104e-01
      -3.0395460443204812e-02 6.1859334057372273e-01
      3.4975915825887910e-01 -8.8491142384183452e-01
      -2.5723419102815187e-01 2.1437848778142195e-02
      5.5018965267363808e-02 7.8212877766716676e-02
      -5.1076762212820492e-01 1.4894001419179942e-01
      -2.7139603901219322e-03 -5.9858316619575314e-01
      8.3521922632200574e-01 -4.4576187737305467e-01
      7.5566909628378975e-02 -2.3944055061960162e-01
      -1.0625044976151352e-01 9.9282738520239139e-02
      -2.6209225899340782e-01 -1.4124096492296112e-01
      -5.4704745319396708e-01 -2.6595416184781388e-02
      8.5202298668770804e-01 5.5830364676977928e-01
      1.1776587928299904e+00 -6.1493455095052474e-01
      3.0641972455754246e-01 -2.0295812472738828e-01
      3.1504889403219999e-03 -1.2734866803888012e-01
      4.9772029952066965e-01 -4.2315160406804098e-01
      1.3378170558814614e-02 9.3158412949556471e-02
      -7.0764184126832941e-01 1.2163247743229932e-01
      -6.6962758189747409e-02 -6.0721201781906409e-01
      1.8241669157578333e-01 -2.1412125613727792e-01
      -9.8948546466648757e-01 6.4931984658905062e-01
      1.0896608407694935e-01 -1.0220028804806651e+00
      -3.1700554069615483e-01 -1.8814364960921848e-01
      -2.6479948375273610e-01 6.0350816137249319e-01
      -1.1322110554890862e-01 -5.1081991789449910e-01
      2.1061700847234774e-01 7.7400913544359032e-02
      2.4902160641395881e-03 1.3824827273975085e-01
      -6.0391618805392988e-01 3.5865789821022104e-01
      5.0099629033807025e-01 -4.9819902023685192e-02
      5.7024857890404057e-01 7.5325953202838103e-01
      8.9456855317299300e-01 -1.0180803227160203e-01
      3.1651499448148579e-01 -1.9358988161506394e-01
      -3.2132304792622524e-01 6.3197643079441423e-01
      7.6444780556162828e-01 3.9271920585242948e-01
      1.4297142095259846e-01 -3.5459324424164834e-01
      -5.5800397852230044e-01 5.5057167954140929e-01
      -3.0217920648771124e-01 2.3715389994677391e-01
      1.6435265763061083e-01 -3.5332563629233243e-01
      -2.0384437008758935e-01 -5.4193339307997723e-01
      1.4861208655542243e-01 -5.1507276913763200e-01
      -4.6361381466554374e-01 4.4881161287959764e-01
      -1.6942136053882894e-03 3.0356794512727325e-01
      5.9582707361378395e-01 6.0918426074782972e-01
      -1.7668498855806247e-01 2.3621302349949666e-01
      1.1157631971364791e-01 -3.9400824011646858e-02
      2.2245890841271046e-01 -5.5522647014052962e-01
      -5.6756363756466255e-01 4.7978461445034987e-01
      1.3678301895029754e-02 7.4739651996537912e-02
      -7.7296015065395796e-01 -3.7070531661150696e-01
      -3.8607929884753001e-01 1.3336988204279163e-01
      4.5896140730717185e-03 2.4479946980551504e-01
      -5.7851182808988344e-01 -2.2851287534624848e-01
      -7.4878182691258222e-01 6.9993688440683188e-01
      1.2286138514800962e-01 4.9786831657554126e-01
      1.9121127924280704e-01 -2.2563311028441674e-01
      -3.2421412933118010e-01 9.5940376181682135e-02
      4.0270426466994186e-01 2.2989928559240834e-02
      2.6471782042388103e-01 -9.8538644192805647e-01
      -8.1971817047476170e-01 -1.8312756217847868e-02
      -6.8350977927049539e-01 3.9339188860820878e-01
      -1.1068982062069679e-01 4.4265840031860887e-01
      1.5942148372601755e-02 3.8764415942614805e-01
      6.3878628105301649e-01 -1.1131564587149875e-01
      -2.4458092345533422e-01 -3.9695016968162666e-01
      -1.7280230465515423e-01 -5.9202202054608956e-04
      -4.4228636953716878e-02 -3.3935178859638482e-02
      -3.8754077627174333e-01 -8.3382088688268918e-01
      -3.7457229998779656e-01 6.7201129453174080e-01
      4.3330745149465366e-01 -8.0664376452260433e-02
      8.8093414686067656e-02 8.0557538620775151e-02
      8.9412825125546225e-01 9.3673215616713468e-01
      -4.3427360425766598e-01 2.7148794435678053e-01
      -9.7591832683824077e-03 -9.3810450119655234e-02
      4.7215701980637342e-01 1.5165818833312089e-01
      -1.1755123709492993e-01 1.4571098264832104e-02
      -9.3081785449813603e-02 -2.3185117789629289e-01
      1.4755526850774486e-01 -1.0976577359709707e+00
      -3.6329739253712384e-01 8.4278214014788488e-01
      -6.3502470972497185e-03 3.8059915129906779e-01
      6.0256185540621920e-01 3.8564086700640093e-01
      5.6820471513035431e-01 -2.5087933822130781e-01
      5.3145338297484235e-01 4.7823749725514680e-01
      1.0159718402091840e-01 2.9937667595860540e-01
      3.5690938298969244e-01 -1.9586134842887601e-01
      3.4512419135060401e-01 4.4426811512188198e-02
      1.3008364286113619e-01 -2.3349805845900529e-01
      -6.6217309967049609e-02 -3.6366949981142194e-01
      -1.1183109483088782e+00 -3.6277450602911437e-01
      6.7988091149475816e-01 -2.2030964271371611e-01
      5.8463255271926440e-01 -2.1643480698670448e-01
      3.0742885677205728e-01 3.8990579245763529e-01
      5.9283930163932755e-02 -2.5155336860088112e-01
      2.0153183472384425e-02 1.4506697940875782e-01
      -3.1257085703151494e-01 4.9021110155866088e-01
      4.3718728721926325e-01 -3.1466208957212216e-01
      1.9442733597084216e-02 -1.0348485327738650e+00
      -7.7219527667670973e-01 4.1355359274979425e-01
      4.1798032802524759e-01 -4.9830915314199731e-01
      -5.9947974013899952e-01 -2.9427466583394868e-01
      -1.1002547309226274e+00 2.3967539384757533e-01
      -9.9869840667851900e-02 -1.3090871301403939e-01
      5.8813964800246665e-01 2.0872900032344979e-01
      -6.9458149427188740e-02 9.8276658826763411e-02
      2.0655642122194259e-01 -6.4590552448336513e-01
      -7.2479482996781652e-01 1.9451835925707531e-01
      -2.8438261699506098e-02 -5.8257438522381425e-02
      5.3217666151678833e-01 1.5129721922264416e-02
      -2.5339749777984499e-01 -1.2337092791897947e-01
      -1.0845713826764282e-01 1.8881627764628045e-01
      -5.9874830327916861e-01 -2.1147765271594271e-01
      1.0007572913105027e-01 4.7137323292354497e-02
      3.5026217408570431e-01 -3.4453064121495880e-01
      2.9745810089889668e-01 -1.6846296514975170e-01
      3.8295630263866698e-01 5.3874988807484470e-01
      1.2883297066411135e+00 -1.6558557351535938e-01
      3.5189551859562007e-01 -8.9545512498892987e-01
      -5.6275774665749434e-01 -3.9498459505593074e-02
      8.3043069428426125e-02 -1.2963708015615437e-02
      -6.1276099299846298e-01 -8.2001468883189696e-02
      1.9146778739776255e-01 -3.1814251878221383e-01
      -1.0382672859816742e+00 1.0859509919108230e+00
      1.4490554900735098e-01 -9.4512331087715662e-01
      -3.4506760160489608e-01 4.3652012824406494e-01
      2.8274891425179899e-01 -4.6458398729586242e-01
      1.4690379759799593e-01 1.9698652615957987e-02
      3.4729034740048254e-01 1.4320690454602378e-01
      3.3869457864082680e-01 -9.3916633398113036e-01
      -2.5774953286458152e-01 1.0465094599458431e+00
      4.5218936218733485e-01 -1.5791861675821608e-01
      -2.0072474921165284e-01 1.3530872763053872e-01
      -9.7660144671584470e-01 -3.2095314744400005e-01
      4.8696996738476156e-01 1.1035597880602044e+00
      2.9631735013394933e-01 5.5638330242421186e-01
      4.8985017972249745e-01 2.0029370228592253e-01
      1.0564741810566594e-01 2.5337590396379539e-01
      6.0033851988755035e-02 -3.0896214819514800e-01
      -4.9686877518439299e-01 -2.7793238357107747e-01
      3.3455121087007614e-02 5.2518872096436475e-01
      -6.0516384840751758e-01 -5.4496244028769480e-01
      1.5059876075893594e-01 -3.8261502952200703e-02
      6.3137050551455365e-01 -1.6296752652953609e-02
      4.1777990523768418e-02 6.3567583260993565e-01
      2.0772545288520600e-01 1.2860242787863438e-01
      -2.2009521898216838e-01 -2.3735773969318633e-01
      3.3942025817032195e-01 3.2154745551586636e-02
      5.2191529527700498e-01 -4.9813723303035792e-03
      -3.8654765269554681e-01 6.4247478365095667e-01
      3.1649613436165464e-01 -9.8202211688653884e-01
      -8.8539440400569477e-02 -6.7582788703273600e-01
      -8.7347575990704618e-01 4.7122631210916988e-01
      2.2930005516651458e-01 -6.3862878888712959e-01
      2.6559642925351862e-01 -7.9020095544684033e-01
      9.1001259309904547e-01 1.6245378788519127e-01
      -2.1726846580964274e-01 -1.2581761851328532e-01
      2.7584907874290833e-02 1.4108582750952808e-01
      -2.4829094173164354e-01 -1.7218948951328047e-01
      -4.1207132948086078e-01 -1.0120908288432727e-01
      4.3866978252034616e-01 -2.6168080346931322e-01
      1.0161782257237396e-01 2.9329681152916975e-01
      -1.0706238366275903e-01 -3.1036690045918647e-01
      9.9643672826348451e-02 1.8711940190413373e-01
      1.3868713063566337e-02 1.4973765779498407e-01
      6.3197302828022950e-01 -4.4478468030274852e-02
      1.7537144754297335e-01 -7.9013471503164534e-01
      1.8111686755653308e-01 2.6477560878599848e-01
      6.7843789413401978e-01 -1.9584258769591023e-01
      -6.4626282944700242e-01 -5.0771310818488058e-01
      1.1205574848111874e-01 -4.4517298695677743e-01
      -6.1904220140625681e-02 -2.6380612688963684e-01
      1.9553179641985642e-02 -5.6807988110105212e-01
      -5.6588922146337428e-01 1.0205696573252871e+00
      1.9956991575003039e-01 4.4861778388883167e-01
      -4.5557423756561810e-01 2.2858575048060878e-01
      1.0150617823072000e-01 -1.3690619965580805e-01
      -1.4053307008537139e-01 -8.0995665143554441e-01
      -7.2312174941714813e-01 -1.5427864285387588e-01
      9.0955418776856506e-02 -8.2346000455548150e-03
      -2.4092330371422074e-01 1.0042044583967369e+00
      3.5921498963171977e-01 3.6610918426595404e-02
      -2.2209112466949116e-01 -1.4074417647973450e-01
      -1.1363411089468155e-01 -7.2827938988614060e-01
      6.4553559318790155e-01 6.6436155835719068e-01
      1.3662741726630953e-01 6.9390741941989895e-02
      -1.1210899577969549e-01 -5.0002632346878872e-01
      2.8193790842684585e-01 -5.4276186996556605e-02
      -1.7832996225035314e-01 2.2369243473263198e-01
      -4.7803717918398131e-02 6.1225422229382119e-02
      3.8182927030498648e-01 1.1675634165062514e-01
      6.0020499612973544e-01 -3.0826450171130837e-01
      3.9274976697344055e-01 -9.2471340558689635e-02
      2.2488839429916460e-01 -1.7207974255115727e-01
      -4.0211507874794133e-01 1.5219359223810028e-01
      2.8074287281264249e-01 -3.2201642597286856e-01
      2.7236497737617832e-01 3.7595949188165656e-01
      -1.0982997440516268e-01 6.6501947505991388e-01
      1.1263821325787393e+00 2.3699243297414005e-01
      -9.9351436378645852e-01 3.2821966681745962e-01
      5.8403375322562512e-01 -5.8619032779685121e-01
      1.3630512528503478e-02 -3.3249583328440596e-01
      4.2767809598888157e-01 -3.1835692361144141e-02
      3.3190895027981298e-03 -3.6773063147880330e-01
      -1.3883522032980075e-01 -4.8007781948582945e-01
      7.0568758869987758e-01 2.9867846589718977e-01
      -6.4634565027573462e-02 3.3304607600958397e-01
      -2.2214587782095188e-01 -3.8105828017977746e-02
      -1.1061267855384251e-01 -1.8322300342306988e-01
      -1.2330178740234442e-01 4.1900101455193245e-01
      7.7180534055153971e-01 1.2951106918017249e-01
      1.3054375583760230e-01 -1.0345793060846073e-01
      -3.4377520206221263e-01 8.8487492643882518e-02
      -4.0642137171256467e-03 -3.9910401281404906e-01
      -5.8783117820750008e-01 -3.8398227130828744e-01
      3.6403006345435296e-01 2.2199177462031615e-02
      -1.3349953624799762e-01 1.0501837837733345e-01
      -1.5609586603382716e-01 6.9658030244200231e-01
      6.4553691896032384e-01 1.2755517740272385e-01
      -1.7525891724689205e-01 -1.8336326643024115e-01
      5.6776582992161551e-01 -1.5545876209672070e-02
      -8.1626697149529759e-01 -2.5796512948214834e-01
      -4.4418896951840003e-01 2.9631315773303868e-01
      -6.1323908968739660e-01 -1.4284483523568059e-01
      -2.1801796723365366e-01 6.5872361864301329e-02
      2.5015719908328787e-01 -1.2124218982130165e-01
      -2.9339941607643738e-01 -2.3053336756505247e-01
      5.5278858065960251e-02 -7.8139460837774355e-01
      -2.2831656360970479e-01 -2.5639105245288785e-01
      1.3774641893657512e-02 -3.3239050709584994e-01
      -5.2023494999667130e-01 3.7570902990419192e-01
      2.9257535613213798e-01 3.1326373700326843e-02
      3.6094015185712203e-02 -3.0212100304811362e-01
      2.4982612103021892e-01 -6.0174144544229313e-01
      3.4809728680813318e-01 3.2175020223218920e-01
      4.5574953083408906e-02 1.3744419303541111e-01
      -2.2100945779382469e-01 -5.7241630385094133e-01
      2.4725465609523667e-01 -1.0896635892454506e-01
      -8.2607660083975554e-01 2.3073789083261470e-01
      -1.3848960459133791e-01 5.2490681913216952e-01
      3.0518308738893454e-02 7.5776435856670799e-01
      7.6171110665244568e-01 -7.1592176255437479e-01
      3.8676921483382465e-01 2.8952783506731239e-01
      -8.5908371504844705e-02 -1.9434673099027394e-01
      4.5697110063740776e-01 3.8236846610261094e-01
      1.6355244970569821e-01 1.5442382700902857e-01
      5.5362082568638382e-01 -4.3985116921634135e-02
      -2.0393971074514403e-01 -1.9430043021159882e-01
      -3.6159250398480342e-01 1.5828220803264612e-01
      -1.0636326336961128e+00 2.8943046127635186e-01
      -7.9757441554731995e-02 4.0642174833694250e-01
      -1.2955758593053970e-01 9.0643495566835278e-02
      3.9387228893951992e-01 2.8490837630417964e-01
      3.1689890938978232e-01 2.5464485174281903e-01
      2.0901688639602381e-01 -1.3865993618881972e-01
      -1.7977220823640186e-01 -2.3023635970877424e-02
      -8.1245782670352845e-02 -1.5579942233099256e-02
      -1.0302125832567111e+00 3.5554068361232766e-01
      2.6702937790936448e-01 -1.8736492299209190e-01
      2.2679413910047230e-01 7.0906420805890524e-01
      3.9138160525395416e-01 4.8787649709694164e-01
      -1.7490041367713646e-01 -1.4001263260180397e-01
      -3.6700003061348280e-01 -1.2634082871385682e-01
      -1.0673529881225795e-01 2.5379902820108236e-01
      -1.6260347053192400e-01 5.5040195141505897e-02
      4.5861266298503051e-01 6.3817673077356335e-02
      -3.8646069360095542e-01 -2.7557896764834355e-01
      -7.4424084262157686e-02 -1.8675556796817877e-01
      1.8893026591044465e-01 -7.0982279438753149e-01
      -7.4117998233171700e-01 -5.1482485273165006e-02
      4.9827456662307279e-01 4.1022606329497563e-01
      -4.4587331658383406e-01 -8.1395598711633613e-02
      -2.8286028023220416e-01 -4.9112788820433256e-01
      -6.8426210060930703e-01 6.2332286131385517e-01
      1.0171445748250156e+00 -2.4783696688709850e-02
      2.7259186622964254e-01 -4.4841629457690346e-01
      2.6944538133956475e-01 -1.6022945617812734e-01
      8.6363604225674934e-02 -5.1463736513965297e-01
      -2.2461676658513707e-01 -1.9229801530865409e-01
      -1.6361099310168070e-01 -3.0983296306731266e-02
      -2.7798620298583210e-01 4.9615072308095426e-01
      3.3550606805196453e-01 5.1847249619906020e-02
      6.9117272286386611e-01 1.2474618740797375e-01
      -5.6588192338109855e-01 -6.2504334406050754e-01
      -7.6191676327262023e-02 8.3977488345188075e-02
      9.1019883364206258e-02 -5.9669295247632059e-01
      3.4662810072332066e-02 -3.0886164972780827e-01
      1.1200212457849787e-01 1.6164764372629853e-03
      -4.6175689145262544e-01 9.0605329378150745e-02
      6.1902233902613596e-02 4.1718185888073550e-01
      -4.5907464344583021e-01 6.2719852351819039e-01
      6.9137250574076314e-01 -4.0496720979318912e-01
      3.7471719359298772e-01 -1.8477964627235735e-02
      -3.8289174880269050e-01 4.7658135844993619e-03
      8.3154408083143075e-02 2.4311193768069853e-01
      3.1498357510265701e-01 -7.3417497867974124e-01
      6.6191786633905769e-01 2.2342407394625816e-01
      4.3032616241252397e-01 -1.9603755802234066e-01
      8.8282803225380568e-02 -2.9121664432780447e-01
      -6.3420861635949644e-01 -1.9540825050441857e-01
      3.1606213112014628e-02 -4.0102278924257745e-01
      -1.0603479949150922e-01 -9.9245881770751391e-03
      2.5116361859399150e-01 2.0866159283348740e-01
      3.9605422436950083e-01 5.8732734067403625e-01
      5.1373606442423425e-01 -2.6407245938225204e-01
      -4.6719764814277170e-01 7.8023056910220837e-02
      5.9541563590009161e-01 -4.7891942202992321e-01
      2.5059415593792000e-01 -8.2651379600567447e-03
      -9.1054675438815999e-02 -2.4665786272980680e-01
      1.0213630013444110e-01 -2.9590752388483486e-02
      5.8369257256008300e-01 1.3736144229490527e-01
      7.6481756637094708e-02 -7.3790584034278794e-01
      1.9001238765896183e-01 6.3473122393341430e-01
      -3.4747321465866443e-01 -3.7867026680310711e-01
      -3.1018723787945179e-02 -6.4291535971669100e-01
      1.1197184086564702e-01 2.1298912511867751e-01
      -4.1734783404094100e-01 -2.8922079657493333e-01
      -6.7020450489072847e-02 -3.0341201668382173e-01
      9.4833650382681767e-02 -6.5929433130947857e-01
      -1.9681297002359266e-01 -2.9674107910189979e-01
      -4.1455636426666415e-01 -2.9929171262230814e-01
      8.4099995384362039e-02 -4.1517687635904094e-01
      -2.2786710667207122e-01 -1.8900305886661997e-01
      2.7249398533378622e-01 2.6495081225450273e-01
      2.0605203884313272e-01 -5.0423097228131197e-01
      -5.4235331546849876e-02 -7.8476452245958270e-02
      -4.0658156350179897e-01 -1.9343411671456232e-01
      -7.4981851194117427e-03 -2.1751370413808871e-01
      3.3862229078099759e-01 -4.3382868112823374e-02
      -6.3277403453941547e-02 5.3636786988855822e-01
      -3.7771205042065753e-01 2.4430103622143473e-01
      2.7386389809479977e-01 -2.7069672152415847e-01
      6.4439428887329608e-01 1.8396182318016063e-01
      2.9653956221625233e-01 -4.4903001370343198e-01
      -3.1127995628399863e-01 1.6110456020631203e-01
      5.2297843937236232e-01 -3.2725563515321759e-01
      2.0872769069673389e-01 -1.1039003600178927e-01
      4.4736237275825014e-01 -1.2504739596147746e-01
      -3.7143775851017774e-02 -2.7405091579023017e-01
      2.5265946401305872e-01 -1.3469303225956502e-02
      3.1074911092768603e-01 -4.4850616152076994e-01
      6.9459922743009439e-01 -1.8463627218539699e-01
      1.6377221877622961e-01 1.1146304019643423e-01
      -2.7718173581739214e-01 -3.2014114949025174e-02
      -6.9121151531906744e-01 6.7017459210044694e-01
      2.6288176996145057e-01 -4.7702388050298911e-01
      4.2389744602667513e-02 6.8179819709533596e-01
      2.3700076180738122e-01 2.7780940434864715e-01
      6.8794562766232425e-01 -5.7516591057898625e-01
      3.3533094620753150e-02 5.0829146193244988e-02
      -9.0901437676348551e-01 2.7735265821608984e-01
      -1.7859333804680683e-01 -4.4559200720530079e-01
      5.5511317942888339e-01 1.4235030163928464e-01
      3.2651635174592081e-01 7.2814635239739012e-01
      4.7439284757056277e-01 7.9356903530844583e-02
      -5.8306585548589152e-01 8.3186598957598043e-02
      3.0382613803580316e-01 -8.7507758650842316e-02
      2.2154340242148032e-01 -7.0942351779083573e-03
      4.3496303440442460e-02 1.8193227766653736e-01
      6.4039320586863757e-01 1.5671754052207262e-02
      4.9154592691065718e-01 1.9192889426431120e-01
      -2.8283841825791134e-02 -4.4412451631870775e-01
      -1.8924768627672886e-01 -3.4663724623604307e-02
      -3.0985192059235345e-01 -2.1182296072090620e-01
      -1.9413171934476031e-02 -3.9893591305310999e-01
      -6.0665763371283143e-01 2.6591499268285013e-01
      2.6146634768386506e-01 -3.4752082005216157e-02
      -3.5824049847608515e-02 2.1374215682293424e-01
      7.4945261602967639e-01 4.3992918454909580e-01
      -2.2430143176354004e-02 -4.9743948000624039e-02
      3.0175411386155909e-01 4.1343685565213978e-02
      -2.9548021538437952e-01 -3.0187835369384913e-01
      -1.7325039645114421e-02 1.6203556113432924e-02
      4.1947450637236650e-01 -2.7089038329799114e-01
      -5.6767450038353751e-01 -3.6614554336464260e-02
      -3.9987595071455689e-01 -5.7867509060892941e-02
      -9.6671391755266872e-02 -2.7177595549967432e-01
      -2.5241069817390920e-02 -4.4727730059657861e-01
      4.6822677331538332e-01 -6.0634978717964472e-01
      9.5904266679332315e-02 -3.9866490096293256e-01
      7.0877514223594965e-02 -6.7594619885649682e-03
      3.7253215413519791e-01 -2.9870705252748042e-01
      -2.8027796630166818e-01 -2.0473770333409916e-01
      4.4963611193412045e-01 1.7367177347639429e-01
      -3.5217809713924036e-01 -1.6398619874955364e-01
      -1.1336878360885524e-02 -3.3554064209321766e-01
      -4.3007127810962320e-01 -5.8023713231131709e-02
      1.3916552466947230e-01 -1.2507491037091001e-02
      -2.1161694571664155e-01 -4.9601225864029014e-02
      -3.4323169935829201e-01 6.1698967532419613e-01
      -3.3868420735931277e-02 4.2542111733785021e-01
      -2.3642248580029082e-01 1.3267636108018011e-01
      5.1881798263693057e-01 -1.0945302399700758e-01
      -5.8048588985399441e-01 2.8093737215587672e-01
      1.1507801771815371e-01 3.9187814934136539e-01
      4.1727633649855230e-03 -2.7522869039433540e-01
      -1.6192108610443987e-02 4.7409793252960819e-01
      1.4007640718393977e-01 3.3339314535439474e-01
      3.8883394102710356e-01 1.3738390816004370e-01
      -1.0837351305470798e-01 3.4644224748869779e-01
      6.4223846465176551e-03 3.1863194461724287e-01
      -4.6808300841165601e-01 2.9818492456110768e-01
      -2.7120401818296347e-01 -4.5035819947476963e-02
      4.1247779804869616e-01 -1.5853905339679347e-01
      5.1843668208430282e-01 4.7008633524290883e-01
      -3.1742609725748583e-01 3.0119287442204434e-01
      1.4741789337283226e-01 -3.2722955412646476e-01
      3.0405923800743351e-01 -2.9285480530089852e-01
      -2.8191077080318049e-02 1.0872335809842908e-01
      2.0457234578761541e-01 3.6707919014303446e-02
      1.1720237818085621e-01 -3.8645185285625827e-01
      2.7658156622592228e-01 -7.4136747750821644e-02
      -3.8178043368037418e-01 2.1274545579240450e-01
      -5.1519987211728058e-01 -5.7961604565043312e-01
      -4.5394832127745677e-01 -8.2506164070527865e-01
      -8.2256781360843845e-01 3.2155777394524349e-01
      -1.3147982525044150e-01 -3.0787759778328272e-01
      -1.9364889848938596e-01 -1.4208625138287886e-01
      6.2759581672952369e-01 3.7396749262439472e-01
      4.2564120540785644e-01 -4.8381276187805267e-01
      1.0288513233328249e-01 -3.1497863195025749e-01
      4.0688985849301751e-02 -3.5414527718057692e-01
      3.8746321637875575e-01 -3.6045567917408977e-01
      -2.3457444602018626e-01 -5.4342401259398931e-01
      -2.0002882489033044e-01 1.4394853766312843e-01
      -3.2100266256888499e-01 6.8029352541081639e-02
      -1.4645278481137225e-01 -5.0945153366575502e-01
      3.7926698088434285e-01 -2.7844179196395502e-01
      7.6021443876319506e-01 -8.7513120303996071e-03
      5.6581391610825271e-03 9.4612436423049229e-02
      2.4616616404181871e-01 -1.7851565158089860e-02
      5.0571541523513019e-01 -2.7861760084787146e-01
      3.8339445876636929e-01 -2.8204995983262826e-01
      -5.2695481819549472e-01 -1.6976353010118883e-01
      -1.1816011194047980e-01 1.6244789921009008e-02
      -5.6687545510921211e-01 -1.0543102134631037e-01
      2.6905563851187758e-01 -1.9028117719739437e-01
      4.1718383530441067e-01 2.5815720391922026e-02
      1.6836423947678070e-01 -1.3003133347371679e-01
      -7.6941797442242632e-01 5.5469791027678239e-01
      2.5720143493512865e-01 1.7009890170999134e-01
      4.6034234224169768e-01 -2.6687802880254108e-01
      1.5633708624308365e-01 -5.1695586646567815e-01
      -5.2743762645190340e-01 2.6097976104529225e-01
      9.1145642273810959e-02 2.3855740421443142e-01
      -1.8653055578190834e-02 -2.1542386437290115e-01
      6.3842667482204518e-02 -6.6985124085994330e-01
      2.4585812640021096e-01 4.1587466766921605e-01
      2.4309332055018090e-02 3.0259335515082963e-01
      -1.5485101554390840e-01 4.2633620733274841e-01
      6.0472951699550824e-02 -2.4862836305440386e-01
      -9.5694015568324620e-03 -6.5961275014857990e-02
      -4.4749359192723284e-02 -2.1130862167007369e-01
      1.6401167332443828e-01 2.0132313010582695e-01
      1.2831266600883953e-01 -2.0359237471649830e-01
      -6.7685764522858904e-01 1.4479957675508198e-01
      -4.2912300318152424e-01 -2.6805024485319728e-01
      1.0505714013080641e-01 -1.0557949963355637e-02
      4.6641739020749257e-01 1.4455409399749808e-01
      -1.8285553390037981e-01 2.2338743936923663e-01
      3.4136538703067770e-01 -7.4698400923245062e-02
      -2.0093265672623045e-01 -3.2417842500745996e-02
      1.2527540694614453e-01 2.8309979955333478e-02
      -1.1551875049049479e-01 -1.7233479098801011e-01
      -6.4819128431362627e-01 -9.8939563073968950e-02
      -5.2929991933198595e-01 3.3389826826444557e-01
      -3.7301150694682017e-01 -1.5782305861030441e-01
      2.9367882445287863e-01 -8.6140853679944379e-04
      5.3267459423505914e-01 3.1823969692129389e-01
      5.0478350210408462e-01 -8.6056229828776379e-02
      3.8465966957849235e-02 -4.6026137818402546e-01
      6.0525923819441652e-01 -6.2270840309003750e-01
      3.9922668630780017e-01 -5.4904600676628013e-01
      -2.9215143781133179e-01 -4.2427837987260540e-03
      -3.5608594224930945e-01 4.4101858052881815e-01
      -1.1572671833432388e-01 1.0372568632789865e-01
      -3.3213701802368084e-01 1.5474691446659519e-01
      6.3443991078536308e-02 -1.9383764367895065e-01
      -1.4786194864049637e-01 6.1051141559834370e-02
      -3.2463175055167041e-02 5.8154091777553374e-01
      3.0769662730784242e-01 6.0988418208647775e-02
      -1.2455536580501424e-01 -7.4998733569399512e-02
      1.7858177561362837e-01 -3.0796552112610044e-02
      -2.7063380566525258e-01 -4.3886988870734711e-01
      -1.1008775248303142e-01 -7.6109338013686689e-02
      -8.8983961385932647e-02 -2.4577430696434377e-01
      2.3470555509072163e-01 -4.7439723124035754e-01
      1.2772627517878909e-01 -2.4728968059637771e-01
      3.0769893701823797e-01 -4.6554754355559780e-02
      -2.1322725307527676e-01 7.6488434315153164e-01
      3.4757100942379454e-01 1.8678009148639377e-01
      7.8092274377758217e-02 -6.0491719303021323e-02
      -1.6537885057838100e-01 -3.0709876701915056e-01
      1.4471922389398085e-02 1.2479167285054454e-01
      7.2346552838895917e-01 -2.7766769028534338e-01
      1.5860596804316338e-01 6.6157749893078888e-01
      2.0198849648118408e-01 -2.2522447361965944e-01
      -4.0691662137242179e-02 1.4133059550489846e-01
      -1.4965580022411648e-01 2.5775028865494254e-01
      8.3972780759523136e-02 -1.0439269947526803e-02
      6.1312260880288594e-01 2.6747666728933604e-02
      1.9509215727826473e-01 4.6204414339074790e-01
      2.3450377309998341e-01 -6.4463542047846087e-02
      3.8596881225910723e-01 5.0708075286353460e-01
      4.9401943190255587e-01 1.0490364992812631e-01
      -9.4506825136275618e-02 1.9639364178741558e-01
      2.9272525732003363e-01 7.4149805222620671e-02
      3.6689072332057704e-01 2.2812681686012828e-01
      2.7254014990263625e-01 -1.8757772280926183e-01
      -3.6151450520123479e-01 3.0352381968795245e-01
      1.1555915405552769e-01 1.2725788607376379e-01
      2.8783113936395457e-02 5.9164143019087539e-02
      1.1161687363197874e-01 3.1327495728501825e-01
      -7.6836278817779269e-02 -1.0836721180453772e-01
      -1.3569201442966958e-01 -3.6112647190286196e-01
      2.3335133697043778e-01 8.5376216059701276e-02
      -3.0287243576597395e-01 8.5649748670088011e-02
      4.6352397016079827e-01 9.6468235917007275e-02
      2.5487677790049817e-01 5.9246242531200199e-02
      7.5338004190566166e-01 -1.2168787344114815e-02
      3.7248613535942027e-01 -6.1638874946826294e-01
      2.0622299309903397e-01 -9.3043762600606948e-03
      1.0789453083323511e-01 -1.2702034279973062e-01
      -4.6788730360439706e-01 1.8356564535063125e-01
      -1.6319955125284305e-01 -7.2655235542926333e-01
      -3.1965417281580494e-01 -3.2540156458889413e-01
      4.7704592623160442e-03 8.8070285663178108e-02
      4.5470564269896946e-01 -2.1092276433206678e-01
      4.3540253432023779e-01 -3.4249432430555704e-01
      -1.2337445569880730e-01 -1.2300902334280632e-01
      6.6893543799378175e-02 1.6825446683963260e-01
      2.0307176144339764e-01 1.5435212823738199e-02
      6.6932302726513848e-01 2.1727515695030625e-01
      -5.9234057585847953e-02 -3.2801335763263378e-01
      -1.1224672082305918e-01 1.2655684063120093e-01
      -2.4895744804019471e-01 -1.8177529851059485e-01
      2.0487185063517646e-01 -3.4236481149227793e-01
      1.7537098930837589e-02 -3.1781105311774360e-01
      -4.2473388719355565e-01 1.3952554036987394e-01
      -1.4481601026605764e-01 3.9970089457802233e-01
      -2.9999271257530265e-02 -3.8825270845676219e-01
      1.9566209856353065e-01 4.9156762712416975e-05
      3.8256538137795915e-01 -3.1613342597770494e-01
      -4.8426993695487419e-01 -7.4692974348862073e-02
      -2.1782585583307673e-01 4.2557213846689385e-01
      3.6195713055679934e-01 1.0824918582684531e-01
      1.4992032845666736e-01 1.5519498927399494e-01
      3.6003043786762956e-01 5.8268656749104808e-01
      2.7048790072350543e-01 -7.2489694853096004e-02
      -1.4281597881529794e-02 1.5554196020132111e-01
      -1.2008958386402796e-01 -8.9790855534925129e-01
      1.4095097493369479e-01 1.4279676059411817e-02
      -1.1160240221724162e-01 2.8440112764372644e-01
      2.7342998287388520e-01 -4.1912375661506511e-02
      2.6904531642479507e-01 -1.3862135750088597e-01
      -5.4958350811264933e-01 2.5871001444585695e-01
      -9.3654240943738712e-02 -4.4917964726690118e-01
      4.5334444053761697e-01 8.8015099076034886e-02
      -2.7586150365236917e-02 -1.9948232802420776e-01
      -4.4228550516938070e-01 1.7249977036286601e-01
      5.7532114343718388e-01 5.5995282766941261e-02
      -7.0281951809494439e-02 -2.8381202207904375e-03
      -1.5515933885456804e-01 4.9599011836279466e-01
      -7.2889187066319291e-02 -2.5104990443996578e-01
      -4.1876129722369598e-01 -4.1929052095667335e-01
      1.3233466742144179e-01 3.9378135144386178e-01
      -1.1817347430410370e-01 -1.9209965590095160e-01
      3.5783886642407847e-01 -2.6510854819104895e-01
      2.0725193956808141e-01 -3.6484071614672958e-01
      -9.9677032354352504e-02 -6.3608123336945377e-01
      -5.1722155956076632e-01 -5.2456418877967525e-03
      2.2137940184203811e-01 2.7442258664455665e-01
      -3.7525854823163805e-02 -3.2853552123000318e-01
      -3.0333977434482051e-01 2.0293376291679927e-01
      -5.6315186310284693e-01 -4.9167982529318205e-01
      -1.2859865694966513e-01 -4.3511863721881133e-01
      -4.9570278310484889e-01 3.1083455433553547e-01
      -1.7818874087468795e-01 -2.2265668140816465e-02
      3.5180285221145455e-02 2.4486966381522624e-01
      1.1599938861145043e-01 -2.0625569728772264e-01
      -1.4376786326715035e-01 3.7616304971450118e-02
      1.1461910567370212e-01 -4.6302188737431985e-02
      2.9298262802483133e-01 4.1361993208002451e-01
      -8.2019102692599419e-02 -3.7640696519658950e-01
      -4.1656675397062271e-01 -5.1989227341908606e-01
      -2.7686568427841218e-01 8.5669740171066780e-02
      -1.0474607427054472e-01 -3.4446039536707279e-01
      1.2832085177126107e-01 -1.7874332111041319e-01
      -2.0687344039619024e-01 2.9777908539603559e-01
      -5.6456952535624064e-02 3.3369794263264513e-01
      2.1806428552274529e-01 -2.3398320839517781e-01
      -2.5903340751959775e-01 -7.3725659817275399e-02
      -1.7908212209210028e-02 -2.0201927377304191e-01
      3.3191538691778613e-02 -1.4130852974159003e-01
      -3.8647769042917085e-01 4.2752942498660218e-01
      6.5664075331723550e-03 -2.0439362943406916e-01
      4.4723297584370236e-01 -1.1582259691723060e-01
      -1.2294431557262051e-01 3.9337922278011639e-01
      -7.1687074887520963e-01 1.7913347708839600e-01
      -1.8574858373364886e-01 1.2412525478570817e-01
      1.0325024444324653e-01 1.1476385215657577e-01
      -4.5664082367398787e-02 -7.8551533101631585e-02
      -1.7421209869920212e-01 -2.3693459014936188e-01
      3.6305900562932164e-01 7.6098594867207811e-02
      4.7481932581671388e-01 1.2311828044391612e-01
      -4.2719574151246481e-01 -5.3978912379176507e-02
      9.0280784346382453e-02 -9.3816255405174562e-02
      4.5616495656441980e-01 8.3099408677034275e-02
      3.7736139931636370e-01 5.6635375102557048e-02
      7.4166654011356714e-01 -8.1319367194914532e-02
      5.9307554081967306e-01 -3.5329977061488554e-01
      4.0251933634967924e-01 -1.6105044100243751e-01
      -3.7504738583243363e-01 2.7585896224277245e-01
      -1.5850369535368658e-01 -2.6797256367816424e-01
      -7.6466641729307533e-02 -2.3148422802024615e-01
      -4.7954937866728073e-03 5.4168373111050001e-02
      -2.3926722618789495e-01 -5.7290534063079968e-01
      5.1685045140730046e-01 3.8150864584511407e-01
      4.9350210476291900e-01 2.9962394939838310e-01
      -1.0705857470028779e-01 -1.2523754744843163e-01
      -8.8849992738744443e-01 -3.0712184003915854e-01
      1.2199550174819247e-01 -2.8457263973397412e-01
      4.8771333524278987e-01 4.7707173899456626e-02
      -5.0198986448672982e-02 7.9054756766378687e-02
      -5.6795812387768441e-01 -4.0754472949753351e-01
      -4.7271045577703419e-01 -1.1629319688432350e-01
      -2.0338704873031155e-01 -8.6143172525602371e-02
      3.1918045831924202e-01 -1.4135524192350055e-01
      -2.9596700857089958e-01 1.7719622083759706e-01
      -7.8362731692164150e-02 4.9574296620850739e-01
      -2.3773843172625353e-01 3.8088803210665523e-01
      6.8215393407625322e-02 3.2010015062779507e-02
      1.3043080709524310e-01 5.3016558822586213e-01
      -3.6143976729904603e-01 5.7327930829581313e-02
      -2.3319337211482791e-01 1.9354363776010738e-01
      -3.4842960734519129e-01 8.4314646735488288e-02
      -1.3770623660050660e-01 1.5197467522499736e-01
      -4.9788170171027976e-02 -3.0077306544537774e-01
      -9.0480900729352623e-02 3.4614322148616344e-01
      -5.7186052402941379e-01 1.2556882078167081e-01
      8.8509203632714320e-02 -1.7975294148742874e-01
      6.4696380981127910e-01 4.3807846942367959e-02
      6.2960894625921332e-02 -3.3970698860074300e-01
      8.3638813793921081e-03 -2.9449984367082865e-01
      1.9771758074934406e-01 2.9007654193922462e-02
      -9.6479472543223560e-02 3.7857085712135619e-01
      4.1273277264819258e-01 -4.3888149948681743e-01
      1.9205989072501217e-01 4.8278383622189225e-01
      1.9704128101390120e-01 6.5438167967580951e-02
      -3.6347959367731641e-01 -5.2968698053347122e-03
      -1.5051872162400232e-01 -2.8038533845568148e-01
      1.1211508141312672e-01 -3.5974099409076482e-01
      1.2168475899640251e-01 4.8488295155867452e-02
      2.1432674768018559e-01 3.3913415142070169e-01
      1.3381483991835674e-01 -2.5720356455825887e-02
      -4.1684762782191237e-01 -1.5509695586119976e-01
      1.0465820323788261e-01 1.6347522894711172e-01
      6.4200970518775338e-02 2.4312265440830547e-01
      -6.1263552524465976e-02 3.6513530242440051e-01
      3.3348493942849200e-01 -1.2863919240741867e-01
      5.3229394032073851e-01 1.8963312751939160e-01
      1.8383392373911276e-03 -1.8868450135329398e-01
      -3.1614350637379468e-01 1.1457559090090395e-01
      -9.0702645823240918e-02 1.5266760037315333e-01
      -2.9581982135846280e-01 -2.0742671488902237e-01
      1.0985294112690029e-01 3.8786079371060017e-01
      -3.3304307661379634e-01 -2.4154173888231548e-01
      4.0524844005704547e-01 1.8283586362320814e-01
      -6.4336518778925586e-02 -5.6472441342161499e-02
      3.0061837433330282e-02 -3.1846735846060054e-01
      -9.5951999805169746e-02 -3.2174440836718299e-01
      2.7711447427674490e-01 -5.7283658026040640e-01
      9.7877515160404396e-02 -2.0699850486605503e-01
      -4.4102605736986872e-01 -9.5653711821079637e-02
      -2.9892214809513329e-01 -4.0518998381810861e-01
      -1.7877039505252124e-01 -2.5339371908464370e-01
      -1.8659742287095490e-01 -1.3927445123128473e-01
      -5.6430879949974561e-02 -1.6738477400776325e-01
      -5.4382328091859855e-01 -3.2377022942618863e-02
      -1.7220032616196959e-01 -6.1724828414991950e-01
      -3.2341408231811863e-01 2.0386097482736190e-01
      1.1702205651267325e-01 -1.0230772032021604e-01
      2.1838332551905087e-01 1.1114022899827260e-01
      -1.8616781579741420e-02 -1.6039841505907643e-01
      -4.3175960877322050e-01 -1.8133701206693964e-01
      -2.9938370276959919e-01 4.2788133310746934e-02
      1.1511034463608806e-02 2.5159987277668532e-02
      -1.5782825184187424e-01 -3.1330797208096434e-01
      -4.6002151542909464e-01 2.8087739705876763e-01
      -5.4598864424887250e-01 -1.0294003282627946e-01
      -3.7708613651469644e-02 -3.9527411424524533e-01
      6.1080086792116475e-02 -7.0315078285182242e-02
      7.5366506029995817e-01 -4.9104409706931090e-01
      -2.7304010547174390e-01 5.1426477969174446e-03
      -1.9816751990919194e-02 2.3337356388593616e-02
      -1.8041848502525479e-02 -7.2629909072516680e-02
      4.7466445179379013e-01 1.0857072393156981e+00
      4.0273243625606969e-02 1.0812234960601184e-01
      2.2502617086213977e-01 2.3868991639251572e-01
      -1.7049953965277573e-01 -4.7399948944148874e-02
      -9.2773202428059059e-02 -1.6964134282247439e-01
      3.6656971152655837e-01 2.1544787621251907e-01
      -3.5384167132106403e-01 2.5806395233867130e-01
      2.7035838943681789e-01 1.3683848750564176e-01
      5.1038241290000974e-01 5.6949195820545206e-03
      -7.4904997730741962e-01 2.8294773204199236e-01
      6.6143655890894187e-02 7.6839958548653567e-02
      6.1331754747365519e-01 -1.1996677006363467e-01
      -2.4162276239461014e-01 5.1765252597317557e-01
      -4.4094475473518836e-02 -1.7734285588452969e-01
      8.7749050153426522e-01 -2.6555268907440466e-01
      5.1533765997486880e-02 -2.7312613550619419e-01
      -1.9191820191078424e-01 9.4257584149045545e-02
      -2.1754093385230155e-01 7.9690680047571599e-02
      5.6417282160984669e-02 -3.4161686069569858e-01
      9.8803808894114331e-02 2.3423253799659480e-01
      -2.6293526426230779e-01 -5.9072263974226484e-02
      5.7321696527517652e-01 4.5076283317720278e-01
      1.2146869021591741e-01 -2.3803901066070723e-01
      -8.3574923351992778e-02 -1.2509230579022731e-01
      -2.4889553046346363e-01 2.8081405321420527e-01
      -9.1338798781652103e-02 3.2123109817310792e-02
      -2.8532050805437092e-01 -4.7201054204794585e-01
      3.4190832264068582e-01 2.3840192532441509e-01
      3.4784308986124833e-03 -9.3293893238915668e-02
      4.1252553614899357e-01 -3.2933293157812360e-01
      -1.9290570724698186e-01 1.4260449246972326e-01
      -1.4924668640949504e-01 -1.4184984289446079e-01
      -1.2786899435541249e-01 2.4846630954201449e-01
      -7.2897711028316561e-02 -2.0107684348906751e-01
      -3.2061311603877413e-01 3.9031246631277566e-01
      -1.1488712146790137e-02 1.4424327890652636e-01
      1.7699606876615018e-01 4.6121870119499950e-03
      -2.1586058164537975e-01 -6.5402421885846052e-01
      1.4798619931996828e-02 2.2718517870541297e-01
      4.6654535428081297e-02 -3.8181838449966560e-01
      4.1472592228095767e-01 -3.9095458935511718e-01
      -2.8220994389089804e-01 4.2010283897915668e-02
      -2.1111459916458034e-02 -1.2607499084010582e-01
      -3.1648482373807164e-02 -3.7280511378297443e-01
      8.0781705320407710e-02 -3.7970530362857924e-01
      1.8820691064209064e-01 1.4437360198077279e-01
      1.6101009832698879e-01 -4.7132826473437239e-01
      1.4766261995998306e-01 -1.4069348081520078e-01
      2.9334569529905158e-01 8.6066864530048082e-02
      -2.6810520702916764e-02 -1.7102680448814220e-01
      -9.7255895695177834e-03 5.5068747300173992e-01
      1.8097898132545498e-01 9.4060827400958322e-02
      1.2844576733678564e-01 3.4096730183988455e-01
      -1.5292139232291813e-01 -1.1631177640664117e-01
      8.1958058487881968e-01 -3.4725230332538748e-01
      4.6180612047112081e-02 -4.9817743312773571e-01
      8.2237396145758788e-03 3.5960912076384244e-01
      9.5333436159213802e-02 6.7759485626370541e-01
      3.6882785280101471e-01 1.2417993674014897e-01
      2.9667323216571778e-01 -1.0735163939976118e-01
      -1.2365350241375406e-01 1.9809342929726644e-02
      5.1341768451991932e-01 2.6042565860533051e-02
      -5.0614219617938350e-01 -3.2328443768569265e-01
      4.3972637356343175e-01 -3.2318744088309115e-01
      -1.1864665348472740e-01 -1.0457883027690916e-01
      -2.5329887954431769e-02 -2.8749723694087853e-01
      8.4283879244718446e-02 -4.0743918717643784e-01
      -4.8038016266138316e-02 -7.1880107155688461e-02
      -2.4038198109038955e-02 1.5850612377350026e-02
      3.7924827561991048e-01 7.5914113679619337e-03
      -3.6664413158839643e-02 5.2342588081270325e-01
      4.7869388089609466e-01 5.0522491688858628e-01
      4.0102470939423912e-01 -1.4750597103826188e-01
      3.5414203530741907e-02 3.2073413830012903e-01
      3.4695009833871343e-01 -4.9526472460096720e-02
      -5.8905197036286723e-02 3.8537421556813577e-02
      -2.3522687680965948e-01 -3.8778533537105470e-01
      1.9532346547595007e-02 -8.8098652321694393e-02
      -2.0117671145514704e-01 -3.5901324896817188e-01
      1.8630308188725006e-01 -8.6739807975509800e-02
      -3.4180867730912190e-01 5.0616077192098885e-01
      -3.1917306365435688e-01 3.6219155331930170e-01
      1.1929549962648638e-01 3.0666828503667136e-02
      -5.0576878434312189e-02 -4.8768491212777348e-02
      -6.1763661358948563e-02 2.8735308823249256e-01
      -9.1961029869983849e-02 3.4071066613943574e-02
      1.4823008498526238e-01 2.0317320074317452e-01
      -1.2503240767956494e-02 -2.4930196304043939e-01
      6.2853701351256411e-02 4.9932818711027942e-02
      -3.3715199387374417e-01 -2.3819509912251141e-01
      1.0888139613187363e-01 -2.7981457334353504e-01
      -8.7012415882611591e-02 -2.2236516718989399e-01
      2.3445926362180081e-01 1.0821137665744261e-01
      -5.0341023786323558e-01 -3.3070496252836346e-01
      1.7709549274005201e-01 -5.2897102899718207e-01
      -6.6705587337384631e-02 -2.3266013611288675e-03
      2.5282746909727100e-01 -3.6141411674509116e-01
      -1.4310922063339482e-01 -3.0045191491291201e-01
      2.6713064118669505e-01 4.6696279002409316e-02
      -4.0023318492630650e-01 1.3837228491204981e-01
      1.4842989750399635e-01 3.3981431134370615e-01
      4.0366392556244740e-01 -1.2636760246198361e-02
      -4.0477036002878025e-02 1.2630718541140912e-01
      -1.4727757543596473e-01 -9.4306593517949969e-02
      1.9118358931867523e-02 -8.6296993417643686e-01
      -1.0550680548235841e-01 -1.8896083542204004e-01
      1.3280568711083495e-02 8.9647726457763879e-02
      2.0971865115419172e-01 2.9477019374013891e-01
      2.7165354261325370e-01 1.4229322922207270e-02
      -1.0066891654458475e-01 6.5968509264188221e-02
      -2.4327688442626716e-01 -1.0703047873628205e-01
      5.2252187502091973e-01 -8.8922038551053184e-02
      -3.9424008739912569e-01 -2.0013570352600193e-01
      -1.5497240680706914e-01 2.3058527404120008e-01
      1.7271554526907784e-01 7.2397773280908420e-02
      1.5010357609849675e-01 -1.2804515136767405e-01
      -2.0646246299230148e-01 -8.2431037880478689e-02
      -9.9584098371759203e-02 1.5584292297473742e-01
      -1.9775488686968549e-03 -3.4881275975965909e-01
      -6.3267009482556147e-02 2.7141464482646699e-01
      3.8626878233026962e-02 3.4064497992759613e-01
      4.6852702330172989e-02 1.8123026778218890e-01
      6.7722245158611926e-03 3.3560698240225734e-01
      -4.7816624284087667e-01 -6.0747673454773062e-02
      7.7401970735736542e-02 1.6044096522756041e-01
      4.3323527515400739e-01 -9.0914130083481176e-02
      -1.8211116716058723e-01 -9.1177391167416133e-02
      1.1010595677761639e-03 3.3350581754892922e-01
      -2.0917402160197322e-02 1.6415961285591463e-01
      2.7135850530258820e-01 -2.3543374377476434e-01
      -1.0113724112970725e-01 1.0767529203730590e-01
      -3.0601803395024631e-02 2.0663616377910224e-01
      2.6917116776498778e-01 2.6852541741202568e-01
      -4.5899808596402962e-02 3.2702640262011951e-01
      -4.7681945443448109e-01 2.4820995573316362e-01
      -2.0150546564713520e-01 2.1908677192297896e-01
      -8.6873571890884752e-02 -4.0244568694100813e-02
      -3.6136097432791264e-01 1.9052922387270477e-01
      -7.1181692218378209e-02 1.8480115100228675e-01
      8.0667060781934252e-02 7.0423701501797801e-03
      3.8050960647519755e-01 -1.0248145288686079e-01
      -1.1288988747535093e-01 1.2161181645082711e-03
      1.4361803714781771e-01 6.0627788249850031e-02
      -2.4935494865630173e-01 -5.1300114442745091e-02
      2.5758705371081325e-01 -2.8779128529411402e-01
      2.2992790853366757e-01 -2.8037386961718420e-03
      -3.3007826215697289e-01 -1.4844877506350820e-01
      8.5956074455085421e-02 -1.6032517557077597e-01
      5.8541044176259860e-01 3.5647640551672044e-01
      -2.6016539611389927e-01 -2.1041685815055189e-01
      3.6930621440538058e-01 4.2578843911573361e-01
      5.2538010600774132e-01 -4.4523790008723030e-01
      1.4308936740752490e-01 -8.9430475753186023e-02
      1.3686315010195133e-01 -5.1102913770602409e-01
      3.3536598129532347e-01 -1.3744411943667587e-01
      -1.4956621573653248e-01 -3.0191691389539144e-01
      2.6789518713980792e-01 -2.3758058691271365e-02
      -1.3662686171721134e-02 3.8131791347307259e-01
      5.1525239165904613e-01 -1.2215065950479029e-01
      -2.2664568360487281e-01 3.5749827485733032e-01
      -3.3301587555375428e-01 -6.1463641729646490e-01
      4.4409074641066182e-01 1.5606306611084128e-01
      3.1503759901191690e-02 -1.7021852276055469e-01
      4.8950672010749596e-01 1.8391173806235736e-01
      1.4863758904104110e-01 -6.1451130968201273e-01
      -1.5690767247780008e-01 -1.3357951565188861e-01
      -5.7347193252107398e-01 -3.7910471658217226e-01
      -2.8302384700545008e-01 2.9586185665135344e-02
      -3.2127338795154642e-01 -1.4778208008495131e-01
      -2.3031931781299653e-01 1.1854510730830510e-01
      1.9764979644804542e-01 3.3918784627057064e-01
      -1.8708453675861461e-03 -1.8410083241586248e-01
      1.2760725974512827e-01 2.5348370889909844e-01
      -6.3500197917567713e-01 1.1831860758759541e-02
      2.6524220832207096e-02 2.3574437458278144e-01
      6.3275339023237398e-01 3.9563466394612246e-01
      8.1263088770140504e-02 -2.5580510227301595e-01
      2.4764438134911515e-01 1.4124802705281148e-01
      2.8461059230397023e-01 2.6810373764841211e-01
      3.1648225631061827e-01 -5.5901341136123113e-02
      -6.6801794001423911e-03 3.7741612931537098e-02
      -9.8286354976070411e-02 9.6619524901514278e-02
      3.8972638097664186e-01 8.9366252574662741e-02
      -1.0530706160145160e-01 -2.1869557334395553e-01
      -2.6227778005534919e-01 3.4503581793913984e-01
      -9.2776546890615402e-03 7.5521880775650946e-02
      -2.6649310286138622e-01 -9.3884415359989717e-02
      -5.1528617863997442e-02 1.8163077090970722e-01
      1.4937728093389677e-01 2.8057192994274377e-01
      7.7071616652491945e-02 2.0646409099564891e-01
      3.3941338345120975e-01 -4.5660815943597319e-02
      5.0578070780938948e-02 -2.5542744694041657e-02
      1.1417735446853286e-01 1.0432343353005057e-01
      -4.1559335656129137e-01 1.2935312804220747e-01
      2.3390115767387556e-01 2.0485898049938826e-02
      5.4058193856866299e-01 -4.5334952725435369e-02
      1.2922152701764780e-01 -2.3930556371809998e-02
      3.7443351792727092e-02 -8.9344789074948541e-02
      1.7799978448612044e-01 -2.3576081736289739e-01
      3.0875232862510611e-02 -1.0064484446376092e-01
      6.1262916570227133e-01 -3.8300284340664452e-02
      4.5505797367641287e-01 -1.2539247931988698e-01
      -2.2153928563089337e-01 1.8763388963651689e-02
      1.0811980042758709e-02 1.4675815713524196e-01
      -2.0457105881669196e-01 -2.5903305598740844e-01
      1.8763466407703419e-01 -1.1350290459756303e-01
      -4.3567914330893409e-01 5.4124494460407188e-03
      1.1840017272128171e-01 5.3093961623519821e-02
      4.2935723115545121e-01 -5.1272705967107028e-02
      -4.3496764457760004e-02 2.5848700705246663e-01
      1.5616219215208907e-01 -2.5458028759008439e-01
      -1.2444146183923066e-01 -1.2444007736992385e-01
      -1.0055058629445894e-01 -1.1289083738535996e-01
      8.7794691918074000e-02 9.9514239903355020e-02
      8.0815824080749513e-02 -2.9801413824030526e-01
      -1.0738906577285701e-01 -1.5599680842792432e-01
      -3.6020443501826804e-01 -7.6745517806932409e-02
      -1.5813232713267941e-01 -1.0251067546008344e-01
      -2.2492907390354424e-03 7.6883890881758288e-02
      1.3851451984783411e-01 -3.9242286514028092e-02
      1.7272303272707959e-01 -1.5131100709680664e-01
      4.6348865533885936e-01 -1.0591931515189824e-01
      1.1748769226765866e-01 -2.3376827400139757e-02
      -4.1943659045717785e-01 -1.4910312773818479e-01
      -2.8324410223581870e-01 2.2403374407902388e-01
      -2.1140057068448517e-01 6.3484755614566651e-02
      1.0642446562629543e-02 -6.8436840307216265e-02
      -2.5242769890063466e-01 6.1477975435811516e-01
      1.7455423967416794e-01 2.9174926135479590e-01
      4.9306227826428309e-02 1.9001186875204617e-02
      -1.8598345316774306e-01 3.0807268980603680e-02
      -1.5340059060967001e-01 -1.7219901696786741e-01
      1.9779250244237204e-01 3.6557206196916638e-02
      4.8906017988490834e-02 -3.9212896788763091e-01
      -4.6925931859454340e-01 1.9039767756955615e-02
      -3.7855527540028439e-02 1.5292208970823096e-01
      -1.2916734453914272e-01 1.2071889697792769e-01
      -2.4241233753782530e-02 2.7175717453285558e-01
      -1.9937463195245700e-01 -9.4388845911630895e-02
      -2.9793751014874564e-01 -1.6914174890919120e-01
      3.2572568449340533e-01 -2.5479021948909575e-01
      -6.1719058633825888e-02 -1.6736186290657459e-01
      -2.4385326680472266e-01 -2.7934323578023362e-01
      -4.4406830275874515e-01 -2.8622593837164699e-03
      -2.0211629205432569e-01 -6.6659707567507054e-01
      -7.7474150961249821e-02 9.2050115427508725e-02
      1.2491826901743081e-01 -1.6562745778198051e-01
      -1.9309200428268106e-01 -1.7202851941293967e-01
      3.4392886418209490e-01 3.0721877501161160e-01
      -1.6739904689707830e-01 -7.1934421491550958e-03
      4.5184989693428718e-01 -1.8296180831638999e-02
      2.2046043752141223e-01 -2.5916502033781513e-02
      1.6035830663610992e-01 -2.3908273229609522e-01
      3.2261019680654535e-01 9.1893081449615291e-02
      -1.0095233982246028e-02 -6.0505375996102798e-02
      9.0748633354626948e-02 -3.6572717288514495e-01
      2.6327794843582109e-02 3.6229211498164948e-01
      -1.3760875402004796e-02 1.7360800601741630e-01
      2.1520411873990164e-01 -1.6695362227074217e-01
      -4.1500876426244879e-02 1.3390920743938026e-01
      2.1080721670809896e-01 -5.2717232102101330e-01
      3.6974870314709496e-01 -2.1286268306916553e-01
      -1.7382830553588166e-01 -1.8395434209937447e-01
      1.3606921221870705e-01 -3.2365772566621383e-02
      3.8282439714804406e-01 9.1607064841247698e-02
      8.7282447787778383e-02 -4.7586946216766468e-01
      -3.2259013188072183e-01 -9.1303097069923067e-02
      8.1033806276727422e-03 2.0788615168979688e-01
      2.0794419723010973e-01 -4.9182396419128679e-02
      3.8483017046290020e-03 1.0849715863545385e-01
      2.3781093120349672e-01 4.0028243261379115e-01
      4.2664349476874863e-01 -1.0673966910402698e-01
      -2.3278833642876934e-01 1.2495746681210899e-01
      -3.7285976842528512e-01 -4.1852081310515571e-02
      -8.3844480161068310e-02 2.8073606264724676e-01
      5.2617807944231776e-01 4.6361058292867235e-01
      -1.1391815673284751e-01 -1.2235783096667142e-01
      -1.0235736373711449e-01 5.4444024551564600e-02
      1.9811663472124089e-01 1.8275299955170266e-01
      4.0731785880022298e-01 -1.1276864102856268e-02
      -1.7010450675196506e-02 -9.9091694458697074e-02
      -8.0546067796718523e-02 -2.0502141751910969e-02
      3.7182832305827457e-01 1.5849810092117295e-01
      6.9995558511268469e-04 4.0886600230794773e-01
      -4.8574824124889160e-01 1.0367520901819148e-01
      -2.2114229924566034e-01 -4.1090227315014188e-02
      4.0457860556776665e-02 1.2916745225112847e-01
      -3.0069320488402035e-01 9.8767381644065080e-02
      1.4188956745604355e-02 3.1096619030467548e-01
      -2.8827499785632932e-01 -2.3500789050699611e-01
      6.4103038202706808e-01 -1.4312558015365495e-02
      -8.2377790062682824e-02 -4.1203463392486195e-01
      -1.1020001248039550e-01 -1.1122980700731581e-01
      -2.2979009953030929e-01 7.7666322028477369e-02
      -3.0843312302018058e-02 -3.5135804695530654e-01
      6.1856940020526260e-02 -1.6684965803474300e-01
      1.9491306605324621e-01 1.1937312270961793e-01
      6.3416537135561987e-02 -6.0618299861129632e-01
      -6.0693326458582342e-01 2.0015858104049208e-01
      -5.8286956893389127e-02 -4.1322142818436136e-01
      1.0499660412914719e-02 -7.5376690569451968e-02
      -2.5569322278305384e-01 1.0172043126079466e-01
      -3.0366251613327816e-02 -1.7315270459403176e-01
      -2.8418466889570448e-01 1.7941182859718208e-01
      3.1536411897583844e-01 3.8299959743287815e-01
      3.6388748468880378e-02 2.0275571617273511e-01
      9.8078985725875270e-02 2.9033872016715334e-01
      -1.1741597196924835e-02 4.7888650550164530e-01
      3.4756901411642899e-01 7.3250711392006770e-02
      -3.2698205392646068e-01 3.7679357709980299e-01
      -1.0392416957997318e-01 -6.4122592899417019e-02
      1.8361950186807396e-01 -3.7251275228193506e-02
      1.6307026936479621e-01 5.8501457645458471e-02
      4.4770837520132986e-02 3.5227511144090079e-01
      -1.4953381577053054e-01 -4.8460812419692556e-01
      8.1714059223189084e-02 2.4305006139021887e-01
      -6.0062443139412436e-01 -3.8794462731283347e-01
      -1.2706319718975626e-01 -9.7640303944000417e-02
      -3.0311460176184024e-01 -7.9832758109971272e-02
      -3.1819219916639385e-01 1.3995442204545150e-01
      -1.4979846409075237e-01 4.2304422078296533e-01
      -1.5581242541492241e-01 3.0910166385398458e-01
      3.7774360018158967e-02 -2.6708998897683262e-01
      1.2236982456915854e-01 1.5853587208880660e-01
      2.3419621323836660e-02 -1.0283032668241186e-01
      -5.8885184236936200e-02 4.3488151806291847e-01
      -3.3389970668158203e-01 -3.0659203494165116e-01
      -4.5921529642643583e-01 -2.7486057451920229e-05
      4.0075769407537348e-01 -3.4806423938052389e-01
      2.6479319452680072e-02 -1.9288458876774325e-01
      -2.5557183189701566e-01 1.7290631188332274e-02
      3.8549197230912526e-02 6.9960122951678319e-02
      3.5523203119249569e-01 -5.8084224169182311e-02
      1.3005707508075983e+00 6.0268261697641802e-02
      5.4021731550226060e-01 -6.0467224998004210e-01
      5.9511618401433784e-02 -1.1073062417584794e+00
      -1.3098025135667604e-01 -1.1471184076016399e+00
      -2.7197999699386854e-01 -1.4326748915504656e-01
      7.5632356031152592e-01 -7.0341565061351349e-02
      -8.2828935439877183e-01 -1.0080310751924541e-01
      1.5208864817539508e-01 6.1181337460684282e-01
      -1.1024699453536650e+00 -9.1873581142577365e-01
      -1.7706422466064879e+00 5.1718227696372332e-01
      -6.5018469892774278e-01 -3.6517560524855906e-02
      -2.2718510393798652e-01 9.3186753452061533e-01
      -1.5295091221749055e-03 -1.6548386640201567e-02
      -1.0813473315065745e+00 4.5176599588591776e-01
      -7.1659518578789227e-01 -7.1818134358514163e-01
      -1.4403597547205912e-01 6.5399520268068875e-02
      2.0240120145292786e+00 -2.1798442192730502e-01
      3.6149676644271111e-01 3.6562363111709351e-01
      -5.8853324479055842e-02 6.6443818264279822e-02
      -2.0574821936809132e-01 -1.1224262661630720e+00
      -1.0722340551632923e+00 8.7864684559405992e-01
      1.0831838979191413e-01 -3.0286001259633250e-01
      2.8827416091940239e-01 -1.0814441028920979e-01
      -3.6029958985096755e-01 -2.7436511116676391e-02
      -7.7932569998259271e-01 -7.3984361296976789e-02
      3.5357834090306839e-01 1.3906850142247723e-01
      1.0209923105400740e+00 -8.8267389574792554e-01
      -1.0736268130745755e-01 -9.3842224895877224e-01
      -3.1282461950686180e-01 1.1354792744118107e+00
      -9.8676590745955417e-01 1.1323828641571858e-01
      4.0919755799157204e-01 -3.7228730661068959e-01
      -3.2758262647375347e-01 -9.0145684931332493e-01
      1.5919471010740477e-01 -6.7119679762139284e-02
      -3.4278140924218137e-01 3.0697757070525994e-01
      -2.2011961960278930e+00 -2.0111385006350950e+00
      -9.4337421985871939e-01 9.0643707144778740e-01
      3.6565791392353225e-01 5.6696867683224494e-01
      -8.1675119091439721e-02 2.3731591171824867e-01
      -2.7894468628374935e-01 7.4673070867394387e-01
      -3.5748646517203614e-01 1.1640275457413025e-01
      -2.5880694297211351e-03 8.0499722722360523e-01
      7.3782890466347686e-02 2.2255000304294399e-02
      -3.9757146369587598e-01 -4.6395544576703324e-01
      5.4009105471852781e-01 5.7160010905948566e-01
      -1.6808410858474476e-01 3.2691507491392890e-01
      -1.4274805979975196e+00 -6.9989432600306312e-01
      -4.3704886264175312e-02 -8.4894221229503941e-01
      -3.5936913011917854e-01 -8.7397970588911893e-03
      -5.7934414543770785e-01 -9.7952261787322226e-01
      -5.1262510689908158e-01 -1.5993528373303738e+00</_>
    <_>
      5.1512127722927311e-03 -2.4295383400730322e-01
      -2.7704392895781915e-01 7.7167388341007781e-02
      5.9503310073495505e-02 -5.4572191820464779e-02
      2.0816863598176308e-01 -2.5495646667052674e-01
      3.3641523134095053e-01 2.8841075010836843e-02
      -9.5701782564729554e-02 2.5269834450634365e-01
      2.7611582048821365e-01 -3.3046879746137159e-01
      2.1920314421104002e-02 -9.5201674893083649e-02
      7.6783077893204923e-03 9.1691094144074184e-02
      -3.8017816382155956e-01 4.7458959712059955e-02
      -3.9445186805331872e-01 -1.9654178457274116e-01
      3.2169473442182861e-01 1.2701976612366844e-01
      -9.6134876125677879e-02 -3.5784352431013183e-01
      5.6119771141532299e-02 1.2496715622500877e-02
      -1.2249901179366318e-01 -1.3627174883196511e-01
      -5.1326910001833270e-01 -4.7050771656086188e-01
      2.6157400235115214e-01 1.9999488215093308e-01
      4.7741460916782462e-02 1.6350691014079929e-01
      -4.6310203262377875e-01 3.8021961558079758e-03
      1.8366474889316947e-01 1.9157601393756649e-01
      3.4318565249797412e-03 -9.3785455081736510e-02
      -6.0980336226744411e-02 2.5183269454758586e-02
      2.2592988838004369e-01 -2.9226601192519952e-01
      -1.4499108162657970e-01 1.9216289740417231e-01
      -1.5954256151645391e-01 1.0398371239125884e-02
      2.0856519016736400e-01 5.6641853349577831e-02
      1.8808996304092726e-01 8.9289295820972475e-03
      -8.6011177834813185e-02 -1.4155389743264998e-01
      -1.8239649623726054e-03 2.9907072667265621e-02
      7.0571072602426538e-02 -3.3542893868033147e-01
      -3.3706736899172868e-01 6.0675094572133892e-01
      -2.5327839216738098e-02 -5.3609706772436226e-02
      -5.2871660148192423e-01 -1.9535938155775487e-01
      9.9465672789383813e-02 -3.8076047080541497e-01
      1.9056082883666026e-01 5.2805585165669987e-02
      8.0094008769126104e-02 -4.9322253514537423e-01
      4.5157429889459993e-01 1.4742421711628925e-01
      -1.8147208681328053e-01 6.7146413317478656e-02
      -7.6147014856991158e-02 1.7609612685300979e-01
      -1.1733519508011240e-03 4.8086594600478408e-03
      4.1786293416446782e-02 2.9916372539696180e-02
      -2.1139474641187114e-01 -7.0488720145857895e-03
      1.0284782611933063e-01 9.9634782267814651e-02
      1.7035412383729197e-02 1.4515404302751571e-02
      -3.1597986097225250e-01 2.2113245555205627e-01
      -1.1887616530900845e-01 -4.7633913124398636e-01
      2.5413870860492649e-01 2.4256371727130809e-02
      -3.2960619695644906e-03 -1.1427121891111193e-01
      1.0391885758001142e-01 -1.4179361799935725e-02
      3.1579027544138660e-01 7.1836831189464351e-02
      -2.3787880650834575e-01 1.9711275187827115e-01
      2.2163996637830596e-01 -3.0690630367385063e-01
      -4.0618531366158388e-02 1.1017707254035729e-01
      2.5661620232506910e-01 -2.7853392083842232e-01
      9.3400887109101549e-02 -2.8998397244053581e-01
      -2.6871241407737412e-01 2.0771427305302578e-01
      -3.6357326292930126e-01 -6.8813411814491248e-03
      1.3123749283920255e-01 1.6119086090366147e-01
      -5.9309718900340751e-02 5.5303678773128383e-02
      -6.5345317024733771e-02 1.7027947153548585e-02
      8.5328203099054395e-02 8.0683190470047003e-02
      2.4132344384835572e-01 2.3543168678625004e-01
      -1.5330316370806554e-01 1.0883178677735036e-01
      -2.7587835408981624e-02 -1.3721920136122440e-01
      -2.9485385494524240e-02 3.6921126367994328e-02
      3.2487211808470126e-02 -5.4855718020512596e-02
      1.5407391334436482e-01 -3.4398476528043648e-02
      -9.2270637394835833e-02 1.5002413951793073e-01
      -1.0830446745595877e-01 2.0869180866433798e-01
      1.1475738512799141e-01 1.1909425968394445e-01
      -7.3072116230201668e-03 1.5179319508161823e-01
      2.2257494446864109e-01 -4.0033642972268427e-02
      2.5476076424286803e-01 -1.4763785799475496e-01
      1.6719183115830044e-01 -2.5916250301239011e-02
      -5.8767918088421356e-02 1.9669897018510898e-01
      9.2979574123160463e-02 1.8445644887990667e-01
      2.9352149340694389e-01 5.1728188279210094e-02
      -1.1356223836800865e-01 7.4737776558757574e-02
      -1.7653274825953202e-01 -1.7417948405948949e-01
      -4.0258453506375064e-01 1.1201882373098059e-01
      -2.7257823207153714e-01 1.5587381031823874e-01
      2.7135835912314465e-01 1.3313320260911676e-01
      1.1670331033845396e-01 2.9490950929308857e-02
      -3.6773385776142350e-02 7.4672744397302607e-02
      1.1107465562220484e-01 -1.4264766884950303e-01
      -1.8709958993897516e-01 2.8299486995078893e-02
      -1.2777783980130467e-01 -7.8740646945086604e-02
      -1.9123684973694927e-01 -2.0561331716921366e-01
      -2.4500400751474544e-02 8.8744919666323710e-02
      6.9839769840847721e-02 -3.1862146228928678e-01
      1.0074934542777240e-01 2.6260198371873039e-01
      -9.7155755528797225e-02 -8.0504264944432857e-02
      1.0806857532000300e-01 1.8742317104647205e-01
      4.9632071756735074e-01 -5.7927880200122524e-02
      -2.5934104183571890e-02 -4.8015322539010849e-02
      -9.2573162115841184e-02 4.7028792603747593e-02
      -3.4319903500364590e-01 -1.3381945453080618e-01
      6.1530491617642520e-02 -2.7377450502959599e-01
      6.5211704484358354e-02 -1.2005789269535526e-01
      -3.1318383414939677e-01 -1.0354477292339019e-01
      -1.1634250663928794e-01 -4.5000904735427744e-01
      -5.7458723495406082e-03 -2.0170588627855884e-01
      9.6495543470010492e-02 -1.9927976995476486e-02
      2.0889762003713664e-02 1.4374448719119862e-02
      1.9836740399413705e-01 -3.9985197575949878e-02
      -2.5296038077780225e-01 -5.0305143420060448e-02
      -3.2977205991458661e-02 -2.2101962995138993e-01
      3.2796994822814926e-03 1.9163010363049646e-01
      -7.5763097081309544e-02 -7.3700424255606425e-02
      -1.3563631601786832e-01 1.5973512242638419e-01
      3.8486965695191479e-02 5.7699096598387588e-02
      2.1491820547270918e-01 -1.2195971659213488e-01
      3.5900951662153076e-02 -1.5729211081170641e-01
      3.2274341359526905e-03 4.4723770190853929e-01
      -1.5677840371223498e-01 8.8526959338562985e-02
      -9.8722212918785149e-02 -1.2461294259654151e-01
      1.4942691461050106e-01 2.3502302454831403e-01
      -8.0717919215688556e-04 3.3451927880816544e-02
      -3.2306247572531234e-02 1.0643096851423128e-01
      -2.0844946479637042e-01 -1.2514227154699190e-01
      1.4359177900830616e-01 -1.2170265677579496e-02
      7.1230233806122617e-02 -1.1047146401060141e-01
      -4.3964457707340018e-02 2.2618627787507686e-01
      2.1329040215238571e-01 1.7548317875157748e-01
      -2.3168067294466094e-02 -1.1449502882045994e-02
      2.8046954318990840e-02 1.1603156387494395e-01
      -1.7383878871431179e-02 2.5611618705000172e-02
      7.4831754097827746e-02 -4.2192962979739991e-02
      -5.3285036178152299e-02 1.7097864529287082e-01
      4.1060496315231190e-02 -8.9118974100210469e-02
      8.9762986894868127e-02 5.1573207534118121e-02
      2.2050081796141915e-01 -5.7282713644491952e-02
      -2.3359908915247926e-01 -1.7129519652712732e-01
      1.3024766606453594e-01 -1.5612056042234140e-01
      -5.2548771944330594e-02 -1.3652786245802231e-01
      6.2967786977226131e-02 1.9739962347687554e-01
      1.2443314738878521e-02 1.7869485452470896e-01
      1.4157157872076362e-01 -1.0520443641461355e-01
      1.4597214707166950e-01 -4.8733206697241717e-02
      1.1500707471415487e-01 -2.6097599678838918e-01
      3.1210474831202405e-03 3.3929851981229324e-02
      8.7577252311887288e-02 2.1148845953227852e-01
      2.0862095231816094e-01 -6.4933517614501529e-02
      1.6620315931481847e-01 1.2408998224243140e-01
      2.6372376794627883e-01 7.0953557395516453e-02
      -4.6380305433544364e-02 1.5789725860670518e-02
      -1.5166088866801183e-01 6.2731662570521679e-02
      2.2148246155548168e-02 -3.4649350884617086e-01
      4.5588241079622592e-05 -1.8044365674148183e-01
      1.6228450782630605e-01 -8.3424960715324542e-02
      -5.7982578998575389e-02 1.3107727038692743e-01
      -1.3555134019653850e-01 -4.9904127320519009e-01
      1.6089648842819329e-01 -1.1073481667728843e-01
      6.0068164094940124e-03 -1.3111114352576614e-02
      -1.5284580254159266e-01 -6.3138385125160762e-02
      1.2801441795920265e-01 -3.2325932388788246e-02
      -2.5890380524260714e-01 -2.3865786122774799e-01
      2.9142384679309518e-03 -2.9044667977640642e-02
      5.0324174903212809e-02 -2.4507553608611666e-02
      -1.2229051216652911e-01 9.3191327702574142e-02
      3.3198897575719116e-02 -6.9854110311391965e-02
      -1.2368738049496801e-01 3.9549400221811325e-02
      -1.3409144563591652e-01 -5.8109169544504187e-02
      -1.7305325013205940e-02 -9.7389430557011492e-02
      1.5529131762229909e-01 -2.9437834877967016e-03
      -8.5122539072623210e-02 -1.8221034264616803e-01
      3.2643312558501314e-01 3.6470848479731177e-01
      4.3645979555038315e-02 1.8682891258138137e-01
      -6.5214054234929347e-02 -1.5706568383073216e-02
      1.6741466257168280e-01 7.5343640596852663e-03
      -2.8755882093803441e-02 1.8497626124009564e-01
      -1.9845102539927112e-01 1.4851449632157154e-01
      -8.5209528667292297e-02 -9.5737229319267689e-02
      -1.0421604583027570e-02 -1.3185435575122850e-01
      -6.7979326395641138e-02 -6.6253445939254238e-02
      1.8901853803896040e-01 2.9495392817376509e-01
      1.2631521148179847e-01 -1.2222311094938595e-01
      3.5125440388367672e-02 -3.7494846777497585e-02
      9.8789356577387730e-02 4.9793902960300403e-02
      1.3981678659614749e-01 2.0101776886110766e-02
      3.7350371099270849e-02 2.1267718371516708e-01
      -1.4558445568163481e-01 -1.8454270692198882e-01
      6.2220388720667749e-02 3.2961115187598970e-02
      1.6536773990796602e-01 -5.7668627178216934e-02
      -1.0493559342362781e-01 7.8630373720512153e-02
      1.3361951417647794e-01 -1.2916519361724788e-01
      -4.5520625310123707e-02 2.8258149432260893e-01
      2.2731168711635741e-01 -1.5269887719035169e-01
      2.5308596496716168e-01 1.1967039826877603e-01
      -9.2968477419507027e-03 -3.1947962741538122e-01
      1.1513544392584542e-02 -2.8475022313847553e-01
      -1.7756967281403982e-01 1.9693482836252332e-01
      -6.4491266938558667e-02 -8.8780454130467951e-02
      7.2066896864356064e-02 2.2457771408504754e-01
      1.8806114553812714e-01 -1.7080005258772485e-01
      1.2421352120295732e-01 -4.7580123655293592e-02
      -3.9269130508932437e-02 -5.7895111770981250e-02
      -3.9769364077627531e-02 1.7350009639832487e-01
      9.7803728276642382e-02 3.7152911299194848e-03
      6.2374248470424311e-02 4.1665438716749503e-01
      -1.5115152340746302e-01 2.0054122398420496e-01
      2.4475340238431167e-01 1.9054392721540392e-01
      7.6209919051036787e-02 -5.5474932509563750e-02
      9.3759630268678729e-02 1.6786278769290236e-01
      -3.1034590476609303e-01 -8.3910998635553943e-02
      -8.1467370372529782e-02 -3.4536075536773492e-01
      -4.8335727105886926e-02 -2.6939617181426800e-01
      2.2617216336638679e-01 2.3975043632910284e-01
      -1.9767885793391413e-01 1.7631517672014319e-01
      9.4102876217679723e-02 1.5202385661251624e-01
      2.3395469260493096e-01 -1.3505780005854859e-01
      -5.0681934554226404e-01 1.5931363415840361e-01
      -5.6139848598469289e-01 4.9963054564164541e-02
      -3.8893708124193649e-01 -3.3307440944926020e-01
      -1.0951598550457568e-01 3.1792241284471295e-01
      4.6675227712082051e-01 3.0928091124877016e-01
      -3.0145887723183895e-01 1.3917910245130610e-01
      -9.0533652617416430e-02 -2.8576583345707485e-01
      6.7918979711747740e-01 -2.1945161399172494e-01
      -9.8210316823165486e-02 -1.6884646974624828e-01
      1.7774309085088513e-01 -2.1983101134856331e-01
      -1.5317469421742325e-01 8.1610081561025241e-02
      -3.4221894462725144e-01 2.9120554319864184e-01
      -3.6411629665074434e-02 2.4460067822990458e-01
      4.0090344200975792e-02 1.2775075452009146e-01
      -1.4738642398580637e-01 -1.1749185384587223e-01
      -2.6393641163640502e-01 1.0719521909103998e-01
      6.0089832620245729e-03 5.2481325198081363e-01
      7.5452498471113738e-02 -1.5775261315951511e-01
      1.0720070557548193e-02 -2.9964330230347375e-01
      3.8158807897693540e-02 2.8210892960814145e-02
      -6.6997350202961756e-02 5.1524284511839397e-03
      2.4284456615008981e-01 2.9302852707330385e-01
      1.7174346028449639e-01 2.8041596714435513e-01
      1.3809515008576123e-01 -2.1875526711512777e-01
      1.7409433986715039e-01 -8.6118374111936929e-02
      2.4950048395159460e-02 3.3012550814589786e-02
      1.9059718253740035e-01 1.7340128493196846e-01
      -3.0470554947244401e-02 -3.2546748758377680e-02
      -2.9516083623647776e-01 1.7586009674372266e-01
      -1.7848489562736151e-03 3.4102291148980340e-01
      2.5016853157047214e-01 9.6652101210541963e-02
      -3.9887889286431381e-02 1.0960016044325140e-01
      -2.5822689265680665e-01 1.9391118924738457e-01
      3.8406465236066228e-01 -5.9012334359093255e-02
      -2.4418839491725366e-01 9.1888917054140165e-02
      1.6783929124036348e-01 4.9554365397584524e-02
      -2.8192910336909655e-01 -1.7279657932569020e-01
      -1.4051930944581265e-01 3.3424381171032036e-01
      3.7001603075977413e-02 1.0115083253785738e-01
      -2.3455925170183706e-01 -9.4160389625844148e-03
      -2.6728473635767816e-02 3.7122389918062312e-02
      4.1446647104424011e-01 -6.1558520844328946e-02
      1.0309931386052831e-01 -3.3428394632783250e-02
      -2.9193475018815201e-01 -1.1382708716140746e-02
      -3.8135342656423737e-01 1.2178898269606242e-01
      -2.4185253154422692e-01 -2.7111029012908718e-02
      2.9697741141603684e-01 -1.2454167759956173e-02
      3.2978865580508061e-02 -2.4083234596126049e-01
      4.5031145791849532e-02 -2.7070230918408902e-02
      -3.5444173501522361e-02 7.0251779732160707e-02
      7.0736621923795442e-02 -3.6638290026647244e-02
      -1.4521343446910703e-01 -7.2425765157108218e-02
      -9.5098424449815255e-02 1.1431583342009637e-01
      -9.6837430659073159e-02 9.0578038048279491e-02
      -2.8054443040857469e-02 -4.3240753782619372e-02
      3.9220949194754923e-01 4.9761257730849490e-01
      -1.8364926064271694e-01 -5.7444218462306282e-02
      -2.6131481881946578e-01 7.2740587957109915e-02
      -2.3667312106833052e-01 -3.4212322372127990e-01
      2.4358718966943840e-01 8.9455224786815418e-02
      2.9168303495068060e-01 -8.4068771317115987e-02
      2.2910264047122689e-01 4.5100185749792389e-02
      3.2865297295036361e-01 -1.0037762130386531e-01
      -4.9358423284356322e-02 -2.2722753463686635e-01
      -1.3989289368328123e-01 2.1801942874670274e-01
      2.5992586512505024e-03 -1.1009019526664564e-01
      -1.0236011948291462e-01 2.5635430842726076e-01
      -1.2492081404321484e-01 5.4510492141044711e-02
      -1.1842864283779123e-01 4.2186026447799028e-02
      -1.2601518889252200e-01 9.3080078862632903e-03
      -9.3206113329326074e-02 -1.2187411519172062e-01
      1.6065922454585208e-01 1.9140098568591613e-01
      -8.9187075541077951e-02 -1.5856031136441240e-02
      3.3320134579015526e-01 1.0575927884995347e-01
      2.1151897940752667e-01 1.7312874293636515e-01
      -1.3813073284239427e-02 5.3023812845766023e-02
      1.0636749060347214e-01 1.4736052949098105e-01
