<?xml version="1.0"?>
<opencv_storage>
<opencv_ml_ann_mlp>
  <format>3</format>
  <layer_sizes>
    29 70 70 42</layer_sizes>
  <activation_function>SIGMOID_SYM</activation_function>
  <f_param1>6.6666666666666663e-01</f_param1>
  <f_param2>1.7159000000000000e+00</f_param2>
  <min_val>-9.4999999999999996e-01</min_val>
  <max_val>9.4999999999999996e-01</max_val>
  <min_val1>-9.7999999999999998e-01</min_val1>
  <max_val1>9.7999999999999998e-01</max_val1>
  <training_params>
    <train_method>BACKPROP</train_method>
    <dw_scale>1.0000000000000000e-03</dw_scale>
    <moment_scale>0.</moment_scale>
    <term_criteria>
      <iterations>8000</iterations></term_criteria></training_params>
  <input_scale>
    4.0203977077492823e+00 -1.6081128541356631e+00
    1.0313468975212656e+01 -1.9167585190443639e+00
    1.0873726571063507e+01 -1.6725307570811407e+00
    1.2479538751435665e+01 -1.4449536648561634e+00
    1.2936939037431321e+01 -1.1500593018584904e+00
    2.3488405526472274e+01 -1.2469548010320912e+00
    4.6825085242871928e+01 -1.7502062625014243e+00
    6.3310269275818214e+01 -1.8777950983977074e+00
    7.3570666994305469e+01 -1.8343274951404065e+00
    9.5961241485737645e+01 -1.9071172471011415e+00
    1.2711932060870772e+02 -2.1682436349417511e+00
    1.4765556963238521e+02 -2.1997121058915927e+00
    1.5803356683950577e+02 -2.0309023146979599e+00
    1.6780274223848443e+02 -1.9603136177165847e+00
    1.8296574574257093e+02 -1.9021102235184233e+00
    1.8868974768845553e+02 -1.7792365473519782e+00
    2.2603627067679849e+02 -1.8042863864606511e+00
    2.3909656180419464e+02 -1.7452088789499016e+00
    2.6461379071941025e+02 -1.7616620551993976e+00
    3.0893978288886819e+02 -1.8366647179801832e+00
    3.3560690281045873e+02 -1.8842331967352166e+00
    3.9024350300926091e+02 -1.9259541085196081e+00
    4.1366237772428099e+02 -1.8740502417811877e+00
    4.7762206860366712e+02 -1.9740960906272025e+00
    5.1523112057613264e+02 -1.9780940058235383e+00
    5.4144673607635377e+02 -1.9376513980377958e+00
    6.0552908421137352e+02 -2.0415944223343021e+00
    6.2665925266785609e+02 -1.9150000737811474e+00
    6.5780898216977846e+02 -1.9182822107186466e+00</input_scale>
  <output_scale>
    5.2631578947368418e-01 4.9999999999999994e-01 5.2631578947368418e-01
    4.9999999999999994e-01 5.2631578947368418e-01 4.9999999999999994e-01
    5.2631578947368418e-01 4.9999999999999994e-01 5.2631578947368418e-01
    4.9999999999999994e-01 5.2631578947368418e-01 4.9999999999999994e-01
    5.2631578947368418e-01 4.9999999999999994e-01 5.2631578947368418e-01
    4.9999999999999994e-01 5.2631578947368418e-01 4.9999999999999994e-01
    5.2631578947368418e-01 4.9999999999999994e-01 1. 0. 1. 0. 1. 0. 1.
    0. 1. 0. 1. 0. 1. 0. 5.2631578947368418e-01 4.9999999999999994e-01
    5.2631578947368418e-01 4.9999999999999994e-01 5.2631578947368418e-01
    4.9999999999999994e-01 5.2631578947368418e-01 4.9999999999999994e-01
    5.2631578947368418e-01 4.9999999999999994e-01 5.2631578947368418e-01
    4.9999999999999994e-01 5.2631578947368418e-01 4.9999999999999994e-01
    5.2631578947368418e-01 4.9999999999999994e-01 5.2631578947368418e-01
    4.9999999999999994e-01 5.2631578947368418e-01 4.9999999999999994e-01
    5.2631578947368418e-01 4.9999999999999994e-01 5.2631578947368418e-01
    4.9999999999999994e-01 5.2631578947368418e-01 4.9999999999999994e-01
    5.2631578947368418e-01 4.9999999999999994e-01 5.2631578947368418e-01
    4.9999999999999994e-01 5.2631578947368418e-01 4.9999999999999994e-01
    5.2631578947368418e-01 4.9999999999999994e-01 5.2631578947368418e-01
    4.9999999999999994e-01 5.2631578947368418e-01 4.9999999999999994e-01
    5.2631578947368418e-01 4.9999999999999994e-01 5.2631578947368418e-01
    4.9999999999999994e-01 5.2631578947368418e-01 4.9999999999999994e-01
    5.2631578947368418e-01 4.9999999999999994e-01 5.2631578947368418e-01
    4.9999999999999994e-01 5.2631578947368418e-01 4.9999999999999994e-01</output_scale>
  <inv_output_scale>
    1.8999999999999999e+00 -9.4999999999999996e-01
    1.8999999999999999e+00 -9.4999999999999996e-01
    1.8999999999999999e+00 -9.4999999999999996e-01
    1.8999999999999999e+00 -9.4999999999999996e-01
    1.8999999999999999e+00 -9.4999999999999996e-01
    1.8999999999999999e+00 -9.4999999999999996e-01
    1.8999999999999999e+00 -9.4999999999999996e-01
    1.8999999999999999e+00 -9.4999999999999996e-01
    1.8999999999999999e+00 -9.4999999999999996e-01
    1.8999999999999999e+00 -9.4999999999999996e-01 1. 0. 1. 0. 1. 0. 1.
    0. 1. 0. 1. 0. 1. 0. 1.8999999999999999e+00 -9.4999999999999996e-01
    1.8999999999999999e+00 -9.4999999999999996e-01
    1.8999999999999999e+00 -9.4999999999999996e-01
    1.8999999999999999e+00 -9.4999999999999996e-01
    1.8999999999999999e+00 -9.4999999999999996e-01
    1.8999999999999999e+00 -9.4999999999999996e-01
    1.8999999999999999e+00 -9.4999999999999996e-01
    1.8999999999999999e+00 -9.4999999999999996e-01
    1.8999999999999999e+00 -9.4999999999999996e-01
    1.8999999999999999e+00 -9.4999999999999996e-01
    1.8999999999999999e+00 -9.4999999999999996e-01
    1.8999999999999999e+00 -9.4999999999999996e-01
    1.8999999999999999e+00 -9.4999999999999996e-01
    1.8999999999999999e+00 -9.4999999999999996e-01
    1.8999999999999999e+00 -9.4999999999999996e-01
    1.8999999999999999e+00 -9.4999999999999996e-01
    1.8999999999999999e+00 -9.4999999999999996e-01
    1.8999999999999999e+00 -9.4999999999999996e-01
    1.8999999999999999e+00 -9.4999999999999996e-01
    1.8999999999999999e+00 -9.4999999999999996e-01
    1.8999999999999999e+00 -9.4999999999999996e-01
    1.8999999999999999e+00 -9.4999999999999996e-01
    1.8999999999999999e+00 -9.4999999999999996e-01
    1.8999999999999999e+00 -9.4999999999999996e-01
    1.8999999999999999e+00 -9.4999999999999996e-01</inv_output_scale>
  <weights>
    <_>
      -7.6149002158105927e-01 -3.0983269107695373e+00
      -1.3363573150511626e-01 1.7803152854048354e+00
      1.0201984404977826e+00 2.3318366845593608e+00
      2.0242829808467184e+00 2.5914568261582485e+00
      -1.5017419087120407e+00 -7.5727001295281238e-01
      8.1353775291840180e-01 -9.4690261246378071e-01
      6.3034203059468630e-01 1.1963197560702541e+00
      -1.9764191921092593e+00 -6.0422425907861743e-01
      -3.1303494945089296e+00 -2.0952140683275897e+00
      -2.2730271661858996e+00 -4.2928354431364762e-01
      -1.6321952011338385e+00 1.2242967281676345e+00
      2.7030047251078138e-01 -1.7264197024182495e+00
      4.0832714338475512e-01 -2.2078414176984125e+00
      -1.5944460716229822e+00 1.2558298442690861e+00
      9.5365129346999478e-01 7.2843992393824153e-01
      -1.3663086109348466e+00 -6.2126949719970337e-01
      1.6599095232504957e+00 -2.2410631140271633e+00
      9.8925023661771105e-01 -6.6610546533433471e-02
      7.6191836861666051e-01 1.2989535330174846e+00
      1.5167190566738720e+00 4.0569423624581988e+00
      1.8863903807415576e+00 -3.3441397110999738e-01
      -8.7832144316971561e-01 -2.1806768904895852e+00
      1.1175427562504479e+00 1.1799450451569182e+00
      2.1506832700246639e+00 1.5915486971283397e+00
      3.3040574953860604e+00 1.2466107510681368e+00
      -9.1801240894254588e-01 -5.3880409965476628e-01
      -1.0048058695305910e+00 1.7749445403720501e+00
      3.4970662057045048e+00 3.1694916840993095e+00
      2.3190047152434961e+00 -7.4543062013438111e-01
      -1.6690568081248578e+00 1.4593347427357737e+00
      2.5197128535391977e-01 1.1771064996693497e+00
      5.9642723713687984e-01 -1.4903468619440547e+00
      -4.5663689872487517e-01 -2.6512540707174006e+00
      -1.9340804555111105e-01 -4.0828812293890140e+00
      -3.8341735806057651e+00 -1.8757843706155468e+00
      3.4711209650364938e+00 2.0109584355789760e+00
      -6.2437346229769564e-01 -5.8634955065262984e-01
      -1.5863495441223545e+00 1.0354158571313616e+00
      6.2860514175687765e-01 -3.6965055591604030e+00
      -2.2604143961266501e+00 -1.1097354763218705e+00
      -3.3154597905323424e-01 -1.2398648160163739e+00
      -1.0351662738859391e+00 1.2194043420731362e+00
      -1.8141358925243158e+00 -2.6751645219584312e+00
      -1.5767817393133978e+00 1.8534357098493608e+00
      2.9506793986030549e-01 8.5043904612648880e-01
      -1.1740983817087820e-01 1.4066997506315984e+00
      1.3144714401299546e+00 -2.8574836664970854e-01
      -2.0590057876273160e-01 1.5739013968366966e+00
      -1.5628019322204749e+00 -2.3017050591219914e+00
      -2.5989520368024936e+00 -1.5934420836598018e+00
      -1.9355912809146048e-01 6.2200618680623831e-01
      2.0212271487924238e+00 6.0758994235259556e-01
      1.6835218754049172e-01 5.5949874934777222e-01
      1.0136480493910476e+00 3.5921828711908752e+00
      2.0061895286511895e+00 1.7727938794127079e-01
      -1.0244564678536145e+00 1.8108802887540001e+00
      -1.1103029762359902e-01 -2.0812068779500992e+00
      4.3680106454790737e+00 7.8649907288488863e-01
      -7.3467197517774208e-01 -1.2908133673641506e+00
      -1.7419001703208620e-01 -7.3518001037211611e-01
      -4.5292991289522644e-01 1.0516300847921264e-01
      -4.0585231926096399e-01 3.2494942774040997e-01
      -8.5843057601459244e-02 2.7994303635702518e+00
      -8.6456693932749507e-01 -8.5103400025289577e-01
      8.7959025631835941e-01 -1.2174548017259297e+00
      5.9270261459308027e-01 4.5890763365182746e-01
      4.7508981066493433e-01 -3.1010785136495351e+00
      -1.0142419711943691e+00 9.9197878217294966e-01
      -3.8133160859365072e+00 2.9339561105023377e+00
      -5.1671894415399899e-01 -2.8505049798323596e+00
      -1.4527743766540815e+00 -8.3812017415160933e-01
      -7.5815951153816696e-01 -5.8474797083390528e-01
      3.3386521643753202e+00 1.2470181572316661e+00
      -5.8419666634834422e-01 -1.1916227844315954e+00
      -2.7184604753171704e+00 -7.5682431516010729e-01
      7.8069515513195142e-01 -3.5304251120391300e-01
      -1.6095880401508253e+00 -1.9129715696370893e+00
      6.6022537755865673e-01 1.5339097450862520e+00
      -5.4757762372509247e-02 -8.0740828374243379e-01
      -2.2056275024070633e+00 -3.1052681239335000e+00
      5.8862274000849302e-01 2.0043036882456180e+00
      3.7666621839338987e-01 -1.1649284264296340e+00
      2.2047935818576403e+00 9.2082184796962441e-01
      9.8444642777754721e-01 -1.2886299082590911e+00
      -3.9156693720069002e-01 -1.4855145747972727e+00
      3.4540600297984363e+00 -3.2037565398399903e-01
      6.7685962449608605e-01 -3.1293704806364719e-01
      1.3526335368646256e+00 2.5928620236344311e+00
      7.4043255411615483e-01 4.6977501837184263e+00
      4.2902706075170877e-01 -7.6085980142189169e-01
      3.5577257624657825e+00 1.0229924742276206e+00
      1.1438008891716871e+00 1.6315591608727127e+00
      -4.0659675610098835e+00 -5.1522098710847053e-01
      -2.2958065212146492e-01 -1.2726586850181691e+00
      1.3972115319913996e+00 4.4229668778694831e-01
      -1.1490350172877617e+00 -9.6181103879357688e-01
      -1.1722927855145717e+00 -4.0337215964316109e-01
      7.6137483520483518e-01 -1.3748994079736905e+00
      9.1391041059291844e-01 3.9978069968304113e+00
      2.0039574624171412e+00 -6.6772613129918268e-01
      -1.6852519393898471e+00 -1.8588279588105083e-01
      -2.5880598228828524e+00 -1.4619451085515038e+00
      7.5032975787874268e-01 3.5826158310799078e-01
      -1.8290641716404730e+00 -5.2940501020248387e-01
      9.5630247299066173e-01 -3.2551658595125676e-01
      -5.1204793511657059e+00 -1.1608891494830718e+00
      -6.6528007189121230e-01 5.3522166612875573e-02
      4.3230978762134695e+00 1.4078172756703515e+00
      -2.5221650068119201e+00 1.4536524301590295e-01
      -1.7427851246049511e+00 -1.5158114561398446e+00
      -8.3428988042146801e-01 1.2256319161043647e+00
      -6.5978215969232179e-01 -2.0137649591828257e+00
      -7.6443705650130186e-02 -1.3713193598532567e+00
      -2.5950141258893740e+00 -8.5932408467090970e-01
      -1.0192627127518337e+00 8.7908519722474987e-01
      3.7577789227343350e-01 -1.9538808894053664e-01
      1.4616653131899973e+00 -8.9250501443040409e-01
      -4.5344013942722511e-01 -1.1062838145961971e+00
      -5.9639797544885431e-01 -1.0598113719198659e+00
      -1.2841614863790274e+00 -1.9824229675410805e+00
      -1.2825076259719275e+00 -1.4797714720010389e+00
      2.0598018684171056e+00 -1.1686340724591491e+00
      -5.7788882829816501e-01 -5.9129105461571985e-01
      1.3560683955196160e+00 4.3744532672113851e-01
      4.3060499138746949e-01 -5.6716227638947936e-01
      -3.0155851683885779e+00 2.3640794116831807e+00
      -6.8070877123247664e-01 -1.9352032203833016e+00
      3.7837896908478086e-01 -1.1465134887425379e+00
      -7.1926732351276346e-01 -1.4233739335313720e+00
      -1.1013066858090403e+00 2.1129948831260578e-01
      -1.0492686577024993e-02 -1.4291345467550520e+00
      -5.1114324550216483e-01 -6.3020896338271204e-01
      9.2218791603538061e-02 -3.3537367008874059e+00
      -4.6147928035116242e-01 -2.6890412176038661e+00
      -9.0280538480568417e-01 1.2380819564072965e+00
      -1.1418361449794210e+00 3.2085704325366065e+00
      2.2899764495377908e+00 -8.0518650739835251e-01
      1.8005688985571093e+00 -1.0173019962951699e+00
      -2.4112359557811905e-01 1.6888972836640326e-01
      3.3732660413331278e-01 2.9423515288502458e+00
      -1.2809922036177745e+00 -1.4914085352011566e-01
      -4.1630992568931857e-01 -1.1220837573749098e+00
      5.5249107503123618e-01 1.3436632141663409e+00
      1.7374780648802572e+00 -2.4719336569559627e-01
      -1.5237767519730474e+00 1.5905360797211503e+00
      2.6397322636639509e-01 1.3947405984915442e+00
      -5.5557676269047285e-01 -5.6933416539392534e-01
      -6.2152470670891813e-01 -4.1270703260601804e+00
      -1.4668495398125720e+00 -2.4575269039770755e+00
      -1.6284603397950392e+00 1.2994231887058894e+00
      -9.5816425020429663e-01 1.1276589715854015e+00
      5.4565672758766348e-01 2.2649778497804204e-01
      8.4067966916229553e-01 3.1300428419913526e+00
      1.1319960484849034e+00 -2.3316274899197404e+00
      2.7920902767109150e+00 -2.0832344245011782e+00
      1.3664911072604611e+00 2.7079060753337147e-01
      3.2094154091940768e+00 5.0979547904081124e-01
      -2.3889479464260491e-01 2.1945325763336734e+00
      -9.0612072883429096e-01 2.9925450580739481e+00
      -1.3004637737257363e+00 2.3763497580914144e+00
      -9.5597522895248510e-01 4.0958470473621239e-01
      6.6821576148703210e-01 3.1916991694177338e-01
      -1.4775304126843960e+00 1.6876096836878035e-01
      3.0802429270155623e-01 -1.1108835938720597e-01
      9.3617149938531607e-01 1.9676636502204712e+00
      7.8665892463305043e-01 -2.2986691658636236e+00
      7.9767666120508529e-01 1.7986287946784947e+00
      -2.0206354644897151e+00 -7.3358814015677687e-01
      7.1341576118719463e-01 1.7242197655879832e+00
      1.2867458861533954e+00 2.2520072440602403e+00
      1.5380516008660070e+00 2.6797754453098976e-01
      1.6552736082116206e+00 1.4904878853410313e+00
      1.2277569568097388e+00 -1.6601558360754656e+00
      -9.4493694990001575e-01 -1.3390755926709013e+00
      1.6548223029433300e+00 -1.7060400966523608e+00
      -6.5552767723582261e-01 -2.2158418645349269e+00
      -2.9465989924823015e+00 1.3650893487366738e+00
      1.0500949070531065e+00 -6.1724593086283519e-01
      1.4137421488675104e+00 -1.4722007197145406e+00
      3.4438474783267430e+00 -1.3941748865527170e+00
      1.2485656385080879e-01 1.9203621728881251e+00
      -2.4495505936662658e+00 -1.4602840080184290e-01
      -7.1891569416228918e-01 -1.6184839222875076e+00
      -1.3015995998512937e+00 -1.5107250561487788e+00
      5.8016031182174055e-01 2.1229220885420208e+00
      6.9088338246379799e-01 2.2933746856867261e+00
      5.5305414280225285e-01 -2.0498598269136679e+00
      -6.6521919790538220e-01 -5.4748099354665591e-01
      1.3368828950796430e+00 -1.8595056203834290e-01
      -1.6744342849188587e+00 -1.1268902773077163e+00
      2.7119232851039268e+00 8.4453308272496996e-01
      1.7834670759400317e-01 -6.2126089793752770e-01
      6.2504372969016053e-01 1.0745306724164677e-01
      1.7345126005703930e+00 2.7391947227834459e+00
      2.2793105983095657e-01 1.8191115249669429e+00
      -6.5327432889315654e-02 8.1890585352912337e-01
      1.4681839186046366e+00 1.1232479063253664e+00
      1.7990138942360951e+00 5.1809324251259559e-01
      1.9389495668447889e+00 5.3317683647852820e-01
      2.3119514693083527e+00 2.8585311602254027e-01
      -1.5971229829276814e+00 -1.2169401100615015e-01
      -1.1034249154635680e+00 -1.8441904852718471e-01
      -1.8150493104977130e+00 -9.0554918407638174e-01
      1.2334540354024570e+00 6.6479592092994488e-01
      -4.0190405765871740e-02 2.2110551338413262e-01
      1.0920155351187304e+00 -1.8728206146028487e-01
      -1.1160725293759937e+00 9.1709709732351574e-01
      -2.0130272448726978e+00 1.1196393769846356e+00
      -1.5944433564918403e-01 1.6305167773941314e+00
      1.6047112511665558e+00 1.0217544070458640e-01
      -1.3312002469171504e+00 5.3889564771556986e-01
      -3.4977587662909310e-01 -6.3849827822031202e-01
      9.3474992950652025e-01 -2.9420998683913653e+00
      1.4972985712524475e-01 -1.2953219949763741e+00
      -1.3875395245891722e+00 1.1873525154917290e+00
      2.1004802944231864e+00 6.2371293285142893e-01
      -9.3605115317959553e-01 -2.9506764558675491e+00
      -6.4126520011261845e-01 1.1447163886521041e+00
      5.3837499478795924e-02 -8.0310386074168216e-01
      -3.7095808349999815e-01 1.7915492086586648e+00
      2.1860112113297356e+00 9.7719662145260192e-02
      7.1907044704975864e-01 6.7624346260219403e-01
      -3.0537943527363998e-01 -6.3301434978701998e-01
      -8.9595522332172856e-02 5.1432450565592802e-01
      -2.9942645905994952e-01 7.5348568850069231e-01
      1.6504893369065761e+00 -2.3235049960502993e-01
      1.7425698238546474e+00 -1.9915173194454372e+00
      2.5632808178952177e-01 1.4181252856757185e+00
      1.0374734643067540e+00 9.2182309654466388e-01
      2.9799818384221122e-01 2.2448071981565518e+00
      -1.9237680997931936e-01 -8.9501056245096555e-01
      -9.9544875196713578e-01 2.2464369992508071e+00
      -5.3759026192542490e-02 -1.4772751478294958e-02
      2.6209867490519394e+00 -4.5687541715341756e-02
      6.4128829295204615e-01 1.3355025535014148e-01
      6.0987107760273429e-01 2.5275628479831311e-02
      4.9675334650854708e-01 1.1849874517073657e+00
      4.8094977185281107e-01 -1.3053968076084659e+00
      4.3228573848140037e-02 7.6661171324451594e-01
      -8.3309499825995303e-01 -1.3852222855243672e+00
      2.2961884809850015e+00 1.7059744272939406e+00
      3.9466211273942836e-01 2.5186726100780765e+00
      -1.1974332177866489e+00 -1.0653356931166766e+00
      -2.3697264202457617e+00 -5.3492619261501861e-01
      -1.9953030467089417e-01 1.8369335597267096e+00
      -2.7055442983103051e-01 -5.3958726212461816e-01
      -5.0751118096570658e-01 -5.4088052779826257e-01
      -1.2843547676395908e-01 -3.3993866834874675e-01
      4.1488749693099347e-01 -8.9611618792692238e-01
      6.9874482165266938e-01 -1.1302747771791128e+00
      3.0687057570868348e-01 1.1644391999073427e+00
      9.1495278158057880e-01 7.7838395083889578e-01
      1.5066522709476491e+00 2.2135308396330575e-01
      3.4599085699000109e-01 -2.5694146177016225e-01
      -1.5028435856891982e+00 -1.3635284958861273e+00
      1.0418444407153222e+00 8.1286511995933097e-01
      1.1928862453525173e+00 1.2166134604886376e+00
      4.4560236529291514e-01 -3.6801264955108021e-01
      4.3751096193168837e-01 7.9968117354156276e-01
      -4.0600785179841842e-01 -1.2677023858872958e+00
      -2.8125615794355424e-01 -1.2354368230589302e-01
      1.1640650173315599e+00 2.4373257359541078e-01
      2.1164902258480556e+00 -8.8957207985957221e-01
      2.1948711672152510e+00 4.7999026556349084e-01
      8.1027740123958261e-02 2.3116162728434006e-01
      -9.9004251822834111e-01 4.9213560166114279e-01
      2.9515764528116990e+00 -6.0888870335229661e-01
      -9.2718390892115909e-01 1.1848389833471984e+00
      -2.2756487934582945e-01 3.7205830788583522e-01
      -1.3937825662003236e-01 9.1533856606181629e-01
      2.0067389832042899e+00 4.7864024831553442e-01
      2.7834145564626267e-01 4.7769028506826500e-01
      -1.6404648517873595e+00 9.5811019479886100e-02
      9.4051667472821598e-01 1.8554159611626007e+00
      -6.0305530145971731e-01 4.9989814976555919e-01
      -1.9126532880391696e+00 1.7651353112162000e+00
      -1.2760726376868543e+00 2.1981698826082061e+00
      -2.2294272079224506e+00 6.8772485767322600e-01
      -8.4840445366173534e-01 -1.0585392369236220e+00
      4.1744622220129968e-01 6.5471357166147448e-01
      8.5758799469368274e-01 -2.0788669971763449e-01
      5.3372736956435696e-01 -7.0424632265840448e-02
      4.4034539603822920e-02 -7.0658180104229484e-01
      1.2282771041363114e-01 -1.8066293929576819e-02
      -1.9921531134065443e-01 -1.1133643852355573e+00
      -9.6376789608157376e-01 6.7185404227676759e-01
      4.0244253231445010e-01 3.6232869713121713e-01
      1.1241642169748305e+00 -1.2977535427638465e-01
      3.8264894619881767e-01 -1.0977378809306391e-01
      -7.6672966856653724e-01 7.2164140913716410e-02
      -2.7071575182487012e-01 7.3987337345960869e-01
      -5.3459084184280081e-01 1.6379570301156927e+00
      9.1669679349030075e-01 -3.4620321702838108e-01
      -1.2910605140651760e-01 -1.5574292349605510e+00
      -7.7503450224281034e-01 -1.1542981028182802e+00
      1.2374477250852201e+00 1.7746193831853048e+00
      -8.1256227119472446e-01 -6.7313367851634331e-01
      3.4113386416089220e-01 -2.7563087378847057e-01
      9.3742100642997572e-01 1.0109679884030229e+00
      8.0934964192418635e-01 3.6535333684355888e-02
      -8.5596390816360646e-01 1.7800960228091236e+00
      1.4615975070758556e+00 -3.9723856578362510e-01
      -1.8038697463419279e-01 2.0112593617798362e+00
      -1.5295563546317562e-01 -7.8929658685757076e-01
      1.7307548158524231e+00 1.1494529397833002e+00
      6.0338087468933421e-01 2.3287795401059207e-02
      4.2945856070226374e-01 -3.3745004793552352e-01
      -8.0080066230250047e-01 -6.0306479319414441e-01
      -6.9727405106280960e-01 3.7709216423879971e-01
      -4.0760561483927382e-01 1.0198821873043128e-02
      4.9354519115500167e-01 -3.0214423928632894e-01
      3.4509025500043788e-01 1.1985116473804769e+00
      -8.6549415210848402e-01 8.9423365523361098e-01
      1.2769157051886943e+00 -3.8838237207208920e-01
      -1.0224070922253572e+00 -5.3174589568820285e-01
      7.5633877792994120e-01 4.2454172306584222e-02
      -7.2027754594032412e-01 1.0485188134019447e+00
      8.3066198684403569e-02 -6.7219119787498416e-01
      -1.8063051649280182e-01 3.1633647291733547e-01
      4.9003961960096015e-01 -4.9634592955044948e-01
      1.1413736802738794e+00 -2.1325988503633182e+00
      1.0640259212112864e+00 5.0950285933270667e-01
      1.1427191018949909e+00 1.3745742439220043e-01
      6.9647518570436107e-01 5.3399491132067557e-03
      -4.5086468399075424e-01 7.6491258896661118e-01
      -1.2947365963548771e+00 2.2302327214115261e-01
      2.1537224890201781e-01 2.1175042444049691e-01
      -1.1350357628686583e+00 -1.4881264782767716e+00
      1.0428152674982385e+00 -4.6678817035459169e-01
      -4.8661222284488637e-01 -4.6782158975007110e-01
      -6.3431764916900291e-01 2.6389204679707651e-01
      4.4285244956265063e-01 9.8744850296252773e-01
      7.3847087067012734e-02 8.5281201878916038e-02
      4.9795675143990697e-01 2.6353708490276678e-01
      -2.4915491477501536e-01 4.4343189594237964e-01
      -8.3876531702691215e-01 1.8419806478207448e+00
      -5.9846875211588291e-01 1.1773839613052148e+00
      4.5564347695931073e-01 1.4072976738188618e+00
      1.1230620767257127e+00 -2.4138946861499386e-01
      4.7406721383979195e-01 -9.0504050369471800e-01
      -7.9191330352973668e-02 3.3752743318222950e-01
      -9.9717952732909521e-01 8.1682851009317847e-01
      -5.1820617635598387e-01 3.3093744576705962e-03
      -6.7892243637779204e-01 8.3447756768070058e-01
      4.7918183578225326e-01 -4.5043246726280128e-01
      5.5038853933239129e-01 -1.7073295321390838e-01
      7.4836691526524125e-03 -6.2021144445537135e-01
      -1.3431618426315088e+00 2.9231545892540373e-01
      -4.6426646828227802e-01 1.4665624592908593e+00
      -3.9838297488352568e-02 2.4128393367916964e-01
      3.3668456365823707e-01 -7.9009575828778777e-01
      -1.2864137862699649e+00 1.9868656105230187e+00
      -8.0705239852548383e-01 -1.0058018571980702e+00
      3.2512379414524499e-02 5.3697777936715896e-01
      8.7145971807672362e-01 1.6656704229695599e-01
      7.2368135509668596e-01 5.6738924411165825e-01
      -2.0403283517132684e-01 2.0393692356176976e-01
      7.9137570651951539e-01 1.6891597319917198e-01
      4.1047718149154722e-01 -2.7776998813091741e-01
      -6.8679577231395528e-01 8.0636269762112667e-01
      -1.6628283633669158e-01 -9.8629879465905762e-02
      -7.3561745937162537e-01 -2.3054552442759171e-01
      1.6095443128139100e+00 -5.4773562350195515e-01
      2.9436970267512724e-02 5.6738188648220478e-01
      -5.6457236296989684e-02 1.5150610963963518e+00
      1.1983170082651660e-01 3.7442420592155595e-01
      -2.7678405343256180e-02 1.7230704599732027e+00
      -7.9353053476992341e-01 3.4825338292550506e-01
      1.8034620677213171e+00 -2.4052034689779569e-01
      -4.4565908330275394e-01 -5.3445031466665793e-01
      -1.8857955939997975e-01 1.8526994984566922e+00
      1.1112789573593013e-01 4.7987763059549285e-02
      1.3833148943616366e-01 1.8608414836968608e+00
      -3.5073704726288119e-01 1.0436547256675748e+00
      -7.4201190335272493e-01 1.5573138929724852e+00
      9.4693216875947805e-01 3.2022284114692556e-01
      -2.3661326548075089e-02 -8.3971907456624983e-01
      -3.5090550987345998e-01 5.1585914538201987e-02
      3.8956413068062923e-01 -1.4538878749807779e-01
      3.6566110643888516e-01 1.8702501550784278e-01
      7.4255613778494411e-01 -7.3459779687133964e-01
      -8.9582189848926810e-02 6.6338509971455614e-02
      -2.3208219649620984e-01 -2.2089583898134424e-01
      1.8507288132018815e-01 -1.8630452253879945e-01
      1.9985749211201034e-01 8.9977799212528783e-02
      -2.6366191584516097e-01 -7.8493309345653139e-01
      -1.3764411864501003e+00 2.4718817877833835e-01
      -4.4829355134283966e-01 -3.1763752759194036e-01
      6.9196385040921515e-01 6.0822287152911891e-01
      -1.1746643892996367e+00 1.4159923208734609e-01
      -2.0227309001587854e-01 7.6425192794782701e-02
      -7.8453386329115693e-01 1.0515280958845883e+00
      5.0058229449179925e-01 3.8189553414989280e-02
      1.0436030228521733e+00 2.5962790059705876e-01
      3.8327107544684763e-01 2.3439964185405640e-01
      -5.1765153146140397e-01 7.9158094970662077e-02
      4.8173595758466570e-01 -9.9053154687823730e-01
      -6.2462914929291702e-01 -7.0628143960658785e-01
      5.2803077893288208e-01 1.0699624457920278e+00
      7.3860026024958159e-01 1.8813247411735534e-01
      -1.0134567119527662e+00 1.6138689236606782e+00
      3.0267268435401985e-02 -8.9220978943459850e-01
      1.2375120170985827e-01 2.4826155028817951e-01
      -6.3684358793624096e-01 -5.1698705765713227e-01
      7.6513158767734346e-01 3.5919470727960390e-01
      -5.0926819183581207e-01 1.2188320946342677e+00
      6.0703892527794345e-01 -2.2080795641292275e+00
      1.0936993193398381e+00 -1.2900290098709113e-01
      -3.5465712606933020e-01 5.0108065348536110e-02
      9.9406627499532690e-02 -7.6307101522721277e-01
      -4.3429306129761736e-01 4.0081399333716489e-01
      3.5266280461360139e-01 9.3313281023156136e-01
      -1.4917985145305060e-01 1.1901063039377029e+00
      5.2032789795427170e-01 4.6239126678081982e-01
      5.2376408806876096e-01 -6.0308570875215783e-01
      6.9932922970684486e-01 -6.5359732099518841e-01
      5.5809133427012225e-01 -6.7139740263626990e-01
      9.9030714603762537e-01 -2.0989305406589326e-01
      6.0701095345560485e-01 -2.6339861987817564e-01
      -3.5007804022910599e-01 7.8136091420573858e-02
      -5.1897583111403400e-01 -7.9358612895318414e-01
      9.6786696652954352e-01 3.3473466810638774e-01
      -4.3914015019606312e-01 -1.6198448953323652e+00
      1.5483997317837983e-01 -2.6870801899149749e-01
      2.1845529705341873e-01 7.9111107276458603e-01
      7.5305729905474139e-01 8.1331783104852906e-01
      -5.2452305049789028e-01 1.1307300152788949e-01
      1.6015530351900373e-01 4.9038377816971951e-01
      6.8373729239473560e-02 4.2749575429957104e-01
      -5.9757920102635406e-03 -8.0504654198832093e-01
      -1.5514408366115071e-01 -2.0942608413165723e-01
      6.8637624865305402e-01 -2.3695542346875870e-01
      3.0158180649127286e-01 -2.6043873885582991e-01
      3.6566681281721541e-01 -1.0295977727869710e+00
      5.1502681289548609e-02 4.7741962978151165e-01
      -2.4065575392013763e-01 -5.6815767706805276e-01
      -4.9310106059791264e-01 -6.1480258826756584e-01
      1.7168322671474106e+00 5.3386932280488553e-01
      2.8116987213079025e-01 -8.1267139774141128e-01
      1.5347539308876352e+00 1.0907292880603169e-01
      -1.4491793295996791e+00 4.4191307546390607e-01
      9.0220381449346232e-01 -1.2668758060665508e+00
      9.7054069641569807e-01 -2.0241371114976409e-01
      1.8002434782239951e+00 -9.2247115020691173e-01
      -5.2966413243274402e-01 -1.0329003835754436e+00
      -2.9483954558514987e-02 -1.5271747385164694e-01
      9.8393987497191215e-01 4.4319402748415027e-01
      -3.6094947790173931e-01 3.7910991396540727e-01
      -5.6755442919157732e-02 8.2571858507544027e-01
      5.3047679125079839e-01 -6.4095869187739674e-01
      -6.8584910840529034e-01 -6.7621900592594686e-01
      4.4290455605604911e-01 -2.0034294359973046e-02
      1.0340712115120387e-01 6.0519545941612440e-01
      -5.5068020329154177e-01 6.2444389987242210e-01
      3.0351794418718137e-01 -6.4332741528208415e-01
      -1.1205847131786620e-01 1.5339410371174467e-01
      -4.7385459393938145e-01 -2.0513028089110760e-02
      3.8848210852065868e-01 -6.2924694612468601e-01
      1.8421379348185060e-01 5.9920639882213045e-01
      2.9476410873667935e-01 -1.4983479164965494e+00
      9.7283136870311837e-01 1.0942521271566206e+00
      8.1576472712162262e-01 3.3622694653886787e-01
      -4.4311454275265993e-01 -3.3014111852940217e-02
      1.1413827684501938e+00 8.5647534729893490e-02
      2.3656064478357905e-01 3.5188531390382738e-01
      -6.5529593969661004e-01 3.6923166985199485e-01
      -2.2613114848987823e-01 -1.8436757137228474e-01
      2.0925285012190822e-01 -8.8724478721111688e-01
      1.6411337761038108e-01 5.4273516899312602e-01
      -6.7905301481865588e-01 8.7183662518068639e-01
      1.7691734175107887e+00 1.3621430926397662e+00
      -5.7810271642900168e-01 6.9404812839753457e-02
      2.6723337952843412e-01 -1.4067745736431085e+00
      2.0276895061848538e-01 -4.1926540008671959e-01
      4.5968833899805656e-01 3.9812045937666074e-01
      -2.2004998854404052e+00 -7.5263907657297235e-02
      -1.7418867166780991e-01 -5.0299045787877739e-01
      1.7324056667260042e+00 5.6877643342275253e-01
      2.2876206811507668e-01 4.6153831577621796e-01
      7.9642352230963409e-01 2.8685211181763548e-01
      -6.1182813500746433e-02 -6.1702158232977822e-01
      2.5393761577826579e-01 7.5288227923556317e-01
      -2.5784544226198070e-01 1.1560163865556787e+00
      -2.1048973940932064e-01 1.5721415875480034e+00
      1.7753152550721014e+00 5.9497149416266204e-01
      3.4182414574480163e-01 -1.2026536009354173e-01
      1.4767897880823087e+00 1.2655771102517672e+00
      -1.1674069044097721e-01 6.0447176920286549e-01
      2.4171886851721239e-02 -5.8357660958697177e-01
      -1.1172094544831976e+00 -5.9043204267160798e-01
      -3.4506631796127879e-01 -1.9503493113893128e-01
      -3.4692856577313874e-01 -5.1009789354154167e-01
      5.8627132766584955e-01 -3.5430211854908811e-01
      6.1414584956898788e-01 3.2294738907061299e-01
      -8.0696232615078845e-03 -5.0437316187293102e-01
      -1.7321127265879710e-01 1.5133910957792432e-01
      3.3589458778032155e-01 9.2994460880760660e-02
      6.0961817649480976e-01 5.0310088264201747e-02
      9.8900386301702406e-02 1.4658757738035527e-01
      -8.0630684189553858e-01 7.5742087682777320e-02
      -9.9001087548012554e-02 1.9239890751500816e-02
      -9.0893591561519960e-01 2.3145502350000155e-01
      6.0647863442732064e-01 -3.3798661866783525e-01
      7.5846551171469689e-01 2.7829799467512251e-01
      -3.1605100810429521e-01 6.1088135187144732e-01
      -2.4392507069685054e-01 1.1876261596859981e+00
      -2.0624789723566761e-01 -6.8854326498419338e-01
      1.9912426050156287e-01 -1.3139320566576955e+00
      6.0886220800487789e-01 -5.2988314558662963e-01
      -1.2292280056282594e+00 -3.6720360808930930e-01
      -1.2648853925645180e+00 1.1097718143037331e-01
      -1.5407169744635066e-01 -3.9684932901501663e-01
      3.0457980560283354e-01 1.0729020006937611e+00
      1.0229445006664744e+00 -3.7354673844705372e-01
      9.0248712948996812e-01 7.1614965227446303e-01
      3.2068433228972526e-01 6.5760168930320342e-02
      -1.8018503975931904e-01 -2.8739697049315927e-01
      2.0596627189190697e-01 9.4469065452453238e-01
      9.7296507891228845e-01 5.3697490332837317e-01
      8.4036225193394001e-02 -4.8721894597349408e-01
      2.4535067215987087e-02 6.5466562519620253e-01
      1.0988109172855174e+00 1.4172779179778365e+00
      4.4072145553636777e-01 -5.3071538742960618e-02
      2.1868880077860348e-01 5.6285738227457000e-02
      -6.3239620006889774e-01 -3.7388460944598123e-01
      -5.7806777851945357e-01 6.9532097917049352e-03
      7.2234087143812120e-01 -1.1228865137879382e+00
      9.0298572980538883e-01 -8.6639840422806133e-02
      2.6723770671385783e-01 -8.0602643514407224e-01
      -2.3331313765032313e-01 3.5059862736695435e-01
      1.2662655927106063e+00 -7.1313265320734642e-01
      1.0888261913465801e-01 -5.1455316859007783e-01
      2.0441193882372288e+00 1.4602577287755739e-01
      -9.4526022861172310e-01 1.9708685590522207e-01
      9.6931699463880350e-01 3.7359206098652412e-02
      -9.0391689179691193e-01 9.6973437149753303e-02
      -5.8450414497362280e-01 8.2347045023203014e-01
      9.3168545684096971e-01 -3.5326129093621567e-01
      2.5475493393785319e-02 9.5968510080929575e-02
      -6.8010658332777441e-01 2.5019530185312627e-01
      8.1900475477736623e-01 6.9632332981214878e-02
      1.0709017793658957e-02 -7.4408530135459938e-01
      -2.9008762700784496e-01 -9.0713449829693760e-01
      1.8962700912268601e-01 -3.4456691133514072e-01
      1.5875679115872932e-01 -3.2313765752743706e-01
      4.7858864045903660e-01 -1.9360128108389407e-01
      -6.8789325132951340e-01 1.2904502270401999e-01
      -6.8205985948957271e-01 -5.0199536656876032e-01
      1.1600852870160625e+00 -2.5360064615727551e-01
      -3.5484144911700355e-01 3.6766289203033536e-01
      5.1290270407078364e-01 3.2414652680319161e-01
      -9.4516320820068847e-02 5.0589457550812858e-02
      3.9129832005219212e-01 1.0402212825989206e-01
      3.5832768914339874e-01 5.8816660793835629e-01
      2.0295272556582711e-01 -7.3422111865229800e-01
      -2.1300886481393516e-01 1.0863421125819275e+00
      2.9910315878699217e-01 6.0015373740558464e-01
      5.4472314677507383e-01 3.1062739871981410e-01
      1.6320695045272487e-01 5.8006255275939012e-01
      -6.0500229362354829e-02 -1.8416588649825753e-02
      2.7135780351093014e-01 5.3312515589661202e-01
      -3.0769577958978733e-01 9.2818718844719161e-01
      6.8152329079833684e-01 -1.6139018900330351e-01
      -7.6175275429433198e-01 -1.1374969048289639e-01
      -2.0996286715841599e+00 -1.4415551217401079e-01
      -9.5178121421851808e-02 -3.4267470354378615e-01
      4.7729383721042556e-01 -3.3355398816070453e-01
      -1.9123912309410743e-01 6.0463842287360015e-01
      1.1247883498544797e+00 6.1380210041006189e-01
      1.2609564370863173e+00 -3.5523908890781358e-01
      -6.3254951549466665e-01 2.5563369414158432e-01
      -9.1537713344648421e-04 2.6328173647693082e-01
      4.1494247255899641e-01 -1.2456651664902814e-01
      2.3737535754092337e-01 -4.1644577946436656e-01
      -5.3522374152905805e-01 5.7578413780019688e-01
      8.2056138557264055e-02 -4.4655651044599759e-01
      -2.3743244525562496e-01 -8.3435684938725152e-01
      -6.9221873604962236e-02 2.4252584831158755e-01
      1.2306629743476076e-01 -6.1508730540802092e-01
      1.0281631042757609e+00 -4.8112144633794351e-01
      5.1683243324621420e-01 6.3258531751887148e-01
      1.1843345719947145e-02 -2.5944180735884698e-01
      -6.9745116191544698e-01 -3.3759297385680498e-01
      1.9576967206147808e-01 -5.0833089824032673e-01
      3.9474520732430712e-01 -5.8782464980875859e-01
      8.3602031256995024e-01 -2.8914509883157880e-01
      -7.0325076463184449e-02 -9.5210602639422370e-01
      7.0061688974505842e-01 -4.2316305844622470e-01
      1.4767177166740912e+00 1.0264963161192899e+00
      -6.2955341307270485e-01 4.8866516242350923e-02
      -5.2216728151534697e-01 7.8683414215618319e-01
      -3.3017403053314520e-02 4.0621777322632008e-01
      -8.5697042879998742e-02 8.7186797892889412e-01
      -2.7394602254289108e-01 -4.4411765596540048e-01
      1.0732649263537726e-01 -8.3263446774060001e-01
      2.5889820220770943e-01 7.1642243818986318e-02
      3.3943428629275030e-01 3.6943336036211966e-01
      7.7249194119907250e-01 1.5698857142683276e-01
      -4.7386013452483738e-01 -8.1287403427082716e-01
      3.0449605562559251e-01 7.6369730186500351e-01
      -7.9958200757768572e-01 2.8677136419161459e-01
      -5.3343759485085573e-01 -7.3232896025862548e-01
      -1.0965953327844742e+00 -1.9045276245471759e-01
      4.4145339246904258e-01 1.7816679328652571e-01
      1.0306300764041305e+00 -8.5582690255262675e-02
      -5.3309687554574314e-01 9.8333561242610140e-02
      6.0836636714655568e-01 3.4166210328896912e-01
      4.1411339071330122e-01 1.7528645257466122e-01
      1.0727565043368437e+00 -9.4657431738172171e-01
      -8.1086572501126164e-01 -3.0774430923018409e-01
      1.7047531470960251e+00 3.4176320680355701e-03
      -3.4564392371155617e-01 8.5520667359232097e-02
      -5.2579823924221702e-01 -2.3074679830230743e-01
      -1.2167149785539930e+00 -2.1069551072761447e-01
      9.0077617110765040e-01 -4.6877765964598272e-01
      2.5040182287292734e-01 -8.6888613246466551e-01
      -4.7629523868324747e-01 -4.5573499509747822e-01
      5.1133878811217104e-01 -3.3304018622615816e-01
      4.1291458729486535e-01 -1.2849615946063315e+00
      6.6549325496457437e-02 7.3162882100021132e-01
      6.8206897515229695e-02 -6.9711851748706177e-01
      2.8684224640536787e-01 1.0818552890570086e+00
      8.2172080172353210e-02 -5.0144431012210811e-01
      6.5275334688702363e-02 7.6614549711945057e-01
      6.2095569064010994e-02 -4.5815344074822145e-01
      -3.4042153776553685e-01 1.0507208412324498e+00
      1.1207204958114036e-02 6.5998717931600104e-01
      2.1891762272296664e-01 -5.4643940407000838e-02
      -4.7265274841627580e-01 3.9325102707008996e-01
      -2.5539682253785373e-01 1.4502954052132874e-01
      7.9242439538776271e-02 1.7870553401373926e-01
      -3.3620413830962009e-01 -7.4340687311869713e-02
      5.7813595337939706e-02 -4.6749574860943577e-01
      6.4187237945543707e-01 -3.7388518660489545e-01
      -4.2532370670989089e-01 5.3124722687684223e-01
      9.4503497222101429e-01 -1.0373794238761622e+00
      7.1602117981940661e-01 1.5066668191974400e-02
      -4.4154244925616054e-01 2.5693042322894333e-01
      1.9685632186038482e-01 1.0746598372195092e-01
      -3.1278285240674103e-01 -2.8106918525377933e-01
      2.1269891694568818e-01 3.2545534167909101e-01
      -1.3585969586748503e-01 1.3855157065772510e+00
      -2.5661540815151829e-01 -5.3592984678241440e-01
      5.6843762490013061e-01 -2.9721537740804349e-01
      1.9426942734601652e-01 -3.0631983767692123e-01
      -8.8414339022380339e-01 3.6223664594531352e-01
      -5.3100001679742137e-01 -8.2156670370326187e-02
      9.5670809271586355e-01 6.0427007527846044e-01
      -7.2123642816956079e-01 -1.1791028848033149e+00
      -5.4540490624869331e-01 1.9348587836078787e-01
      3.1635998884923161e-01 -4.5437236202108316e-01
      4.2564856495360653e-01 1.8255261558215513e-01
      1.7404498438872895e-01 -1.0592843364922357e+00
      -7.4960783502508588e-01 3.9435468488254355e-01
      1.9608847605681867e-01 2.9276718933528978e-01
      3.6759060160485774e-02 -4.1766112090225904e-01
      2.7268892895890562e-01 -1.0497366456921655e+00
      3.6278155074537577e-02 2.2556198860935606e-01
      4.4620085240523599e-01 -5.4742654932369850e-01
      3.7821227403187985e-01 -4.4376645974478185e-01
      -4.8140390040214248e-01 4.3831256370972715e-01
      -1.4992000967451994e-02 7.7893533059162778e-01
      3.4956982937466518e-03 4.6661871180877840e-01
      1.4844849050368860e-02 -8.6024702522607543e-01
      5.7243452893376089e-02 -1.6054109748271003e-01
      -5.3685312014234843e-01 4.6647975954831788e-01
      -5.3129291236650233e-01 1.1162670330370150e+00
      2.0595618019793580e-01 -7.4496331612595848e-02
      3.3415039966149129e-01 -5.8496960868462722e-01
      -5.2028580453985805e-02 2.9294281877186623e-01
      6.2313759965274473e-01 2.1744013789219493e-01
      -4.9153119760067010e-01 -5.2980120574378708e-01
      2.3940783169242311e-01 -1.9236952676929558e-01
      -9.5051047448644399e-02 5.1732853686216065e-02
      -1.8967876396477751e-01 3.8572933453772829e-01
      -1.4180666852342427e-01 4.0797888923836528e-01
      -8.7676309094267768e-01 2.3672239772511969e-01
      4.9704585278260643e-01 -2.0539846554032554e-01
      6.3834742703544900e-01 -1.1977459608830665e+00
      -1.0748399565804709e+00 5.1865413652357895e-01
      5.9269572747830457e-01 7.3196451933596218e-01
      1.7846817103709034e-01 -4.6403441614468671e-01
      -7.0380433222538741e-01 7.7699111883727789e-01
      -8.0848071180005432e-01 -2.6782349925084514e-01
      1.3463162252151735e+00 -2.3752553412635302e-01
      -7.4236248175884911e-01 8.1539961317587794e-03
      -1.4829946361847610e-01 -9.0668967292824265e-01
      4.8121167474478643e-02 -9.0934608193472877e-02
      -4.9471631643536162e-01 -8.8136580514358320e-01
      1.2574783032969755e-01 5.8237910406504978e-01
      1.0851042057100622e+00 -3.9513715303711026e-02
      -1.3923391785605319e-01 7.4236633143388053e-01
      6.2185348374390326e-01 -6.2593494853571541e-01
      9.2811237684784631e-01 5.4903637362094915e-02
      6.5549974209368811e-01 -3.5007913058520534e-01
      8.3306097259410217e-01 4.5176881446067751e-01
      8.2864235900007932e-01 5.7623586352771239e-01
      -1.4279131660736615e+00 3.7271006466283407e-01
      -6.4241768003534427e-01 6.0093149215803299e-01
      -1.8340823263802361e-01 -7.5381586288531505e-02
      3.7796723369524166e-01 2.2930620000095134e-01
      -4.7140986720916761e-01 1.1736841634227524e-02
      5.6335781427027110e-02 2.3522338881424124e-01
      3.3083215347060158e-01 1.9635392671494484e-01
      4.3643462110265652e-01 -2.3418026149880106e-01
      -2.7121233480277945e-01 7.1005495572697541e-01
      6.2651766987375304e-02 -3.8896835673079855e-01
      1.0254224131219893e+00 3.2550924409890092e-01
      3.0715868404552799e-01 1.1053672717669422e-01
      -4.5263872011317319e-01 -3.3432414510722423e-02
      -3.3948697616704265e-01 2.0299389723642267e-01
      -9.4172023052019238e-01 1.4215566262538057e-01
      -2.8954649961553586e-01 1.7028048149652530e-02
      -3.2853491372083328e-02 -1.9157916191332475e-01
      -1.5549378355054477e-01 5.4162478696178784e-01
      -7.6770070984425820e-01 2.6457270861790089e-01
      -3.5079193479684834e-01 -4.6341309203766284e-01
      -5.5651078852070579e-01 -6.0648648765210400e-01
      8.8008434465695756e-02 -4.3780775363972274e-01
      -4.9112453877947229e-02 -5.6561163941814163e-01
      -3.6467367811391560e-01 2.0570001886272499e-01
      2.5424327395958851e-01 -2.9248068865382798e-01
      -2.3329056947968430e-01 2.2389131409403617e-03
      -9.2779515599117290e-01 -1.0203032355461993e-01
      2.5078852012812247e-01 2.1586672904056706e-01
      8.1605937085511537e-01 -3.3100265836899873e-01
      2.5234177234136690e-01 3.4773527243171692e-01
      -3.0706742900059369e-01 -3.4674458953520093e-01
      4.4225087173964950e-01 1.9279268917724801e-01
      6.2010062774475450e-01 2.8094871058480329e-02
      -8.4736423950669729e-02 -2.3873150282299485e-02
      2.8993678368442044e-01 4.3072848213372356e-01
      4.9281755786889780e-01 2.3591991712214819e-01
      -2.2981128251559099e-01 -9.6470356076869357e-01
      -7.1165235646400127e-01 -5.2734608242414271e-02
      2.9213756372536892e-01 -1.9701968248497531e-01
      -6.6401981816852573e-01 2.6536939343601795e-01
      2.9341163871037351e-01 -8.3255037323894762e-02
      3.6301575100255890e-01 5.4606197398016521e-01
      -2.2284847899244767e-01 1.2303445301030815e+00
      4.4437298869980373e-02 3.1498600666849125e-01
      -4.6306181804400343e-01 -1.1242460767288323e-01
      4.7170234254552301e-01 4.9974040134548862e-02
      2.7849009920287021e-01 -1.6252159122991805e-01
      -5.4777642241880498e-01 7.9124231916284718e-03
      -3.8006998789411678e-01 2.6398715975946941e-02
      6.4481652472771420e-02 -1.2215946084520664e-01
      5.1782683593453582e-01 -2.4228339790501868e-01
      1.4983401484078598e-01 3.7450508294602014e-01
      1.9915530168689446e-01 -1.0138866778347497e+00
      3.2222483312182588e-02 -5.0060306321147729e-01
      -1.6805161552428655e-01 -8.5361045690192461e-01
      9.1847837117322251e-02 2.2296815823663241e-01
      -1.1061507027670388e+00 -2.1031123799403814e-01
      -1.7259793820571323e-01 1.2236822615790517e-01
      -5.2224765314752652e-01 -1.1766606875808381e-02
      -3.1677282702382431e-01 -5.0071929553026495e-01
      -1.1273536817036342e-01 -5.6951681928440812e-01
      5.3258021385321641e-01 -6.8305752297296007e-01
      6.7822836964090805e-02 3.2284238211959188e-01
      7.5961245559743804e-02 2.1541243826877701e-01
      -3.8693550173031765e-01 -3.1262801626846259e-01
      9.9147338872200397e-02 1.4555575338566318e-01
      1.8209578693881522e-02 1.1286582228382269e-01
      -1.5401186765904337e-01 -6.2356838078167387e-01
      -9.7017178026687925e-02 9.3504906029731161e-01
      5.1648698522762926e-01 -3.9813089331232104e-01
      9.1628974313524580e-01 3.5298856081914465e-02
      5.5705679055203607e-02 -2.6040849819076378e-01
      -2.0905842596496107e-02 -1.7177195567984452e-01
      -1.8227055914619994e-01 6.0507621384740640e-01
      -5.9882577668459835e-01 7.3339837056998713e-01
      3.2930949792336822e-01 -5.5784629397562770e-02
      -2.5542119806817204e-01 1.9256979222865356e-01
      -6.1445492413888403e-01 4.7186547750559854e-01
      1.2326166242980900e-01 1.7456844888232151e-01
      -4.0844791566412457e-02 6.0819314946612593e-02
      3.1692333171500509e-01 -5.0993273385629832e-02
      1.2995686416737010e-01 -8.3033983136738015e-02
      -7.9828886043127234e-01 2.8771891415289874e-01
      -8.1223719499726876e-01 1.1992948702681688e-01
      3.8527861555484183e-01 -7.7901442798775633e-01
      8.2002874877571663e-01 -7.4335966123873803e-02
      5.6868202549748659e-01 2.3972060411115742e-01
      -1.7566415393532173e-01 4.4929424536546086e-01
      1.3074053735237356e+00 -5.3062964537933144e-01
      -1.7818408564099118e-03 -5.4994230853983073e-01
      3.4551279551897152e-01 3.5211632291981260e-01
      -7.1963690292159521e-01 -1.6683890564104348e-01
      -4.2238493163607865e-01 -5.6160030084139345e-01
      2.0824440417357856e-02 -6.5069091702546378e-01
      -7.8543842595057056e-01 -1.8793666076313320e-01
      -3.8943629158707060e-01 -4.0065446895224347e-03
      1.1270580526999109e-01 -7.6555966614790094e-01
      -6.8662549248994231e-02 4.4084510727602766e-01
      2.7131611967043517e-01 2.7027724985272095e-01
      -9.5476164224770854e-01 1.5798017080085644e-01
      3.3107673206017235e-01 -6.3726818937303017e-02
      9.2476491976198416e-01 8.5267881620223562e-01
      6.9079669180117642e-01 -3.0822188743745987e-01
      1.1725875226881597e-02 -1.6025621253688252e-03
      4.0708631588842081e-01 -5.4678407852106781e-01
      2.1342484023692468e-01 1.8084883591725465e-01
      -2.2073647263600976e-01 1.8415793489386520e-01
      1.8176554091948349e-01 4.9052000840350052e-02
      2.2862775040238353e-01 2.2832576259495835e-01
      -1.0182306038794025e+00 3.8706538791463097e-01
      2.7563466545872772e-01 2.7131888058003228e-01
      4.8131334225143396e-01 -2.3843947586916314e-01
      -3.6648188105591234e-01 8.0111271534114992e-01
      8.6152794632860449e-03 -4.8889574204500091e-01
      -3.0880316507438405e-01 -2.1503960875454106e-01
      -3.5917071476154988e-01 -5.1536105935929921e-01
      2.7293006582436197e-01 -5.0988274753884850e-02
      -1.0246121482145272e+00 -3.4046548671689841e-01
      5.3507582194184777e-01 2.0635238511920995e-02
      3.6314377511008050e-01 -2.0649446529002460e-01
      -1.6822780804434403e-01 2.8386715991992797e-02
      6.8977170378779054e-02 -3.4326327774277902e-02
      1.4463082642282321e-01 4.7891415986432123e-01
      7.9066455792621532e-02 1.7611580069329061e-01
      2.8649268682761919e-01 -4.7980070326245289e-01
      2.0503150590282468e-01 2.2546383647745394e-01
      -4.4680752540931745e-01 5.0767680111207214e-01
      -3.7018698569678765e-01 2.3710197553920470e-01
      3.7754213190860936e-01 -3.0482550000074593e-01
      -9.0443146995727031e-01 4.2856088770454305e-02
      -2.8906467393970486e-02 5.1116293752535846e-01
      9.8819288188284476e-02 -2.6942333640901672e-01
      -2.4542603640476311e-02 1.2561189706116849e-01
      4.4075445374686950e-01 1.4098842741566073e-01
      -2.4515790363951598e-01 3.9391920336901165e-01
      -2.3912866870734148e-01 -2.8720928956883751e-01
      -2.2122731457872866e-01 -4.7587191058084893e-01
      -1.1239182845694357e-01 -3.4229911666991458e-01
      -7.8480023864289805e-01 -1.9857781148649181e-01
      -2.0881688526692102e-01 -7.5252778527155706e-01
      1.8022431473324288e-01 -1.6903515255973392e-01
      1.5401526039617988e-01 -8.4981178600842677e-01
      -4.5813933483939678e-01 1.0907841744918699e-01
      -3.2815365815778125e-01 1.7602643497088943e-01
      -8.8930163468511236e-02 1.3294888719583595e+00
      4.5447294554031975e-01 1.5307131573269306e-01
      1.2257411946422885e-01 3.0147689704550296e-01
      7.6321505755656538e-01 4.0062726922887421e-01
      7.0659616638756240e-01 1.5289011017709253e-01
      -1.9822984848995229e-01 -1.2745108261560131e-01
      6.8457954857327008e-01 -4.0100364902568369e-01
      -5.6536646673476709e-01 -3.3113876710850199e-01
      2.0572583086509047e-01 -7.0740860758014876e-02
      -1.9365347157728788e-01 -1.5571848006819466e-01
      7.6885575168833542e-01 -4.3762190356662239e-01
      -6.2480688921031757e-02 -3.5317695498258789e-01
      5.1841586215399027e-01 -3.6555661732448164e-01
      -1.5985471095899662e-01 5.5387111924376209e-01
      -4.8708293468565955e-01 -2.0792473796909802e-01
      -4.1069861619550352e-01 2.9399626046186628e-01
      -4.9919205397479088e-01 2.2152367998996139e-01
      4.1791860019547172e-01 -2.1200567687791944e-01
      4.4384424077316870e-01 -2.6734448892946727e-01
      3.0436712705072255e-01 -5.8425219328410227e-01
      1.1456701899782293e+00 2.5419849378704118e-01
      -6.6998238864002316e-02 -7.9248802181695943e-01
      -5.0822154958998589e-01 -3.5427909243869637e-01
      -1.0887538534394228e-01 2.2426785146006897e-01
      9.1590336951527740e-01 2.3962708450654313e-01
      -9.3146817496100986e-01 -4.3212849251095212e-02
      1.4896379302953611e-01 5.7184078626719460e-02
      5.5840782210752238e-01 -1.2013365844928785e+00
      5.3518773533331820e-01 -6.3810871454155080e-02
      -9.4038145562936076e-02 2.6274543331373112e-01
      1.1569329956956767e-02 -7.4168431096078358e-01
      1.2983528290549609e-01 -1.5730562914406063e-01
      -8.6195987255618467e-01 5.8653533332468688e-01
      -6.5367134950418337e-01 -3.6823340851236069e-01
      -1.6455255911146338e-01 8.0044637943203725e-02
      -1.8796181733244521e-01 6.6390964780457473e-01
      9.5082974718560406e-02 -4.4764084618418166e-02
      -4.9139641774138521e-01 -3.4948962618334889e-01
      8.7031197753866296e-01 7.3003820505089623e-01
      -1.9272340500729138e-01 -2.2417659278671917e-01
      -4.4524115985549584e-01 2.4807364247792987e-01
      7.1673020467556336e-01 -3.3981799813657348e-01
      -1.0356396135236590e-01 -4.4190131724275261e-01
      5.8959247212989718e-01 -2.4043777502629898e-01
      -3.4963829091576887e-01 2.4942497592780963e-01
      2.5781272537305372e-01 -9.7642166039411712e-02
      -1.6352824964122933e-02 -1.3532855250577371e-02
      1.0411385783676484e-01 -1.3363261443756907e-01
      3.2408979637345481e-01 -2.7276175201226316e-01
      -5.5298606394667618e-02 2.9674691777991291e-01
      -2.4610296906927248e-01 3.9988851310831691e-01
      5.2974506975611213e-01 3.6461438831638915e-01
      -5.4366213275471711e-02 8.2434193854469262e-03
      7.1723572926387635e-01 -1.7101664047880244e-01
      3.2915948055225863e-01 -5.0249127567549612e-01
      -9.6556673089848791e-02 -5.4696873817744851e-01
      1.1629636604045522e-01 -5.0563149851671915e-02
      6.2873004116708109e-01 5.6872815293448176e-01
      -5.0616652388450833e-01 7.9000279226042447e-01
      2.3103778908856884e-01 3.4196475083890149e-01
      -2.6027098665031967e-01 -3.8890025681748058e-01
      -4.0881158135876000e-01 -4.9866654358005075e-01
      -1.2139533494101300e-03 -6.1149426620480329e-01
      9.6174311183446137e-01 -6.5077980764629067e-03
      -2.4508360643237692e-01 1.0361348512618465e+00
      -3.5098640075936216e-01 -9.3537982002072717e-01
      1.4916591354592654e-01 -1.5502641823380095e-01
      -7.0962607135691380e-01 -2.6073961811338842e-01
      -6.7297394024158952e-01 2.1374120296946733e-01
      -3.1292320523007777e-01 1.6511808688109245e-01
      3.3890970534634751e-01 3.3919589477696316e-01
      -2.7983334037432672e-01 6.8793087055780011e-01
      1.7453768576650483e-01 8.5287735238565462e-02
      -4.7663562344070282e-01 3.8254972302812279e-01
      -1.3629438255056325e-01 9.7269801124222943e-01
      -6.8418832253997086e-01 1.7335839468854292e-01
      3.5885792028921143e-01 2.1471966061184383e-01
      -6.7780976210388255e-02 -2.8871173249269039e-01
      4.4911942778953756e-01 -6.3898194168570703e-03
      -6.7462719620699396e-01 8.9018173016526481e-02
      6.5353535260931853e-03 -1.0082252000125551e+00
      2.4528070663459448e-01 -5.0187552634194388e-02
      3.5421574500960690e-01 -2.3096554964911228e-01
      9.1595226431325852e-02 -5.4154538371837602e-01
      4.9978050877201552e-01 8.3867850870502414e-01
      -3.7175464764066096e-01 -8.9155826360474213e-02
      -7.9387128711379029e-01 5.2669691901417071e-01
      -1.8884762931575477e-01 -3.7535777883552807e-01
      2.6698581733947985e-01 -1.5886426284679009e-01
      4.5146175663259486e-01 4.5280868834163622e-02
      6.9794219691879422e-01 -7.3014655637465753e-01
      1.4362030775151927e-01 -2.6207044498199158e-02
      -2.6571253476087564e-01 -1.7761508507016135e-01
      1.8690624822397855e-01 1.2125500627992223e+00
      1.0821955155934448e-01 9.0432512752687266e-02
      1.2394547519080489e-01 2.5399436428277683e-01
      -2.8309299849418768e-01 -9.7454536357467675e-02
      1.7865918150845733e-01 -4.0203647391280767e-01
      9.6194519787202948e-01 -2.5881574196542084e-01
      1.0908623886094672e-01 -2.2557293855914276e-02
      -3.1607854153940829e-01 -1.0308858212160150e+00
      -1.2384611525927697e-01 -5.4075447523924325e-01
      -1.8217245799322773e-01 -4.5549183880208249e-01
      -4.4325105132658443e-02 1.6907097206820537e-01
      1.7453652678965764e-01 9.0946522924019196e-02
      3.2254779882410031e-02 -4.9332447725865336e-01
      2.1365404680047415e-01 -4.9090075399586902e-02
      2.7237102016528375e-01 3.5815930833396320e-01
      4.1695099662012469e-01 1.8290435727660007e-01
      -4.5834980538259951e-01 1.1405157025465440e+00
      5.1619242437906332e-02 -1.5375154025947149e-01
      9.1871160729229018e-01 -1.4196981019797320e-01
      1.5256922632593574e-02 -1.5616388594328076e-01
      -2.0669785563191637e-01 -4.2255385034770160e-01
      -6.3161580278390794e-01 -1.8621831960601125e-02
      4.4731661756916696e-01 -4.9590410526717438e-01
      1.0033180938257105e-02 -8.8190654350292622e-02
      -2.1155789621007800e-03 -8.9774178666586421e-02
      3.3925275623851486e-01 -2.0567330871051842e-01
      4.1270777881357738e-02 4.0636029126128792e-01
      -3.0284620734181111e-01 1.9398226498663612e-01
      2.0045696711357161e-01 5.1389192974089060e-01
      -7.0951330049367656e-01 -1.3169653681574175e-01
      -6.4603818164555804e-01 3.6130289229550423e-02
      -4.7763744037653072e-01 -2.0930654519483814e-02
      -4.3330939192618134e-01 9.2311485545253769e-01
      3.1018558024922743e-01 3.9917349010380798e-01
      5.5518186422357929e-01 1.0940449465021622e-01
      3.3143719722847964e-02 5.6332613992419989e-01
      -9.3452357970065431e-02 2.6562113450981273e-01
      4.4671597250205558e-02 4.9241524215236199e-01
      -2.6985087075834585e-01 -5.3108278985492730e-01
      3.2069203307146954e-01 -2.1559684331612036e-01
      -2.2068481709999860e-01 -3.3690041175192587e-01
      -5.5999402083698080e-01 4.5283641904828908e-01
      2.3737721700168138e-01 -7.9059308379573356e-01
      1.3671579820798591e-01 -3.2610084245936027e-01
      -2.7270770142487250e-01 1.1741066399209239e-01
      -4.3164440491808487e-01 -3.3615363001215992e-01
      6.9659816183406637e-02 3.8045871587016439e-01
      2.9773042244914172e-01 -1.3165974270836334e-01
      3.5654383824639008e-01 5.7781036852875911e-01
      -2.0758137049845449e-01 -2.5990815753635910e-01
      1.6496503366676371e-01 8.4286850240667932e-01
      -4.2569103031878508e-01 7.7632051505527522e-01
      -1.4784442857157423e-01 2.6779885715324281e-01
      6.4161823268377027e-01 -1.5616012244664218e-01
      -3.2243555285362346e-01 -2.9136473769062209e-02
      6.1516829897067415e-02 -3.8968746790541205e-03
      -1.9863308718929576e-01 1.0874777527711095e-01
      -1.3987377771165460e-01 -1.5311429800978450e-02
      -6.8499271110277127e-01 1.6671166841980549e-02
      2.0423439091796136e-01 3.0218077165839071e-02
      1.4546332620165506e-01 -9.7781973068333328e-01
      -5.0818065229972187e-01 1.3290777179182595e-01
      -2.7906365183099086e-01 -1.4678720573430373e-03
      -1.1118184465179498e-01 -1.8371600526562937e-01
      -1.4607247018034490e+00 -8.4345534640695483e-02
      -4.6948787517578555e-02 -3.6317193576610024e-01
      -1.7050340726801003e-01 -5.0189295897199927e-02
      -1.4607741173299751e-01 2.0389366999692327e-01
      3.9716913608235627e-01 -4.3004107306126477e-01
      -2.3013365401856373e-01 -5.5746513890541353e-02
      6.3875826191487697e-02 6.8104587227975766e-01
      1.7780729158716732e-01 -5.9928205905107083e-03
      -2.0170550333582687e-01 3.7251084784693472e-01
      -1.5980445251981551e-01 -6.9459761041888710e-02
      -3.8195679182267933e-01 -1.9290606317817091e-01
      -1.3030653711725792e-03 -6.9390134573046880e-01
      -5.3715741520016080e-01 6.4681225600607989e-02
      -8.6101210801870609e-02 -7.5248924203768752e-01
      2.5861630954024661e-02 -2.2763737168922907e-01
      2.1865617690367811e-01 -4.1371509757901875e-01
      -3.1636360963910098e-01 1.8670008155856666e-01
      1.4149637753125202e+00 1.0545954871013197e+00
      -1.1150689649945558e+00 -6.5488873409357784e-01
      2.4886360241114375e-01 -2.4340939986163188e+00
      -1.5632478466616628e+00 -2.9286448029660930e+00
      -4.0828042453407773e+00 -1.5340997165122214e+00
      5.8954746632051369e-01 -1.9974539757147669e-01
      1.3838336693169226e-01 -6.0627473950529320e-01
      -1.2696223876778168e+00 1.2802716324630674e+00
      -4.2655118031924006e+00 -2.8568778508350521e+00
      -2.6891612925655417e-01 -2.9179703360403009e-01
      3.3648332592879526e-02 5.8783123483458519e+00
      -1.2334762575623230e+00 5.3645547989834709e-02
      5.4924174142252813e-01 -5.7210304590323080e-01
      -6.8513261645943990e-01 -2.2648283832094598e+00
      -9.1324314949322460e-01 -1.0552799885503459e+00
      1.8709668974952844e+00 -6.5279009662364540e-01
      2.9947094225780897e+00 -7.1150739564990503e-02
      1.6929722936490792e+00 2.0866651044100450e+00
      1.0702956508408454e+00 -8.1699528343282901e-01
      -8.4570963947735966e-01 -1.6663872964708573e+00
      -1.2689825292493007e+00 1.3711390306224003e+00
      5.2686805669538750e-01 -1.8783455880851825e+00
      6.2617150502541974e-01 -1.3235621356680630e-01
      2.3811025022386691e+00 1.3196474259062398e-02
      -9.6235989808406230e-01 6.0680218764900506e-01
      2.3793625431143947e-01 1.8046154775174437e+00
      -3.4573439811814327e-01 -7.0736244507013357e-01
      -1.2623783044258960e+00 4.1510307643763469e-02
      -2.5774193162362139e-03 -2.0634010580690887e-01
      6.7986204735199418e-01 8.9812636440886523e-02
      -1.6172708371427811e+00 6.2592605699558101e-01
      4.2966299846700828e-01 9.8815826354893985e-02
      4.9089034326109726e-01 -2.2117792823315630e+00
      -1.9463057951090206e+00 -1.3438383341606852e+00
      -2.4190635579636903e+00 -7.5781640835789172e+00</_>
    <_>
      -8.1067684696027964e-01 -1.2419454689328671e+00
      4.4514848063852491e-01 5.5363879360870183e-01
      2.3021300327105901e-01 -8.4085519933438646e-01
      -4.6529494115823694e-01 -9.8037679304395031e-01
      -6.0733789670054317e-01 1.1312076340610131e+00
      2.0820217798059315e-01 4.7978750718711638e-01
      5.7724286984552542e-03 8.1022911621639448e-01
      -7.1978633005391790e-01 7.9894887992146368e-01
      -6.4799246215793164e-03 6.2255397317486327e-01
      -2.4582921660649801e-01 -4.7947894269367058e-01
      2.5863884060915959e-01 3.6378559270085858e-01
      2.9836842345635850e-01 -4.2485871452178858e-01
      -6.4608905271898531e-01 -1.7655818022602767e+00
      8.0032904358482337e-01 1.6314290152384148e+00
      -7.1606361016609199e-01 5.1100574357373918e-01
      5.0524643888919807e-01 4.9338602057619224e-01
      1.8869876882733916e-01 5.3624929326291138e-01
      1.0411245663258191e+00 -5.7646530197610946e-01
      5.1002754997892852e-01 7.4211336980874898e-01
      -3.5814158354053958e-02 -1.1222008706421005e+00
      2.5958106707330181e-01 3.0741489991580812e-01
      -2.5399044047179231e-01 -3.7720640464622252e-01
      1.2805525083933524e+00 9.1147680813324150e-01
      -3.7977971331704613e-01 1.1841926065336759e+00
      -1.2587608008468198e+00 -1.0460785656248339e+00
      3.1873729341308193e-01 -5.1677812365375753e-01
      4.6250872862958363e-02 8.1297959997220870e-01
      5.9799336085376553e-01 4.0668839393545216e-02
      -4.4637965419426773e-01 6.2266422773288178e-02
      -1.8213969828358639e-01 2.9271879167845949e-01
      7.9171569828245736e-01 -4.3664282825547496e-01
      2.8597041770604753e-01 -2.4698124289564805e-01
      7.2798162950191470e-01 2.7887758259566375e-01
      -1.2437290496425157e+00 -5.3853818859230895e-01
      1.1439591147833514e+00 -6.4540490640439352e-01
      1.6240104753825524e-01 2.0881819547733949e-01
      5.3049987017314337e-02 1.3561177950408325e+00
      -6.4341067861344969e-01 3.7771863428376912e-01
      -1.6543999063847372e+00 -2.9256637938230027e-02
      1.1193918309822415e-01 -8.9945607507138980e-01
      2.1438164078640470e-01 6.2349241926961230e-01
      7.0125314231071012e-01 -2.4702375813626359e-01
      -3.4724929351104150e-01 6.2523210802891704e-01
      1.3479209627161948e-01 8.6815468593240164e-01
      -1.3597606882007782e-01 1.2536239174809952e-01
      3.2459653218802231e-01 -4.2197401100816773e-01
      5.7270232860968917e-01 -9.4282858294587213e-01
      2.5545961564880237e-01 -1.6864370312112500e+00
      -1.4605962933949451e-01 8.8763785952346319e-01
      -1.7949256834882896e-02 5.0420845195444564e-01
      1.0177780449232676e+00 2.3171348441933415e-01
      -1.2244038232134956e-01 9.1324397926624987e-02
      1.5262729728236606e+00 -1.6008265848981559e-02
      -3.1811935213852777e-01 9.0831013303448893e-01
      1.2086723031486141e-01 -8.4744840224005369e-01
      1.2592642021015530e+00 1.0623184703574853e+00
      2.9686243271963231e-01 -3.8788562296676227e-01
      1.1658086397199650e+00 1.7200630680364166e+00
      -4.7999519656224571e-01 3.8113421466180614e-01
      -3.5674541314412794e-01 -1.4330585010048846e+00
      -1.9712247685082560e-01 5.3006177509262520e-01
      4.7465350979950205e-01 2.6162903021175998e-01
      1.5709445997251310e+00 9.6412531099203252e-02
      -9.3734136977436294e-02 5.6646450201328523e-03
      -9.0625328287638574e-01 1.2013357394334832e-01
      2.9404062726839258e-01 1.5941119683693927e-01
      7.2489712364917580e-01 -9.3083851901104142e-01
      2.2358212934782803e-01 -4.9112877052972775e-01
      -1.0692983977502097e+00 -6.7050624323974239e-02
      -5.5163662202224628e-01 -5.5914868379802884e-01
      -2.0468008053721642e-01 -3.1816036799851816e-01
      3.7517813304363168e-01 3.1477873537098477e-01
      3.0561860914666805e-01 -7.4382348906635656e-02
      3.9486650193410366e-01 -5.3503966493730437e-01
      -4.2822655034579682e-01 4.9378120651684121e-01
      -5.3071316547813752e-01 -1.5057247062199297e-01
      7.6066734777265799e-01 3.5208549283537810e-01
      1.2742963418302009e-01 2.2996117917255601e-01
      -7.2799032022475485e-01 -3.9431880047146822e-01
      -1.4370054615900094e-01 -1.8952082975085993e-01
      5.0167442002589147e-01 1.2452032811539890e-01
      -7.1119604198866493e-01 4.0883533297728904e-02
      -4.1327228530540008e-02 4.1422468126347772e-01
      1.2488151348403025e+00 -2.3297411987467320e-01
      4.0143131559240201e-02 5.7567293595052589e-02
      -6.1019246231144986e-01 2.2951982024250056e-01
      -2.1348661804903277e-02 -8.0667964582071650e-02
      4.3744958523042027e-02 1.1108106126236648e-01
      2.0943017592129942e-01 -2.0251602657925100e-01
      2.1418670389166530e+00 1.6885859877111789e-01
      -5.1805604203852151e-01 -4.4655004065873277e-01
      3.8170216409863511e-01 -1.8649532682279002e-01
      -1.7404021419748361e-01 -3.3967964992804972e-01
      1.4512930210085381e-01 -1.9412100028520327e-01
      -2.1486691776531860e-01 -2.3613183814362570e-02
      7.0556306118575662e-01 -1.9065526159592883e-01
      4.6786841478153662e-01 1.1481599758502800e-01
      -5.4090860097997973e-01 3.0557899911053737e-01
      -4.2057070365941468e-01 1.8539481426890887e-02
      3.6338159267826969e-01 4.1015024166984509e-01
      5.2901937415384892e-01 -2.2632591058990434e-01
      2.5822996386585393e-02 5.5838994993485980e-01
      5.5085457761400602e-01 -1.6663863188106806e-01
      1.1436631842023851e-01 -1.4390146740219245e-01
      3.9030713693765690e-01 -3.9941106685904915e-01
      7.0901404052486805e-01 -2.9356084133115912e-01
      3.7710224271396364e-01 6.5770199585081235e-02
      2.6072757741669150e-01 -1.0877042053291970e-01
      3.6233648702538235e-01 -1.5436219890642655e-01
      -2.3814215986910695e-01 3.2428047970548413e-01
      -1.0285370710878958e-01 -5.2059306077506931e-02
      1.1759501080601151e+00 4.4159890635587874e-02
      6.4971961726379868e-02 2.3918696817194475e-02
      -1.3405956697926442e+00 -2.7972567715785668e-01
      -1.0857378551131134e+00 -1.4036464804398097e-01
      1.5283302258636158e-01 4.1323353069690184e-02
      -1.1130054329777081e-01 5.1699253449201887e-01
      -4.0190171375084360e-01 7.5137323305543646e-01
      -1.9786375970624048e-01 2.1811475590731905e-02
      -1.9593206405376224e-02 -4.2042700359670071e-01
      -4.8991185920526414e-01 -1.8491718651301378e-01
      6.2379422396174264e-02 -1.5023245354341280e-01
      7.8986585250026375e-01 -2.5211819407592867e-01
      9.9092395115621856e-01 6.7310847176573846e-02
      1.1711524840330503e+00 -7.3743546113020975e-02
      -6.9903267416939174e-01 -1.2605341014694960e-01
      -2.3683823556790001e-01 1.5122158403182512e-01
      -4.6995021623208851e-02 -7.2027816956087454e-01
      3.2456652702867872e-01 -1.6916097435691149e-01
      7.3760961543727033e-01 1.3336814946073744e-01
      3.7833971852637815e-01 2.5790842759571903e-01
      2.3797277804246192e-01 6.2495053738786839e-02
      -2.6142046793095491e-01 -1.1573492101120057e-01
      -3.5802990682828773e-01 -2.0620400520958645e-02
      -2.9691604693748177e-02 3.2416507321631476e-02
      5.9976821123773227e-01 -8.7663986642895989e-03
      -4.0430034028006673e-01 2.9810632291034866e-01
      -3.2674167089402778e-01 -2.1806811504057866e-01
      -3.2288931145441563e-01 -1.6441656350708719e-01
      3.6123967802710549e-01 1.1981108066234801e-02
      -4.7016215883229247e-02 1.3952867597205043e-01
      2.9830569582986549e-01 -3.0297766609874027e-01
      7.9882608684257261e-01 -1.3004287125797162e-01
      -3.0439668819351534e-01 2.8102271051572147e-01
      -1.8470565115747425e-01 -9.3746950431266879e-02
      9.3639635267377591e-02 -7.6052082785073039e-01
      7.4915587957612995e-01 -6.5092464389373450e-01
      1.1303188717071677e+00 3.2572592471116807e-01
      -7.0098297868199988e-01 -1.0797569791062978e+00
      -6.3260178338112261e-01 5.3912456425662769e-01
      -1.7532077111457525e-01 -9.5170707714428893e-01
      1.1752350170146066e-01 -1.3099835980666646e-01
      -3.3851403684625421e-02 4.3478070986051448e-01
      -6.1322333351322790e-02 -1.0980582700684151e-01
      9.3783714281495101e-01 -6.4214743515910955e-01
      2.7667759494747984e-01 -3.2766778426454574e-01
      -1.4434976897962146e-01 -1.2383666557096007e+00
      7.3428792090068962e-01 -9.8616130327058260e-01
      2.5534297434067083e-01 3.1832615611715920e-01
      4.3190524151686005e-02 4.9039112925689687e-01
      -4.9123356796840434e-01 8.4726069479688204e-01
      -8.3019904287172741e-01 8.7335692122743125e-01
      -5.8765319906693358e-01 -1.2235514276694230e+00
      4.2761571394565501e-01 2.5765755341851287e-01
      8.2175643447427990e-02 4.2069943101354673e-01
      -1.7313831271543059e+00 -6.6301625696993105e-01
      -6.4709318640156044e-01 -2.4805571028609227e-01
      -1.8379694889748437e-02 -1.8678236798583508e-01
      -3.0236938861472162e-01 7.0106449854778541e-02
      1.6601587598210218e-01 -2.3551540448633024e-01
      -1.8286570922941517e-01 -5.1969720905259975e-01
      -5.6572645959719205e-02 -6.3198562981788997e-01
      -3.5646219838632776e-01 1.4790672219941209e-01
      -9.1318601268472510e-01 1.4326214719547961e-01
      7.8070234993290022e-01 -2.7349008979581169e-01
      1.5761718167201286e-01 9.0442360784266415e-02
      -5.1284571563331005e-01 -8.4964858932956619e-02
      2.5928194859105491e-01 -1.9116680136511000e-01
      -1.0506243560616701e-02 3.0875248399321908e-01
      1.1759166009743593e+00 -1.9279852190268504e-01
      1.0153143391527875e-01 -1.9515846134626935e-01
      8.1701786899018303e-01 8.1956488614598266e-01
      4.9912303415168877e-02 -3.7732927324892904e-02
      1.8499025728817878e-01 2.4953717161752825e-01
      2.2894442179825210e+00 9.3108996645350717e-02
      -3.0524570247151750e-01 -3.2413863754278328e-02
      3.0974793081337035e-02 -7.1686179117244386e-01
      2.2634506637097476e-01 -2.4397209911535084e-01
      -3.3406035324967699e-02 3.5748777305497620e-01
      -4.2063123970963195e-01 -2.1484139166747428e-02
      4.7624320009456961e-02 -4.5672953305975462e-02
      4.5164265968004179e-02 2.1418903063023240e-01
      6.1551107265652250e-01 -1.2531866332567543e-01
      -9.5946718418925367e-02 -4.9161453117214351e-04
      -4.7558595421639638e-01 2.6296775916814419e-01
      -1.0523442979385471e+00 -2.0266837578187157e-02
      5.9232604165815245e-02 1.7243101688924434e-01
      -6.4472206970369608e-02 1.4242502415979626e-02
      -1.7831434693829323e-01 3.5598590498487581e-01
      -5.6150979407059387e-01 1.3945220046737525e-01
      -1.8290937145282821e-01 -3.4845799064908711e-01
      5.9395426795410700e-01 2.0145103562170208e-01
      -4.6848994556111850e-01 -1.3059686589995267e-01
      -5.7321848262486097e-01 6.0202807887266554e-03
      -1.8071166474524969e-01 -4.6609114567495197e-01
      -3.0917206516524315e-01 -3.1086647884770535e-01
      5.5261547049371962e-01 -1.8752165003540347e-01
      -3.0528710003981752e-01 -4.4963632362305211e-01
      -9.0469577576755902e-02 2.3585607170080908e-01
      1.7469855953649244e-01 7.1831366488114934e-01
      6.6545036756246201e-01 3.0994573419904338e-02
      4.4332459196724161e-01 -5.1063243881292164e-01
      -1.5501032329977854e-01 -2.0628438092670209e-01
      -3.2777483665608836e-01 8.1673107512571855e-02
      -4.4957139936097934e-01 4.2219798836431444e-01
      -1.1537852588524830e-01 -2.8686279899634565e-01
      -3.0478755333626223e-01 -1.2516915867661065e+00
      2.1919108976564644e-01 4.8232377536245186e-01
      8.8919913942049039e-02 -5.8972103248844743e-01
      -1.6033483158210987e-01 5.0718595574141032e-02
      4.4468145371695406e-01 3.0122060881318819e-02
      6.4687867870036830e-01 -8.6698913516704734e-01
      1.7438625422764994e-01 1.8800877710533387e-01
      1.9323439647152457e-01 -7.2183867183439698e-01
      2.8310911084390783e-01 1.0299372644674844e-02
      -9.4872665987332827e-01 1.0062118688885220e-01
      -8.8105681408072539e-02 3.7174831854717660e-01
      2.3553196203357155e-01 5.7708541408476655e-01
      -1.0501882320417624e+00 2.2129073840589572e-01
      -2.1984182941427141e-01 5.7540426012906243e-01
      5.2184655440897058e-02 3.4709666865444788e-01
      2.9096870461067320e-01 2.3518715081460997e-01
      -9.4679809991403241e-01 -3.5650472800008465e-01
      3.9353312867483414e-01 1.6281769443800092e-02
      -2.4126635391440174e-01 -7.2312534604557596e-02
      -5.6173950176011445e-01 1.8641773330566966e-01
      -8.5054839879545499e-02 -1.8222627089717841e-01
      1.5260277217027909e-01 1.9246100412756265e-01
      -2.1517747084650193e-01 -4.8767556148264821e-02
      1.6959530961778566e-01 7.0301633472261638e-01
      6.1636313781385033e-01 -4.7770079605853838e-01
      3.4202976269311786e-01 -6.5970547812339475e-01
      4.2525450564803718e-01 -1.1420005488099765e+00
      -3.4741775831091659e-01 -3.1865148804975194e-02
      -2.5374574824659810e-02 -9.2116897218049540e-02
      -5.4102149861064663e-01 -2.0046518182633735e-01
      -7.8144999919619507e-01 -3.2934077742221191e-01
      -2.3439634186853181e-01 3.5534229680277050e-02
      -1.0405412314064147e-01 2.7262180843802952e-01
      7.2155651733505244e-01 -2.5232422478417099e-01
      -4.7323617411793772e-01 -4.2586923424952222e-01
      -9.4926468717562051e-01 -1.1234685642943580e+00
      -2.3769211265512430e-01 2.4064352782322579e-01
      1.1510462148160689e+00 3.0138586410882079e-01
      7.5278487417295714e-01 -1.4515385104041806e-01
      1.2522079512773360e-01 2.8898544978548552e-01
      2.7259885529806166e-01 -5.0034037809354703e-01
      2.3046643775436146e-01 -5.6102427254699536e-02
      7.9393615277902785e-01 3.8222084992229616e-01
      -1.7250196015430794e-01 2.1644942256348362e-01
      -4.4909773380528367e-01 2.6375949987975471e-02
      -2.2528374254487938e-02 2.2949126958998409e-01
      -9.8532731694071218e-01 2.2037985163446056e-01
      1.0995169378384624e+00 -2.4501908766491934e-01
      -2.0466430791276182e+00 -1.5024758074760275e-01
      -4.9049569081619046e-02 4.8093060422780531e-01
      5.2069352426345694e-01 5.2245112007845929e-01
      -9.3716095935779856e-02 -2.9666421055992070e-01
      -1.2144206753268459e-02 2.2904980962808577e-01
      -5.8674458490427817e-01 3.9517513939196924e-01
      -3.3011299544934541e-01 -3.4908825035323832e-01
      4.1822328496178257e-01 1.1913110134026386e-01
      -5.3601876181606212e-01 3.0137410081670177e-02
      1.5578965824389138e-01 1.8393400648061446e-02
      -3.3584376512282466e-02 -7.7299578805878388e-01
      3.7073833180889698e-01 -1.5947989678412888e-01
      6.0867770809006450e-01 -5.1083359406139106e-01
      -1.3424831364257661e-01 -1.5301428167680903e-01
      -4.0294252009891826e-02 1.3587254268504087e-01
      -1.6932697296109270e-01 7.7107160352055115e-01
      3.3334096347652864e-01 -4.2435550602394490e-01
      8.1550443555230417e-02 -3.5415404364623820e-01
      -1.2221865436776683e-01 4.1541952871677179e-01
      -1.7068262242929386e-01 -3.0504983616832154e-02
      -1.1618688456099241e-01 -2.9128493041808179e-01
      -2.7118188528039994e-01 2.5845724707629769e-01
      -6.8720841409232925e-01 -2.5488202375150180e+00
      -2.5490985910465469e-01 1.4690094698948934e-02
      8.4782576605323501e-01 -1.6612738151401140e-02
      1.3194413971343366e-01 -2.4172424524442526e-01
      9.0273622718324814e-02 5.3489807860131755e-01
      1.7156961633994436e-01 4.6097990666852762e-01
      -2.0765552695728301e-01 -5.6889083769843962e-01
      3.6479302686730897e-01 1.7263688463169519e-01
      2.7000613594026394e-02 -1.8703868236691434e-01
      -2.2819907117746419e+00 5.4017551565921931e-02
      -9.7870383468474879e-03 5.1051835485158814e-01
      -7.9835631129729667e-01 2.8917935441956671e-01
      -1.9646302118748307e+00 5.2076330892202788e-02
      4.5866787751310217e-01 -7.2026048304600554e-01
      -2.0769089254369003e-01 5.6390032481853980e-01
      2.6382680555093735e-01 -1.3691863191313011e-01
      3.3939419390294628e-01 5.9271777636976566e-02
      -2.9028455293665906e-01 -2.5627959073673900e-01
      3.8126732251689904e-01 1.4532649817435742e-01
      3.6574467525440302e-01 5.2106784950929808e-01
      2.8834057025773613e-01 3.3785019793312215e-01
      -3.6216400722411624e-01 1.1132292321471383e-01
      7.2066037819823014e-01 3.2799769419602190e-03
      2.8149960956712228e-02 1.4941580708462560e-01
      3.0881060733878413e-01 -1.6495689511084460e-01
      -3.5807630579919181e-01 -6.1956338989257942e-01
      8.4735942583261212e-02 -1.1050337120889187e+00
      -4.5489134502196554e-01 -5.9350151308678302e-02
      -1.5097663814846676e-01 1.3170641891831000e-01
      -4.4955711689959654e-01 -5.5796721932812909e-01
      5.9248213560785368e-01 7.7166122738968335e-01
      -6.0225012588389981e-01 1.5771963620733043e-01
      3.6876216171041740e-02 -3.9962728972060607e-01
      -1.1652530482011716e-01 -4.2077061774303531e-01
      -6.8254167610134908e-01 4.7972823043078383e-01
      -3.6953343201076988e-02 9.5135588624343947e-01
      -3.3229018450709413e-01 -3.9232110296591316e-01
      3.4294970347761278e-01 3.8477514148202961e-02
      6.3728406807555238e-01 -4.6340113016929374e-01
      1.6774818305005171e-01 6.0365151947234252e-01
      -1.2757786657764367e-01 5.5509898267119481e-02
      1.4445253891194684e-01 7.6870564600975259e-04
      7.4978947280386155e-01 1.9964637741181193e-01
      -1.5542878728862089e-01 -6.0235137426068253e-01
      2.5540027386016517e-01 2.4085910961371981e-01
      1.4234676345930006e-01 3.6766806032460847e-01
      4.5806696132127706e-01 3.6407443612711410e-01
      -1.0684128239271744e-01 -3.6230800364379701e-01
      -4.4825873521050447e-01 -2.7360030124872226e-01
      -5.1990165052607140e-01 4.0459462359761994e-01
      6.9968351437601950e-01 -1.0926504239974180e+00
      1.1275363465867612e-01 5.3051036427645182e-01
      -7.9531389392608065e-02 8.4346511765841492e-01
      -2.5700574237760987e-01 -1.3417998101905956e-01
      5.8251976027782322e-02 1.1581326672539419e-01
      4.9840652259512652e-01 2.0156296605907106e-01
      -1.7960900027729904e-01 -2.9514309418796320e-01
      -4.5462366829914424e-03 4.4800840261495715e-02
      -9.0878942186908271e-02 5.6479708805658158e-01
      8.1104752734053553e-01 -3.7730695297710309e-02
      2.2667938955257524e-01 -7.0618786477527701e-02
      2.7220115952428514e-01 9.4987831075137932e-02
      2.2099680374711458e-01 1.2603011738972608e-01
      -2.6487270740575719e-01 4.5962732665949652e-01
      6.5317022529577540e-01 1.7756716747893730e-01
      -3.6295489798068720e-01 -3.2865068204635883e-01
      1.0367077334548556e-01 1.4202523626379972e-02
      -5.0021785392021056e-01 2.0893711311204197e-01
      9.5334685902631333e-01 -3.2755454440432186e-01
      5.6768119648835447e-01 -6.5432388182970036e-01
      5.9104077052057502e-01 -1.0807723952245536e+00
      -3.3718155330499616e-01 -7.1545654375930345e-01
      -1.0768399986621568e+00 1.0976829301290827e-01
      7.0810459184026309e-01 -2.0709549851188305e-01
      -3.9755348145133318e-01 1.6718670436800689e-01
      -4.5748335115537653e-01 -7.0036573610216379e-01
      1.9313052250656335e-01 2.6284864037211780e-02
      -9.4672000952434887e-01 3.3117208144799334e-02
      -5.8009398479697927e-01 -4.1678524940936268e-01
      -5.8158950165575485e-01 -2.1432388823347953e-01
      1.6275026226871006e-01 -2.8816941698548010e-02
      -3.5404895648057783e-01 -2.1556827350239896e-01
      1.1473747564926027e+00 -1.4862876787222640e-01
      -8.5061543669219541e-01 2.0713739752621979e-01
      -3.3784594475209534e-01 -3.6459263198914305e-01
      2.2552679616484572e-01 2.5278547950997926e-01
      -3.9099966884694283e-02 3.9772685852522732e-01
      2.3760052194478390e-01 8.3532083115137978e-01
      -6.7252728745349766e-01 -3.7300693866211537e-01
      -2.6215640189277079e-01 -4.5233839005228965e-01
      -5.4624268791407846e-02 -2.6686411511608166e-01
      5.0128218924127810e-01 -4.5401294048321528e-01
      3.0734139349414680e-01 1.9812189900168420e-02
      -2.5526637414285724e-01 -7.3540450075864705e-01
      -4.5509743822056703e-01 5.5919536681528256e-02
      4.3574860457941550e-01 1.2825012679918555e+00
      -3.9502544738914380e-01 2.5516673061544676e-01
      -1.8770285860851721e-01 1.9475406731896405e-01
      2.9263495353067626e-01 7.6617609765809377e-02
      3.2089259342898002e-01 1.7299693705153735e-01
      4.3439735913262645e-01 -5.4559663576661588e-01
      -2.1396697913765159e-01 1.4304635520747241e-01
      1.9470035508506633e-01 -9.5302238542904691e-02
      -5.8362557927811110e-01 -4.1648727384798932e-02
      2.5064957952325367e-01 -1.5473283142711436e-01
      2.5870174364152110e-01 -4.9375533793594417e-01
      -3.6774195077350447e-01 -1.8215197753558648e-01
      -8.3649601077967328e-01 -9.8065417659358056e-02
      1.8757950663469150e-01 -6.3760674832339839e-02
      1.2025955991374929e-01 1.6736907304000087e-01
      5.3323593917188972e-01 -4.3090406786738206e-01
      -8.7057079625996722e-02 -3.3105297005092883e-02
      -4.1600736785043418e-01 -4.6128912340951761e-02
      -1.1457005116321164e+00 -2.0358019930129315e-01
      9.0208303114400024e-01 -1.7191406034638612e-01
      6.8317691654076834e-02 3.1410665839175156e-01
      4.6905327517465939e-01 1.4982960748897545e-02
      7.4078017496087345e-01 -1.9730274103344153e-01
      -1.0372536525627776e-01 -4.3909616977375110e-01
      2.6286165127704358e-01 -4.6728377686172766e-02
      9.3497241220190250e-02 2.3738525479962749e-01
      -2.2964322364961293e-01 -3.1455568522404265e-01
      -4.9627544836352344e-02 1.9743511511586490e-02
      -2.9565971003850583e-01 2.4559269117522514e-01
      1.9889855366549711e-01 4.9699296127302195e-01
      1.4091435571270168e+00 1.5786420484703120e-01
      9.3819730872433657e-02 -1.4127430743557118e-01
      8.5739897517302055e-01 1.7036218000862784e-02
      1.2738427076308878e-01 1.1621726921868193e-01
      -3.6033301048564820e-01 1.6953341450657074e-02
      2.2501065772316625e-01 -6.5156845297730304e-01
      -8.0133664714233818e-02 -3.5571329934354362e-01
      -3.1188242819946574e-02 -5.6352218624711917e-02
      3.0880432222110304e-01 -4.8054603760638531e-01
      -4.6143999670198194e-02 -1.9483648194548642e-01
      -8.8431975722218989e-02 -9.8317931141214746e-02
      -3.0606904814390229e-01 -3.2289966439648371e-01
      2.5824638471971278e-01 -7.4743867873540731e-02
      7.8725484195133144e-01 2.7638071766690930e-01
      -8.4116334183411834e-01 -6.6883964144035357e-02
      -6.5149004893207396e-01 -3.7643805893097498e-01
      -2.9744533852378746e-01 2.8257949393452153e-01
      -2.1575931851857955e-01 1.0808513055189484e-02
      4.3667192786864911e-01 -1.0638962443484441e-01
      -2.2646025224989975e-02 -1.2737868849442893e-01
      1.6394326212806420e-01 2.0765911764900696e-01
      -1.8245910498605748e-02 2.4291033869089732e-01
      5.0708633634945588e-01 2.9238461852265155e-02
      -4.4697458046751121e-01 -2.4383739575875996e-01
      8.2593265192453957e-01 -1.3089095409496355e-02
      3.6552865261044801e-02 3.2879433535519142e-01
      -5.8203030600012327e-02 2.6663840619355461e-01
      1.2152698497862444e+00 6.1294073270798957e-02
      1.6724288514058441e+00 -6.2158688218967162e-01
      -6.0616919441472406e-01 3.1746404313113707e-01
      1.8104774187935507e-01 -1.4753658532324460e-01
      1.6099220363667294e-01 2.4645514799754942e-01
      -1.0223984961841610e-01 -1.9663845210152044e-02
      3.2256272580812922e-01 3.1584846763704361e-01
      -5.7715229224146447e-01 4.1047197410567432e-01
      -1.6676318586166042e-01 1.6860529205921773e-01
      -5.6585249831591999e-01 -9.0555338196552690e-02
      1.3019382018319933e-01 -2.0040844106655718e-02
      -1.5502032143390954e-02 -4.6921124504653200e-01
      1.7241765461897479e-01 -9.0619091076536276e-02
      -1.7244027031812184e-01 -1.1707022503262160e-01
      -2.3182199198415887e-01 -4.7512479194629220e-01
      4.4137613256925512e-01 1.0438097112759008e-01
      -2.7492326760348457e-01 3.8541309778573291e-01
      5.0276233742349929e-01 6.3452730816426706e-01
      1.6159597792695776e-01 2.2889076000898831e-01
      3.3795113737494137e-01 -1.9649027200537200e-01
      -2.4650307002359144e-02 1.5398773103992394e-01
      1.8345415829956718e-02 -3.2279253253896328e-02
      -4.1596506938111433e-01 -3.8006058875827961e-02
      1.9585277139348509e-01 -5.7026932657389995e-01
      -6.1723847740446613e-01 -3.1705134737975565e-01
      -1.8365304325159645e-01 -8.1267331314516456e-01
      8.4795630494456750e-02 6.2912910024860061e-02
      7.5731256020301208e-01 8.3521353893739519e-02
      -2.2825867808961391e-03 -3.0279977765256594e-01
      5.1327348786996618e-01 5.9117937096622042e-01
      -5.0233921606291454e-01 -2.0068767538373780e-01
      -6.1113441439916039e-01 -1.4077314818426405e+00
      -1.2081537897448513e+00 -2.4121847181529424e-01
      6.9480278580940941e-02 4.7190844566367746e-01
      -2.6933748462359342e-01 2.1295425072187596e-01
      -5.3751819770732889e-01 -2.0378101628075884e-01
      -1.6543892462492873e-01 4.6249218666343717e-01
      -9.5142841073944148e-02 3.0713760497024706e-01
      8.3359533896376192e-01 -3.2891270848680695e-02
      5.5246611096297187e-03 -3.7030906015448301e-01
      -8.5997490355357586e-02 6.1598229900345081e-01
      2.4492592559769993e-01 5.3476911153144557e-01
      4.6909670338017861e-01 4.5520910268664122e-01
      8.5550595635999116e-01 -4.6850981144615306e-02
      1.4838518284202121e-01 -3.6990268464815668e-01
      5.2657446383899720e-01 -4.9565609672754481e-02
      -1.4210681188263696e-01 -8.5136638157654917e-02
      -3.6606490409773451e-01 7.5799898783298347e-02
      2.1179919214079410e-01 -3.9815280812341543e-02
      -2.4308511379606684e-01 -3.1467690085917949e-01
      1.2916393213821772e-01 4.3041260490028521e-01
      -1.3331595732363055e-01 -2.9651624607616850e-01
      -1.5773301543957399e-01 -3.6087343211807565e-01
      5.2574511632060750e-01 2.0513383881573080e-01
      4.4702426123310324e-02 -3.2663626231625759e-01
      1.3064620030886337e-01 -7.0444646054705606e-01
      -2.3610692820711340e-01 1.7329912699069999e-01
      -1.9191380666775670e-01 8.3172377699328970e-01
      4.6609074674921824e-01 -2.7466833178075328e-01
      -4.0333247961847152e-01 3.2675896336336113e-01
      -2.2067586233980790e-01 9.0067179170127600e-03
      5.3083051391317404e-01 -3.6502725415623055e-01
      3.4900281929939997e-01 1.0189070829487450e-01
      -9.3237338507487597e-02 1.1904621495410461e-01
      -1.1067061551446773e-01 -9.8146141228040482e-02
      6.9876901781813472e-01 6.8387395509180471e-01
      -8.4737390557604297e-01 -4.0835012468934777e-02
      -9.3614598085864165e-01 3.5059928174829846e-01
      -1.0679603698048745e-02 1.0608338170703815e-01
      -1.4703284291177010e-01 -1.6079762190118491e-01
      -1.3324283720289962e+00 4.7797835117566224e-02
      7.0736030885038692e-01 -2.6654226713801160e-01
      -4.8715676216947518e-01 5.6024962278191731e-02
      4.9164480721580178e-01 -1.5232665766850892e+00
      4.4710380643794623e-01 -2.4539279305811043e-01
      -7.0751048245561179e-02 -7.3049236739527092e-03
      5.4117606944697166e-02 3.7419713534356330e-01
      4.7192903317416396e-01 -1.6273947932392657e-01
      1.4206306076708156e-01 1.2650256633203125e-01
      -2.8877987611686778e-01 7.3266727647277180e-02
      -6.0233067450003319e-01 -1.6970555716962901e-02
      -7.7386824191698405e-03 8.5791277739141625e-01
      7.7719454613418193e-01 -1.0480799010814303e-01
      6.1267854560500969e-02 3.0203973203403761e-01
      4.4352554323406834e-01 -1.5295016192986799e-01
      -1.1640612618355603e-01 -1.3484294408074321e-01
      3.2181776228966570e-03 4.3654903983492421e-02
      -3.5060462408180382e-01 8.9818738513864593e-01
      6.3457886490481163e-01 -1.7987660528183977e-01
      5.4179587746486768e-01 -5.3539880706366338e-01
      -2.3500778882385326e-01 -1.6140104263411149e-02
      -7.2522032105568413e-01 -2.5796900851914377e-02
      -1.9283981043670761e-01 -1.0031264476722428e-01
      7.3565217679483541e-01 5.9376344152032157e-01
      -9.4928200134749752e-01 -6.0196096927110054e-01
      -1.5137191024752183e+00 -1.7575912584630682e-01
      -3.1650337753830277e-01 -1.2731727458109340e-01
      5.9643741918836790e-01 7.9024969651709909e-01
      -6.8146595351691197e-01 -2.3189455257103814e-01
      6.5876715248925438e-02 -2.4476475956412316e-01
      1.0132627260709647e-01 -4.8193690703781056e-01
      7.9923234915711627e-01 -1.9953777836072861e-01
      8.6493751031683797e-01 -4.6858653928134292e-01
      1.0765472703880931e-01 -1.8799953196637040e-01
      1.4952660790019354e+00 3.4849423184196671e-01
      1.9739797047321483e+00 -2.9190348802226335e-01
      1.1433613891330732e+00 -4.5975071821440172e-01
      9.2075960078639163e-01 1.8638428931171663e-01
      9.5624631272953187e-01 1.2058621608278179e-01
      -4.5099702456388308e-01 1.5515927068168200e-01
      3.5458272358823967e-01 6.3225508373356609e-01
      4.5000902219327410e-01 5.3991371221246157e-02
      -7.2888730301255822e-01 -3.2731840963142030e-02
      -1.4992752662764941e-01 8.4051232582542657e-02
      -3.5131179089820963e-01 -4.9808913497343144e-01
      -3.2730942218283993e-01 3.7392674756621641e-02
      -9.7976366404530182e-02 1.5209414586797537e-01
      -9.0151046549392577e-01 2.3623837883740414e-01
      -1.4443759595392067e-01 -3.0439249344416741e-01
      -3.4810302500132856e-01 1.1357870411169349e-01
      6.1889644504705556e-02 1.5151388890106665e-01
      6.5342489061506404e-01 -1.4574603724062632e-01
      1.4990123966538249e-01 -5.1341631135771637e-01
      1.0248067063002551e+00 -5.6971346993851368e-01
      -7.0113021927585173e-01 7.2487034305915121e-01
      2.4797925158608192e-01 -1.7102975172602322e-01
      -1.0816391412980146e+00 -7.5953411791441861e-01
      -7.3650252748981271e-01 7.3359981889254799e-01
      1.0018843022605113e-01 -1.2404541800839852e+00
      -8.1843380066304550e-01 -6.6208295694203134e-01
      2.3419089760901060e-01 8.8307524462751874e-01
      1.2139205527408072e+00 -8.2335075492444232e-01
      1.4109333261958028e+00 1.0107595755759218e+00
      2.3611101284832392e-01 6.4536663052611354e-01
      -5.9081150159714671e-02 3.8563584644946739e-03
      1.1059491006509636e+00 4.2389077432682609e-01
      -6.2123540262715948e-01 -9.7711605821753444e-01
      -4.4932576961833393e-01 1.4721034206903794e-01
      8.8821570498663571e-02 8.6989345650912064e-01
      -3.5831891062484861e-01 6.8375770166963090e-01
      -1.1309660867184332e+00 5.1433351107776459e-01
      -5.6658965418283891e-01 -1.0649128832981207e+00
      -5.2408800947933187e-01 8.1124938416391745e-01
      9.1704458219619434e-01 -6.0294516708416657e-01
      4.0457773978186284e-01 -3.0741836753961804e-01
      -5.1440389678282594e-01 -4.9504907599373305e-01
      8.3007137745533777e-01 4.3754495370460100e-01
      1.4200371169590758e+00 1.3719568500968906e+00
      7.1817619367174690e-01 3.4475354800972491e-01
      -2.3717190015016804e-01 1.5315653888772049e-01
      5.8146948352594063e-01 -2.1813858142981458e-02
      7.4327098933221841e-02 1.1839347906697817e+00
      1.1131233145080135e+00 -3.5333281428417795e-01
      -5.8197914032592857e-01 -3.4931636590104664e-01
      -2.9015395686719458e-02 -6.1568061131590179e-01
      -2.6759358285304569e-01 -1.0179267564326365e-01
      -6.9541538404956127e-01 1.7269644706545254e-01
      1.2569528300126924e+00 -3.0053769840513139e-01
      -2.2464676620379212e-01 -3.5181166591883595e-01
      -5.6222992233285329e-01 1.0008264561446110e+00
      -6.6368846143580448e-02 -1.9598158234399235e-01
      -2.6859117796897203e-02 -4.4923894635083572e-01
      -1.5495865814076958e-02 2.2225535430853019e-01
      -3.2292921686018111e-01 -1.4943805006253330e+00
      6.8568595296798718e-01 2.6085168831325639e-02
      -4.8237767894482780e-02 -2.3867528237736688e-01
      -1.2046898691139656e+00 -1.7130026135687823e-01
      -5.7613448894245201e-01 5.4542901856561865e-01
      2.2238215359335445e-01 2.9074716140623702e-01
      -1.0460527817773940e-01 -1.7714034783457530e-01
      -4.5468241418364186e-01 -4.2956761125967458e-01
      -3.2620504597589584e-01 -1.9327994694061434e-01
      -8.8085346578026613e-01 3.1221583628006999e-01
      -9.2766284853363856e-02 7.0086228034592979e-01
      -1.0606605899977657e+00 4.4779577271462745e-01
      7.9929038286959286e-01 -2.4759710574152530e-01
      5.3262382093672100e-01 1.7668714664968205e-01
      -4.8436465895367598e-01 -2.5640469907001906e-01
      4.9303543174465497e-01 -7.3629707686744361e-01
      -8.4947324312344241e-01 3.5700011592156938e-01
      -1.6110007972391668e-01 2.9368803969584967e-01
      -6.8482611504608171e-01 -4.2431354306784708e-01
      5.2566413359485098e-01 1.3161434684453588e-01
      2.2255860052937776e-01 2.6976237485269011e-01
      4.5261421301832507e-02 1.2174966005399616e-01
      -2.6387152146620146e-01 9.6924538150858316e-02
      5.9820193077116113e-01 5.6532124727192234e-01
      -2.2422894031516874e-01 9.4449725277783822e-02
      4.8076548058038038e-01 -1.6290874432225783e-01
      7.5104100089881942e-01 -2.7367850519516074e-01
      -3.1159593210047948e-01 -2.2370927004778568e-01
      -6.3502749202557129e-01 -6.0094861587282644e-01
      2.4543703838234299e-01 -4.5432329891366041e-01
      1.1755986974983756e-01 -3.4799481903774254e-01
      -1.6815527419436183e-01 -1.0310337613955463e-01
      -4.4230536659684683e-01 -1.5338838078234451e-01
      -8.5018112242624316e-02 2.6170862846544257e-01
      -6.9900812242723054e-01 2.8888294026046168e-01
      -1.3871482780957767e-01 -1.3115971140022584e-01
      -5.3611633038660533e-01 4.1515837343301459e-01
      1.9843320600370123e-01 4.9879040719229456e-01
      -1.1229759997672406e-01 -1.7464744119024150e-01
      -1.2389298932379425e-01 7.2218377554202684e-01
      3.9651871503287367e-01 -1.7022810679792186e-01
      -8.2895386208291719e-02 -5.2779071684786583e-01
      3.8803324966577812e-01 1.2035465860320159e-01
      1.8162794802547053e+00 6.2607814488963964e-01
      -2.6036191685064136e-01 3.7223541084175985e-02
      -8.4949506957080853e-02 -6.3481185647208072e-01
      2.2329240551589588e-01 8.8465711936555980e-01
      -7.8806403529988034e-01 7.3946970063172701e-01
      -1.0418348016225221e-01 5.3699380993868624e-02
      1.8030658791647061e-01 -2.6515963165869377e-01
      2.5424101358235984e-01 -3.6070616737934746e-01
      1.5530044302836993e-01 2.5883331012275002e-01
      1.8394853851235880e-02 -4.4117902483202648e-01
      -1.5567053685148746e-01 -6.1144755252483662e-01
      -3.9664851433939635e-01 8.3660540387400575e-02
      -9.5050576622042215e-01 1.6257421519288320e-01
      4.5438659271293874e-01 1.3849200077460164e-01
      -2.1736312122960577e-01 8.2643016548461790e-03
      4.4539410983824225e-02 4.0036614346447014e-01
      8.6813296556304664e-01 4.5989679274826067e-01
      1.5311603026420878e-03 9.3360474502863125e-02
      7.8007597233830384e-02 1.5646715995617358e-01
      -3.1711464724404631e-01 -4.9011589994750478e-02
      -3.1859619512874519e-02 2.6493745906566185e-01
      -7.4069794126278077e-01 4.1352027610657965e-01
      3.9837786594823310e-01 3.8192604354385967e-01
      1.3664797693612021e-01 -1.9738660234882563e-01
      -2.0179346512288306e-02 -2.4934982842325726e-01
      -3.7304321607059293e-01 -5.7583554472745235e-01
      4.3278530701957718e-01 1.8313571969048895e-01
      7.0473492751106301e-02 1.2861802884296553e-01
      -2.7691483310013654e-01 -5.8250696366575760e-01
      -6.3354774131164904e-01 1.1653494282286971e+00
      2.3810565656816038e-01 2.6740742813706758e-01
      3.5843714864419579e-01 -6.2137550831340049e-01
      -5.3428168245973229e-01 2.7994733199097882e-01
      -3.7190020037777438e-01 1.0097312378191928e-01
      -5.0488689646608487e-01 6.3239544224100486e-01
      3.7415486580298946e-01 -2.3113009415154348e-01
      -3.4139919404299793e-02 2.2742553608541777e-01
      1.1365799875053748e-01 -4.6373677355598042e-01
      2.7035076711123074e-01 -9.4549617314863343e-01
      1.0014394049489489e-01 -2.9571803659126045e-01
      3.2420660966264453e-01 -1.8098301664649061e-01
      -6.1288300008941698e-01 -1.2094124082313112e-01
      -2.2037127757474045e-01 9.8199772137081850e-02
      3.6835493344854267e-02 -8.2353907522826772e-02
      8.7569110131686251e-02 5.4170787139571264e-01
      1.1242057122022740e-01 7.5472463049121710e-02
      -1.8578587746844072e-01 -2.8002896097407970e-01
      -1.1686161299570392e+00 -1.2002080505865417e-01
      -1.2275791457513623e-01 -3.9273908821455711e-01
      1.2228948307013139e-01 4.8474519754058996e-02
      -3.8835307154837234e-01 -1.1446900924576529e-02
      -9.0237943594036663e-01 4.4676313363029618e-01
      2.9271917253640856e-01 1.3783321632180596e+00
      -2.5539301717025309e-01 8.1982209640161507e-01
      -4.6009943355259442e-01 -2.0975352148946044e-01
      3.5934668645296419e-01 -1.2871709602939693e-01
      -6.8260352165642135e-01 -2.0310470266791988e-01
      -6.3152317871218444e-01 -3.5990498906015828e-01
      2.7035319771155847e-01 -2.9943080679484635e-01
      -1.9038249091458390e-01 3.6737537276609900e-01
      7.8455040942064980e-01 3.8855281307264300e-01
      -5.3396739950350360e-02 -5.9539161715169531e-01
      -1.7241577159744895e-01 -9.2345059799882945e-01
      3.6754700980892296e-01 5.8020140602924175e-01
      -1.4185887902149735e-01 5.0947118400902058e-01
      8.3371896961886727e-01 3.5334061155119383e-02
      2.7257024224648047e-01 -1.9870141101493691e-01
      2.8101547526189158e-01 1.9766685662851854e-01
      4.9673943859018538e-01 -3.4644741543739692e-02
      4.7508252662758488e-01 -3.1229663296457366e-01
      -7.8004384265597737e-01 1.0837984543899708e+00
      -5.4522500190171141e-01 -2.7528447829564701e-01
      -1.9753471073613113e-01 5.1457341681638202e-01
      -3.1059960305584289e-01 -2.3405616539276544e-01
      -9.6816524556508532e-01 2.7865645072806711e-01
      1.6797031253577713e-01 4.0386343460685126e-01
      6.3986717005657745e-01 1.4983205642549796e-01
      2.2323356246201112e-01 6.3381012250115165e-01
      -3.7738319273937343e-01 -8.2408782443824005e-02
      2.2381653788925593e-01 -7.2813524127250850e-01
      1.5241094000055622e-01 -4.3332599119600668e-01
      3.6416049320877064e-01 -8.0830671887190242e-01
