<?xml version="1.0"?>
<opencv_storage>
<opencv_ml_ann_mlp>
  <format>3</format>
  <layer_sizes>
    9 100 100 10</layer_sizes>
  <activation_function>SIGMOID_SYM</activation_function>
  <f_param1>6.6666666666666663e-01</f_param1>
  <f_param2>1.7159000000000000e+00</f_param2>
  <min_val>-9.4999999999999996e-01</min_val>
  <max_val>9.4999999999999996e-01</max_val>
  <min_val1>-9.7999999999999998e-01</min_val1>
  <max_val1>9.7999999999999998e-01</max_val1>
  <training_params>
    <train_method>BACKPROP</train_method>
    <dw_scale>1.0000000000000000e-03</dw_scale>
    <moment_scale>0.</moment_scale>
    <term_criteria>
      <iterations>300</iterations></term_criteria></training_params>
  <input_scale>
    5.3685500174793770e+00 -2.9236978391112891e+00
    1.1154967525544112e+01 -2.2623378718988429e+00
    1.0368103633660782e+01 -2.3089827421754667e+00
    1.1155575007684229e+01 -2.1631142823574505e+00
    9.9743669487621887e+00 -1.5936108064367438e+00
    1.5916755533368841e+01 -1.3905926978283956e+00
    3.5633520123923631e+01 -1.8406016097131381e+00
    5.3394204211950068e+01 -1.9904427162355269e+00
    6.5879866493177047e+01 -2.2304692685119378e+00</input_scale>
  <output_scale>
    5.2631578947368418e-01 4.9999999999999994e-01 5.2631578947368418e-01
    4.9999999999999994e-01 5.2631578947368418e-01 4.9999999999999994e-01
    5.2631578947368418e-01 4.9999999999999994e-01 5.2631578947368418e-01
    4.9999999999999994e-01 5.2631578947368418e-01 4.9999999999999994e-01
    5.2631578947368418e-01 4.9999999999999994e-01 5.2631578947368418e-01
    4.9999999999999994e-01 5.2631578947368418e-01 4.9999999999999994e-01
    5.2631578947368418e-01 4.9999999999999994e-01</output_scale>
  <inv_output_scale>
    1.8999999999999999e+00 -9.4999999999999996e-01
    1.8999999999999999e+00 -9.4999999999999996e-01
    1.8999999999999999e+00 -9.4999999999999996e-01
    1.8999999999999999e+00 -9.4999999999999996e-01
    1.8999999999999999e+00 -9.4999999999999996e-01
    1.8999999999999999e+00 -9.4999999999999996e-01
    1.8999999999999999e+00 -9.4999999999999996e-01
    1.8999999999999999e+00 -9.4999999999999996e-01
    1.8999999999999999e+00 -9.4999999999999996e-01
    1.8999999999999999e+00 -9.4999999999999996e-01</inv_output_scale>
  <weights>
    <_>
      -6.3055645219649270e-01 1.6347730646846645e-01
      4.7418601919793892e-02 -2.6247845259226993e-01
      -2.0251449530649518e-01 -9.9992860816258772e-02
      1.6045236462999832e-01 -1.8490054090288344e-01
      -2.2156565379744153e-01 -1.9990787089246717e-01
      8.8096888785756985e-02 2.0917460876079474e-01
      1.6041298190097277e-02 4.5007763697351322e-01
      1.6253046805293456e-01 2.8487121180219838e-01
      -9.9225148121322951e-02 4.9652558611359690e-03
      1.9485452645848247e-01 2.3035823669206054e-01
      1.7931253390202676e-01 -1.8452032774857591e-01
      1.2550747561533918e-01 -3.1003071942982974e-01
      -1.8116788774836282e-01 -3.6675673606809026e-02
      1.9197778293000278e-01 -2.0924217124162432e-02
      -2.2200219636052831e-01 -6.9451691334880439e-02
      -1.0538453818771196e-01 1.4264570715961311e-01
      3.4625529273626020e-02 -1.3484559665483040e-01
      6.7805348810896948e-02 -1.4125065587934205e-01
      2.0418986906947836e-01 5.3991277232551571e-01
      1.2474006541823782e-01 1.7620018483659730e-01
      1.0739348250700066e-01 1.0017494643208165e-01
      -1.9297525267274274e-01 6.4188367228757065e-02
      -1.5983496694341132e-01 1.9497805741030325e-01
      -8.5199098393086217e-02 -2.2181242575597390e-01
      -3.6659162002973061e-01 7.5273778452196920e-03
      -1.3691660086865662e-01 8.8721409874410087e-02
      -1.9196863527101249e-01 -1.6343561939451140e-01
      -1.2880305722361374e+00 2.6991867132410158e-01
      -1.0246424034666199e-01 -8.8811615665317742e-02
      2.0570334718296293e-01 2.7106841630512268e-01
      -1.1111492659726327e-01 -2.4892436030070572e-01
      -5.5238564469939799e-01 1.2162321637445803e+00
      -1.3965211588869531e-01 2.3119845712602044e-01
      6.9010650811739266e-03 -1.9237560986338383e-02
      -1.9205679242163421e-02 1.7186885664497542e-01
      -1.2309695107868128e-01 1.1654891236626633e-01
      1.2475560633836305e-01 3.2504343644720529e-01
      1.0822284743761036e-01 -6.2233964967818384e-02
      -6.3897240293776983e-02 -4.0022653812710855e-02
      -7.0177516910327503e-02 5.9995108094197724e-02
      5.5187262667939468e-02 2.0970920976952992e-01
      -1.8689643284106855e-01 -2.0115074232264798e-02
      -2.2604885699052507e-01 1.3002253029923763e-01
      -2.2330654777694792e-02 2.0369323996549660e-01
      1.3420825117131899e-01 -9.1674437526288594e-02
      -3.4593526307860965e-02 -4.2507039401183326e-02
      -2.9978825072106635e-01 3.2810850578846300e-02
      6.2009272079191748e-02 4.2379691420637106e-01
      1.9438009872689213e-01 1.9984206238098043e-01
      -4.1627863428976161e-02 -5.8838783585839072e-01
      1.4660047273795093e-01 2.5242600154394435e-02
      -1.0214789949771658e-01 6.2830029997714018e-02
      -2.1792656815411951e-01 1.8422490515021298e-01
      -1.6308409835697635e-01 -2.4893285401801468e-01
      -1.6420866341405002e-01 1.1598249296713588e-01
      2.7847760235583524e-01 1.8145663805759363e-01
      -9.0764720351615216e-03 4.3294362454109565e-02
      6.7010692365170849e-02 1.4496041124388126e-01
      1.3444319847791902e-01 1.4135492559411192e-01
      -4.3260146324076406e-03 4.5397523701095434e-02
      -9.0385150150683463e-02 -2.5688063073445056e-02
      2.1879566594529951e-01 1.3107320993418167e-01
      -2.7543941357584328e-01 -3.2412857613449259e-01
      2.2557564952814199e-01 2.2703437426263418e-01
      7.9736019311136552e-03 2.1666620982621917e-01
      1.0794892841214498e-04 1.3640597351438102e-01
      8.3491884671408265e-02 -3.0741493487429211e-01
      2.0985681766454736e-01 -5.5706728827901252e-02
      8.8834290022492463e-02 8.4510255066783002e-01
      1.0325395833263702e-01 -4.9931899691085226e-02
      3.3430602799613446e-01 9.8884309744551438e-02
      -2.4722373242201201e-01 3.2757133207103839e-01
      -3.1555821526434696e-01 -1.9442019963776802e-01
      2.7574694492807023e-01 3.7302087517012569e-02
      -2.6410374239577716e-01 -2.3720074015078663e-01
      -2.1287446733870335e-01 2.2634634789446526e-01
      -2.5031341543901103e-01 1.7115977147503660e-02
      -6.9435871237937641e-01 1.7499057189639861e-02
      -8.8053970450026817e-02 2.3437064149584291e-01
      -1.8406187560253356e-01 1.4053331247258822e-02
      -2.7283023234675818e-01 -3.4403891234958928e-01
      -1.0747312226333385e+00 -4.4663457971067251e-02
      1.5489996954431196e-01 1.6359129350242138e-01
      1.2361404580260299e-01 -5.7627041702095004e-02
      2.5272637722942648e-01 -1.1635840476893508e-01
      1.2667340673996527e-01 1.8088617400253224e-01
      1.3066189721559596e-01 -1.0004735001221604e-01
      8.9737538569923114e-02 8.0489195927116244e-02
      -1.9808181109563724e-01 4.9382862809151684e-01
      -1.5449342155512419e-01 1.3904505517950499e-01
      -2.2620008388015536e-01 1.0505942113890399e-01
      6.0743464801061596e-02 8.5050521471210727e-02
      -2.4695378673901403e-01 1.8372135576227519e-01
      2.4819674213073592e-01 -1.7373836895753478e-01
      8.1491545313876965e-02 -2.2466567774199339e-01
      8.4206408318339091e-03 -5.9065715590948156e-02
      1.8679355259566174e-01 -2.3542436744344225e-01
      1.9134802635713108e-01 -1.7381109661130666e-02
      2.1075375719633280e-01 1.0634829765505309e-01
      2.3732680326781166e-01 -1.1145133180616820e+00
      -1.5025282516922389e-01 -1.4607496069355660e-01
      -1.9314806462353425e-03 -3.9402741433899498e-02
      -2.3257352323167869e-02 -4.7426514145144698e-02
      -1.1727943634528744e-01 2.1422116041864600e-01
      -5.9865768389824110e-02 -1.7377638941623375e-01
      1.7170660712034710e-01 -1.3497919500092428e-01
      1.8327872274036758e-01 5.3489587944068950e-01
      -8.4482054316469185e-02 -6.5452043355989628e-02
      -3.0107768765485238e-01 -9.6142046999717318e-02
      -9.8395647743824387e-03 -1.9624886485178517e-01
      3.1744719052755738e-01 2.0391866843256537e-01
      -2.0128950576116633e-01 5.1808185953557538e-02
      -1.0213071195463209e-01 -2.2459332835502510e-01
      7.6146473448031994e-03 1.1268818953131500e-01
      -3.8215494137728351e-01 9.6898393507859726e-02
      1.2915055670316439e-01 1.3513719105368319e-01
      1.6865452437893658e-01 -9.6469453710360684e-02
      2.6562473060157271e-01 1.1595477712016250e-01
      -7.7138443910245408e-02 -3.1745784576093500e-01
      2.8284037456985511e-01 -2.5870612804456911e-01
      2.9686585019510892e-01 2.7598101252250323e-01
      2.4298027388291152e-01 -2.0546525912500704e-01
      9.0642001256711034e-03 1.5635694816774706e-01
      -3.2063213576688998e-01 3.7895094551830030e-02
      3.6419939291712639e-02 -1.2811147444018794e-01
      2.6854977194874671e-02 1.5835879887689930e-01
      2.1071330260603441e-01 1.9387596731984302e-01
      -4.7106405312245164e-01 -1.0860125885988657e-01
      -1.0417982371360261e-01 -2.2695484798490654e-02
      -1.3083506008134341e-01 9.4938451054322165e-02
      1.0816871915114801e-01 1.9385047938447361e-01
      -4.6776868546428257e-01 -2.0980381413378296e-01
      -1.5836776552141310e-01 -7.1708610583080590e-02
      1.8924266361090147e-01 1.1273370238244790e-03
      8.1887718829636871e-02 -1.4734797288045776e-01
      -3.6040352705339264e-02 -3.8004359622738779e-02
      2.2981455102898129e-02 -1.0878594691850543e-01
      -1.7059804764778388e-02 2.8805493969427459e-01
      -1.6098898978573001e-01 -4.7924988721548864e-02
      -1.6756625993330782e-01 1.9043026107765793e-01
      1.9472195740740381e-01 -1.3260438603362742e-01
      -2.5453335329987281e-01 -1.8426857867633364e-01
      -1.9128370236550677e-02 -1.8903838362092369e-02
      4.0658555889557679e-01 -1.4736150011069216e-01
      1.8678813025673627e-01 1.8046490640942695e-01
      1.5503583338318946e-01 -2.1336183922048113e-01
      -1.4648992744202152e-01 -2.3236690384688868e-01
      -2.1398089588239375e-01 -1.1034108262415947e+00
      -1.1938576543639189e-01 2.7382649075134807e-01
      1.3155496382711749e-02 -2.7373088013433083e-01
      -5.7744474128778800e-01 -1.8462672858081355e-01
      -1.9587238384497049e-01 4.6503156137017262e-02
      9.7450552145626340e-02 1.2528044145763584e-01
      3.4575414346148213e-02 -1.7303643094710841e-01
      -1.0464619085207190e-01 -1.5232125510331268e-01
      1.2837741563087557e-01 1.8364143054352958e-01
      3.2974261306256358e-01 3.4132858527448606e-01
      1.5784250606656672e-01 3.0321710564049958e-01
      1.4951690977657323e-01 -3.0280619658650615e-01
      3.9756416779439301e-02 -1.4508374752911876e-01
      4.8185127033866355e-02 -2.5990197583767992e-02
      1.9559722624631840e-01 -1.9336891163837547e-01
      -2.0310990027538367e-01 2.6505897570790699e-01
      6.9942151372012137e-03 -2.5398832502803614e-01
      -1.3325276170570793e-01 -6.3073165122492503e-02
      2.8365812973136739e-01 5.7192976980232922e-02
      3.1806835342882332e-02 6.0250354418712029e-02
      1.5469655932348408e-01 1.3824590782109666e-01
      -1.0265270662152082e-01 1.2287692634427283e+00
      -2.1103421826174387e-01 1.3247807733320599e-01
      -1.4788375028048445e-01 4.1572719837996895e-02
      1.8234037413750303e-02 -2.0279302372142938e-01
      -1.2211321260997336e-01 1.2094535283422842e-02
      1.4473450661617460e-01 -1.6780875052610855e-01
      -2.5533669690315519e-01 -2.2638714352526806e-01
      -2.0928998491223685e-01 -2.4899282841806764e-01
      -2.2008083995299701e-02 1.4162004975987588e-01
      -1.5027643047762500e+00 4.9184395275449051e-02
      8.9143097736346807e-04 3.6812800025429115e-01
      1.4140526835522432e-01 -1.0469071630897483e-01
      1.6417594225433754e-01 1.0375968638047374e-01
      -8.9471493205867536e-01 -2.7929969015234207e-01
      7.2015731050861662e-02 -1.6815234535122281e-01
      2.7328532295339858e-01 1.1770474712026525e-01
      1.3640757754276459e-01 2.1566234084541586e-01
      3.1688882885932565e-02 -2.5724612550531312e-01
      -1.1140514117136080e-01 1.6404999015464189e-01
      -8.0824386590586633e-02 -5.7281302724949898e-02
      -3.8026142836925197e-03 2.1566879901145003e-01
      -8.5842387021847585e-02 -5.5593972375948916e-02
      -3.7915102807926794e-02 -3.4364680826271914e-02
      1.4923926309723147e-02 -3.1143679750492520e-01
      -1.4394086771223225e-01 -1.1571724330383203e-01
      1.2772253345487394e-01 5.0784922012945738e-02
      -6.5639011910639353e-02 -1.3245472607452555e-01
      3.7856055257155891e-01 1.2061730502282753e-01
      8.8247467613283160e-03 -2.2867975582603040e-01
      2.2655856902069571e-01 6.9625815481006503e-01
      1.4376347769782186e-01 -2.4413760971183185e-01
      9.5748152392845204e-02 -3.8647097955788789e-01
      -5.9847072499487264e-01 -1.3967067869793370e-01
      5.5038549305495163e-02 3.4634867844198025e-03
      -1.6270234330768035e-01 -2.4882734403042975e-01
      -1.1472879859199110e-01 -1.4966916584510090e-01
      -1.5787860499191747e-01 -1.6826492111472460e-01
      -2.0869379000796959e-01 1.0250395791897038e-01
      -2.6633101166916279e-01 9.1204014917084228e-02
      2.3075818709376139e-01 4.2324071592087048e-01
      1.2975303253223064e-01 -8.1902900983133048e-02
      -1.1385835314827757e-01 3.0705490309825739e-01
      5.5923605681343712e-02 -1.9591432437612735e-01
      1.1151303030965133e-01 1.4284796384893617e-01
      -1.2045878935731379e-01 -2.9253553605367738e-01
      -1.3377345104050578e-01 9.7794545952731751e-02
      -1.7654269114895282e-01 -1.4452913837155662e-01
      -2.1366043275354668e-01 -1.5840707654178374e-01
      -3.7113983875493411e-01 1.6708465661453417e-01
      3.2678596614399515e-02 2.3058945159888569e-01
      1.7100789444465900e-01 6.4742433734218940e-01
      -2.1332957612025893e-01 -1.7517131527292015e-01
      -1.3312438497663684e-01 -1.6869265962283095e-01
      -7.1382150203424824e-02 3.1534632500144255e-01
      2.4459765126879536e-02 -6.7789618875574123e-02
      -4.5791625756963571e-02 -2.0709403658247291e-01
      -4.0436488463826059e-01 -2.2209026921444214e-01
      -1.6913360785143761e-01 -1.5807133152624642e-01
      1.4101772179272065e-01 1.4180566555488414e-01
      -5.8524631579490527e-01 -2.2472457755378300e-01
      2.3997479546023473e-01 2.1128036117844409e-01
      1.4839833590999121e-01 3.0197350438089615e-01
      6.6158802233409461e-02 1.5744913457847707e-02
      -4.7638976021476453e-01 1.1971097912745816e+00
      1.0698412162651610e-01 2.4445253940155146e-01
      -2.3329740794063678e-01 -1.7117005184542017e-01
      7.8231860783281731e-02 -1.3465203828696631e-01
      3.7368619583852258e-01 -1.7281391436181309e-01
      1.1299675277832023e-01 1.4407519022778678e-01
      1.4184982964875698e-01 2.2368528205986965e-01
      -1.4739618381384256e-01 -3.1030175811232491e-01
      1.6118982968458340e-01 2.9373235850632667e-01
      1.0987897334575283e-01 -1.3682547506530699e-02
      1.4481292015136532e-01 -2.2087311200819421e-01
      1.5761837859129349e-01 -2.0469327094303180e-01
      -9.2659759436483996e-02 1.7707364014076996e-02
      1.7513004370816568e-01 -2.1088668000344835e-01
      2.1657002521128768e-01 1.2563934135828475e-01
      1.0469619316085005e-02 -1.2176612586848608e-01
      -1.3804156923944644e-01 5.2318546143572975e-01
      2.0638882461292934e-01 1.0733134001142279e-01
      1.8360699308045750e-01 1.6029246449186424e-01
      -2.2837272481548904e-01 -2.4243377921281814e-01
      -2.5871243158493529e-01 -2.1728637100697856e-01
      1.6259036168549179e-01 -7.8092971962859761e-02
      -1.6152996484772289e-01 -8.8909389964932205e-03
      -1.3076059178981977e-01 -1.6916644342024073e-01
      -2.6922472294965061e-01 9.6188633947191030e-03
      -1.1902404480487848e-01 7.3464972404971007e-01
      -1.4932273685882030e-01 1.4472087554607538e-01
      1.1326164909379747e-03 2.3170037027533846e-01
      1.3451974637555386e-01 1.8713831557983249e-01
      -3.2974510615355934e-01 2.4037855201324128e-02
      2.3707272549903571e-01 -2.4844020674364251e-01
      1.0008587797636180e-01 -1.2407527718171996e-01
      -1.8381963791412109e-01 -7.3903574606109509e-02
      2.8313011849876918e-02 1.9056133953769952e-01
      -1.6370554278577104e-01 2.2750400445793431e-01
      -3.5653704997067509e-01 5.0334891618397992e-02
      1.0194026673467377e-01 1.9267241904117294e-01
      -2.8160066929312655e-01 1.6420909532130054e-01
      -8.7158306243400089e-04 3.9371478664713508e-02
      5.4064588945021287e-02 -1.1488542384597139e-01
      -1.2816828681971096e-01 2.6707135071370780e-01
      2.1601135295184584e-01 1.4431465935385762e-01
      -9.7498493667471486e-02 1.3668705688021229e-01
      -6.7742273019584812e-02 -1.5598631034467628e-01
      4.6057882464489663e-02 2.3739434895006156e-01
      -2.8156351123951967e-01 -2.3274526612115418e-02
      -6.2266070714813504e-01 7.7909004718117181e-02
      1.9754085408454541e-01 3.7338372722818186e-01
      3.1021897506375667e-01 -8.2056762986555606e-02
      1.0967909453285801e-01 -2.9830618749176924e-01
      -2.6101879876714580e-03 1.2983281265949727e+00
      -1.1063928343723144e-01 2.3353686646329835e-01
      -1.5766672538856707e-01 2.3597130320910914e-01
      2.5382222142801836e-01 1.2082828110574520e-01
      2.8518602733497659e-02 -2.6356828305119551e-01
      1.4927198342915102e-01 6.6838496543495815e-02
      2.9955399627171225e-01 -1.5038837570932828e-01
      1.4431006643165700e-01 1.1733195954158332e-02
      1.7387806687772212e-01 3.1802329921267558e-01
      -1.0722287440257733e-01 -1.1865243143432921e-01
      -1.9136754661122291e-01 -1.7457592689338200e-01
      -9.1402644018211160e-02 1.5271122458093067e-01
      -2.3906211421323356e-01 -1.8411615213384350e-01
      -9.6092897790005918e-02 -2.0689726216156792e-01
      2.2207552698613026e-01 -1.8567689754002784e-01
      1.9998125637098363e-01 -3.8229171878625116e-02
      1.5455028309902677e-01 7.2390304105014269e-01
      -1.0471416065988727e-01 2.3535650894573146e-02
      -2.3059123752179828e-01 -5.4971848753814079e-01
      1.8166026419853257e-01 -1.6123691343467461e-01
      -2.0150303138253289e-01 -1.1267087417485404e-01
      -7.8100680001320574e-02 -5.0724660375673407e-02
      1.7328073128669977e-01 7.9169922667448725e-02
      1.9641408867166835e-01 -1.3328943355996112e-01
      -7.3558810917123060e-02 1.4955768861716279e-01
      -6.2477081810867037e-02 5.6688747980456433e-01
      -3.2063000585155592e-02 -4.3116250515973863e-02
      1.2125087712419133e-01 2.0962394544073084e-02
      -2.5566541981891894e-01 7.3507839020587426e-02
      -1.3560744486892601e-01 -1.8891283171801507e-01
      -7.6329844015115889e-02 -1.6434307050574096e-01
      -5.1812076981332542e-02 7.0742226118362506e-02
      -3.7090675210687679e-02 1.8209774220375918e-01
      3.2566780225796711e-02 -5.4130912567221634e-02
      1.2443814878005775e-01 1.3861225599865140e-01
      -1.4152463751281742e-02 1.4877884147302736e-01
      3.1429190669154000e-01 -1.0544425948385720e-01
      -3.2046007085213997e-02 5.5773105210330287e-01
      1.9530703475584837e-01 -1.6207947996407573e-01
      -1.2544536082504795e-01 1.6856150548457355e-01
      8.6101743946626355e-02 3.7289828135835423e-01
      1.6697696170068918e-01 1.7874266936580463e-01
      1.3801753740087666e-01 -7.7803007251636871e-02
      -1.7476769376313342e-01 -3.7634167426463380e-03
      1.4482685898890008e-01 -8.9562089132296491e-02
      -3.5011388661553711e-01 1.9408537740050230e-01
      -6.8821487114033320e-01 4.0882469844654913e-02
      2.5709720620235244e-01 1.9259280123126186e-02
      1.7740885271410148e-01 2.3581575058657125e-01
      3.9662679715909747e-02 -6.1202339589606865e-02
      -3.4360695745303871e-01 6.0497314755310772e-01
      1.3854140577456658e-01 -1.1416071733117550e-01
      -1.5197098646498178e-01 2.0142325025206714e-01
      2.0533133606841450e-01 1.1004268942495550e-01
      9.9582144065489098e-02 9.4822760270772508e-02
      -1.7964060320708597e-01 4.5826756888366113e-02
      -1.8063100140567102e-02 -1.7802337472051380e-01
      -5.8767847353990828e-02 2.9230928165818526e-01
      -1.2919930292052723e-01 5.3797456446571960e-02
      2.5879406935283300e-01 1.8780399302425343e-01
      8.1855928412123677e-02 9.2206156099763625e-02
      -6.8469433511999162e-02 1.3981948696713545e-01
      -1.1996343579369599e-01 1.6718957418585306e-01
      1.9398247433978677e-01 -1.6519556043657693e-02
      -1.4108116103275371e-03 1.9258615199899820e-01
      -5.8529268105456111e-02 -1.7249313258289418e-03
      -8.6681785418356971e-02 3.1429711028157803e-01
      1.4572660241041618e-01 -1.3056011327598513e-01
      1.2279676562259663e-01 -3.4375459855999307e-01
      -1.1103561485080828e-02 -1.1613912214220078e-02
      -1.5409382112354614e-01 1.8265672401618546e-01
      -1.9967102067936426e-01 -2.0501642037691825e-01
      -1.8736326677231205e-01 -7.5279853270892497e-02
      -4.8629924866633978e-02 1.3499826840515203e-01
      3.6758014906203271e-02 8.9899378441819985e-02
      -9.3385344496270811e-02 5.0851252662666158e-01
      1.9723157098096042e-01 -7.3319879099411608e-02
      1.7354494749712565e-01 -2.9955635902419170e-01
      9.2845691939862876e-02 1.3627399023169431e-01
      -1.8213706103271779e-01 -1.9898598239491846e-01
      -2.5132480356933756e-01 -1.2111272899155484e-02
      -2.3709566435088765e-02 -5.1923972319402829e-02
      -2.2719657343688793e-01 2.8226709884833301e-01
      -3.2325416971563814e-01 1.1209045175488155e-01
      1.5450265849070932e-01 -1.2330712970725440e-01
      4.1563503930720190e-02 8.8207976164513577e-02
      -1.6172032447588752e-01 -1.1829857915818939e-01
      7.6134391442740007e-02 -2.1089283902001324e-01
      1.5675031582036994e-02 1.0525088999722915e-01
      1.4972693326282599e-01 -2.0219379393561851e-01
      -8.7113077522298549e-02 -3.0914010939074266e-01
      -2.4603044394999026e-03 3.7566140876828691e-02
      -1.5929141204006836e-01 -1.1021594113644094e-01
      -1.4574985352581427e-01 -6.0507446805892137e-02
      -9.1143724338138277e-02 1.5074259880423257e-01
      -6.8763541847282630e-02 -1.8719709748407135e-01
      -5.1114736929123938e-01 2.9079676150933331e-01
      -1.8955397067995902e-01 -2.6478618227485158e-02
      9.0876869587605130e-02 -4.9853549015338477e-02
      -5.1061632467367821e-02 4.8255277102550020e-03
      -5.2760839491990319e-01 5.6761309460406906e-01
      -2.2348296165835035e-01 3.4274601906277208e-02
      1.5060815931480773e-01 2.2400016998057104e-01
      -1.7317911216558346e-01 9.4427865666450908e-02
      1.9991754443214158e-01 -9.2832990151783066e-03
      -2.7738743585149872e-01 2.4708311353046736e-01
      2.4774632288116941e-01 -1.9911894752698351e-02
      -2.8777095382629719e-01 1.0896598347474281e-02
      -2.2846081226221247e-02 -2.5227388954247915e-01
      -1.0745808391973947e-01 1.3304552581440537e-01
      -1.9077347688289781e-01 -1.7663532366133977e-01
      1.4212077682179111e-01 -2.0794965006599053e-01
      1.3755201352267662e-01 -1.7160102461017582e-01
      1.6191561856726297e-01 -1.3370970658070980e-01
      6.2295880381953071e-02 4.6291360639028153e-02
      3.8205147116129178e-02 -3.2139659604690252e-01
      -1.6468708553232336e-01 -7.8202621916084458e-01
      9.5504192857938291e-02 4.0904570557350611e-01
      1.0635131347453643e-01 -7.7454552046029732e-02
      -3.4978556838090341e-01 -1.0667642113625177e-01
      1.1179514800955866e-01 7.3001524178583771e-02
      2.2719147844315297e-02 1.6221319279609417e-01
      9.5923662575977384e-02 8.4455247361139615e-02
      -1.2257448676472532e-01 7.0452823468208511e-02
      4.2889504351651994e-02 -1.8964661606941546e-01
      1.7805518000480419e-01 4.8472017083483709e-01
      8.5481548028355600e-02 2.2231548002015494e-01
      -1.4057986592913539e-02 7.5500481955695045e-02
      -2.0449901198303569e-01 1.4541362513298234e-01
      2.5082884982751800e-02 1.3642269530780832e-01
      4.9055376559704093e-02 -5.0150914551845387e-02
      2.1830571091868331e-01 -1.6116518790498507e-01
      -1.0880340944253038e-01 -7.0797175156559353e-02
      7.1936879664463826e-02 -2.9254423326492440e-01
      -2.8793135181840679e-02 1.4854802566824560e-01
      -1.9919681978588000e-01 1.1101503232543319e-01
      1.7091983800623761e-01 -3.0657076872113373e-02
      1.3635714705397836e-01 2.4088086259089318e-02
      -2.5021557166074661e-02 -3.6184403336561997e-02
      -4.4623682046745647e-02 7.8040645822118393e-02
      -1.7316970123884476e-01 1.2195685619423213e-01
      1.7187830923476949e-01 -1.4736434412515698e-01
      -2.6845710508913384e-01 1.3094632167845396e-01
      -2.6320385622767883e-01 1.7221756383698900e-01
      1.3264734130037370e-01 -2.6177811176964589e-03
      6.1724240214482758e-02 4.5824350316109617e-02
      -2.4817332559628563e-01 -9.5311756359345481e-02
      -3.1665854261344090e-01 5.3209732839782656e-02
      2.9584066259060010e-01 -6.7134445478713540e-03
      -2.3307792490189602e-01 8.6774545609281134e-02
      7.3025612044641156e-02 3.7600815396049503e-01
      1.3235738534515468e-01 8.9281836699545758e-02
      -6.1426313492114658e-02 2.1996008326232808e-01
      -1.0645608906277866e-01 1.8140712709418738e-01
      8.6880091089928571e-02 -6.7629932913293958e-02
      2.3642715416406807e-02 -9.5468586266351602e-02
      2.0693501406645093e-01 -9.6146302527861882e-02
      1.8651146669500468e-01 5.8799060615037776e-03
      -2.6180858075559810e-01 8.3536391839224650e-02
      -8.7626420448124173e-02 -2.1517939188377269e-01
      -1.7405124509423323e-01 -1.8123110960165914e-01
      2.4850102687543502e-01 -9.4735520207693699e-02
      -3.9868543259399675e-02 -1.6367711917610581e-01
      -9.7417900735524490e-02 -2.0806753650413343e-01
      3.0546842236831068e-01 1.1799319027705114e-01
      -1.6773411586131126e-01 2.8357898308019557e-02
      1.3731849244699063e-01 -1.1233520694590916e-02
      -7.7807805113644778e-03 2.1077608232876485e-01
      1.2894875400753181e-01 -2.0700010366191227e-01
      -4.9625442670482300e-01 6.4389976091520917e-02
      9.2901662607270674e-02 -1.7213211051311669e-01
      -1.5155945316823638e-01 -3.7323631686601709e-02
      1.7654341428151996e-01 -6.2693154171823015e-02
      -7.0520794549578944e-03 -1.0598083846947301e-01
      -9.9459589431797737e-02 -6.6531240514911841e-02
      -7.8100545750332789e-02 4.1357603990580188e-01
      1.2713816373268592e-02 2.6057434440865124e-01
      5.0097005232947071e-02 -1.7588837467696097e-01
      -1.6984641046632956e-01 -3.2824026783165421e-02
      -4.9690122449184077e-03 -8.5206019009997108e-02
      -9.4471568575704764e-03 -1.5938752084877936e-01
      -2.0685577194162533e-01 -1.4306787834965140e-01
      -5.5437094400781491e-02 -1.8726462476288300e-02
      -1.9878575526459944e-02 2.0593704695883470e-02
      -4.8457821708730614e-02 6.6689372293565169e-02
      -8.3646226894088836e-05 6.8130122527450709e-02
      1.5828375083136542e-01 2.5160553266230682e-02
      8.1063793736839529e-02 2.6625588271683481e-01
      -4.1178243157530076e-02 -5.5674417026534584e-02
      4.6329590181789310e-02 2.9393307369551546e-02
      -5.8014923079208081e-02 -3.6170485088452539e-02
      -1.7218186493345753e-02 2.5380557091580425e-02
      -3.4575226910373819e-02 -4.4478675049342095e-02
      -8.6412398894645109e-02 -1.9442782825134612e-02
      -3.6903929562780595e-02 3.6001750431816806e-03
      -7.0546496913030748e-02 1.6692143094592941e-02
      5.0686286519586032e-01 -4.3408673328707611e-04
      -5.1129145763585848e-02 5.5653793451636548e-02
      -4.6047964467876727e-02 6.3284323239654966e-02
      6.8240088900856810e-02 -1.7170140555972272e-02
      -5.4648376854054614e-01 6.7875389969876798e-02
      -2.2533857243575400e-02 1.4303660604093011e-02
      -4.0374509429926854e-02 2.5934349140899461e-02
      1.4410271925088399e-02 -7.4245757419549530e-02
      -5.4841532354262340e-02 -5.8710219355989413e-02
      -1.0179917540978731e-01 1.6512552551864190e-01
      -9.9834446994298401e-02 -8.6393250327113660e-02
      5.7172366204459098e-02 2.5236708005772390e-01
      -3.9797091909867480e-02 1.5530282398898529e-01
      1.2808253134974221e-01 -1.2916668456953634e-01
      3.2872881447280532e-02 -3.9004431206599077e-02
      -7.0172331591376702e-02 -1.4250556746868656e-01
      -6.7522793891287819e-02 7.2433380158512972e-02
      -7.0002255412849018e-02 -2.8717260834060353e-02
      -6.0969155037648819e-03 -5.7866295167943629e-02
      2.3651647734067230e-01 7.8590502817834265e-02
      -5.1680065136605315e-02 5.1091496859846020e-01
      2.1555072144102594e-01 3.5794191281006978e-02
      -2.0997758699827929e-01 6.4748131629015582e-01</_>
    <_>
      1.0499841618227301e-01 3.3410797091966669e-02
      5.6906762616938750e-02 -4.6863022762732756e-02
      4.3176238925006279e-02 -5.5775038288715856e-02
      1.7572176007777079e-03 -1.1299316530361922e-01
      -1.5453857982575927e-02 -9.2287604768723722e-03
      -3.8846553876894764e-02 5.9081195032843717e-02
      8.2174101845832988e-04 8.4036222917578673e-02
      -3.1237924314551659e-02 -1.5135957338629507e-02
      5.1883933562850301e-02 1.3404586496350760e-02
      -6.5878772593351148e-02 1.1689433959151352e-01
      1.7273480552942780e-01 1.0360247536909763e-01
      -1.2264047553121508e-01 7.8501857152373455e-02
      8.1333695078231669e-02 -7.1313273712130004e-02
      -4.1987047868716097e-03 1.3369305350928271e-01
      4.3148950170820030e-02 5.7174384512922762e-02
      2.6936051056461813e-01 -6.8668429516776902e-02
      -8.5753090055259121e-02 7.3808014362827412e-02
      6.2665050192791852e-02 -6.1289669027865673e-02
      2.3142732743852062e-02 -5.1003983899267349e-03
      -1.1893413436899744e-01 6.8921079386557102e-02
      3.0793161243970961e-02 -1.1233450845751938e-02
      -6.1162848320612175e-02 3.5193727538454220e-02
      3.8428198796719604e-02 5.3647129311550905e-02
      1.5476705302633490e-02 3.7729343874898673e-02
      6.0755808547961913e-02 -7.4321372233558419e-02
      6.8083916752123372e-02 9.9563991482532907e-02
      1.4705381713090448e-02 -7.8933705364896994e-02
      2.0165372960352014e-02 -9.8497945179985807e-02
      3.2650300374158794e-02 2.3433687978563229e-04
      3.7526844735620062e-02 -6.1910985491760342e-02
      1.0245628065779924e-01 8.1567991272194523e-02
      2.6566889026092753e-02 -5.8049811321298564e-03
      3.6150711965555346e-02 1.4440086867062804e-01
      -5.9477502614421656e-03 2.2095518931228693e-02
      3.2440534898149492e-02 -1.0933879400564665e-01
      -8.7762178823006021e-02 -9.4035120370365658e-03
      -3.3284528351682219e-02 -3.6230977030519092e-02
      7.0457613736656474e-02 -1.0349017825777433e-01
      -3.3956167221359988e-02 -7.3739835743783970e-03
      5.0449946302688219e-04 -1.0956801433822427e-01
      -3.5915089283539273e-02 1.5090364906006018e-04
      -7.3817281586909020e-02 -6.3417949943906093e-02
      -9.2824741173194114e-02 6.0528902833092812e-02
      1.1674355710222548e-01 1.2845648494188752e-01
      -6.7115818504205227e-02 -1.4490355150683887e-01
      1.0472965280288264e-01 6.4132328146676368e-02
      -1.1773541301846277e-01 -1.1481341225279065e-01
      7.6414631233751446e-03 -9.4334092730544751e-03
      -6.3219514169014626e-02 -8.1845065841619508e-03
      8.0237368745978227e-02 -6.9731039838173262e-02
      -1.3937605228852771e-02 1.6596357743175433e-02
      1.0434934892801602e-02 -3.0347235305844572e-02
      2.5338661927429031e-02 -9.3871595415494832e-03
      -3.4026490458982915e-03 -6.9403230524594361e-03
      7.7014745644151351e-03 5.6211068932782273e-03
      9.0015115982667853e-03 2.5519306759388261e-04
      1.4691439181650034e-02 1.6413571688869654e-02
      2.0340961240499320e-02 -1.0420395659818686e-04
      -1.5225171221008804e-02 -5.2079799591659886e-03
      -2.4305466691977477e-02 1.9180465516753991e-02
      4.2715648468145432e-03 -1.7965621256677531e-02
      -1.1177885816516507e-02 -2.9417401106942853e-02
      8.9909045524705061e-03 1.4892980204166030e-02
      -6.1209199580033406e-03 1.2273091243798155e-02
      -1.2931856557388989e-02 2.6994236636325792e-02
      1.5064151137090432e-02 1.6342869378925269e-02
      -2.1348614450921680e-02 2.7260431363027575e-02
      -3.8102424267071264e-02 1.2431530825749082e-02
      -1.3984237620489209e-02 1.8528202201666330e-02
      -1.2881386000646812e-02 3.2004622635797846e-03
      -4.8295082217340518e-03 2.0257507945626214e-02
      -9.2715736103159523e-03 3.1756022073576973e-02
      -1.5683911958165708e-02 -2.6694195157833871e-03
      -1.2399067955756515e-02 -3.1311905416231425e-02
      -1.1131868784921369e-02 4.8861723118842279e-03
      1.3274111973130521e-02 1.4191406163603305e-02
      -1.2934235759840637e-02 -3.4242810732052084e-02
      1.0127993228575452e-02 -1.2565585323657338e-02
      -9.0686045598031961e-03 -1.6525893356253214e-02
      -8.6947298272279806e-03 1.8491670554274836e-02
      3.4659552914142806e-02 -4.4465706070927931e-02
      -4.9717233447555765e-04 -2.2423146165195397e-02
      -5.3556835080354878e-03 1.1676631589453959e-02
      2.0691826683698178e-02 1.0952100287330551e-02
      1.1726664347101488e-02 9.4644401771359962e-03
      4.4976792451730469e-03 -2.9047530879972028e-03
      -2.0555207104021929e-02 -2.2854062282148847e-02
      2.5406763776240935e-02 -4.4898577848584221e-03
      -2.1855276624031153e-02 6.2045800900638673e-03
      -1.7575392539068344e-02 -1.9093864122241538e-03
      4.2740087105170308e-03 -2.0378067475338518e-02
      2.5484240075551671e-02 -1.7394751032665419e-02
      1.7966065390603622e-02 -1.5028559034868603e-02
      -3.8248533931499870e-03 2.0335202327503746e-03
      -3.9420170509205446e-04 -2.1308639259970379e-02
      1.3903838244235087e-02 -1.3749476881773959e-02
      -4.5636006422899819e-02 -1.9497157081124875e-02
      1.7475931268628175e-02 -2.5477017069651581e-02
      4.4713058149010811e-02 1.2281810378171634e-02
      -3.4475575435390926e-03 1.9035684157421261e-02
      -3.9037342664875806e-03 2.0903185981859838e-02
      3.9112972827094437e-02 -6.1753560070039060e-03
      2.5892451591222089e-03 7.6182995644745906e-03
      1.1297400934319484e-02 -2.3682386823677640e-02
      -2.5254930139734903e-02 3.8726624676840002e-02
      -2.4915567428230836e-02 2.3627162679332347e-02
      3.0042488452823395e-03 2.4789334788427091e-02
      2.7015925771113669e-02 2.0128439787203564e-02
      -1.6167584292578016e-02 2.0114569758915278e-03
      -1.1378030340451298e-02 -5.2456882452933864e-03
      8.0050379320432594e-04 5.3104059887498578e-03
      -1.2428022523025011e-02 1.4604600437609380e-02
      -7.1759493864378867e-04 1.4671726136528875e-02
      2.7571803509882718e-02 2.7171544151767028e-02
      4.7257363050764618e-03 4.0799876899863127e-02
      6.6731964587164062e-03 5.3087890855017875e-03
      -4.3014020129631764e-02 1.7263643517807563e-02
      4.3645331227632365e-03 -2.4991622799909814e-03
      -4.3474173944911439e-02 -4.5913947831253792e-03
      -2.8853476723909120e-03 7.7212790619810515e-03
      -3.4157240587116369e-03 -4.3527325219733286e-04
      -6.4405756672526763e-03 1.6351080990467861e-02
      -2.3943124432781234e-02 -1.6247660714227210e-03
      2.3625799902639300e-02 -2.3569764841182630e-02
      7.0604154018022568e-03 -2.0344464279209339e-02
      3.0883339572652282e-02 1.6820335062721438e-02
      6.2132888077283304e-03 -1.7237279736649926e-02
      4.4902880185063030e-04 -1.9213017952492469e-02
      -8.7103395604936386e-03 8.2318434080297601e-03
      -2.7384064472545187e-02 8.0395244312098687e-04
      2.5865831402131507e-02 -2.2533210499108607e-02
      7.9786294565593473e-04 1.0918425122146004e-02
      -8.8398129897749120e-03 1.3463013524255786e-02
      1.8555303585427410e-02 -5.3260358108802501e-04
      3.9769747219892085e-02 1.2834584521296323e-02
      -8.3032714213679745e-03 1.7535357069753899e-02
      2.3982029444982404e-03 -3.2298514741746456e-02
      4.5175031152196191e-02 -2.0011232730899442e-02
      1.4485201290036217e-02 2.4297038366154249e-02
      -6.8291072945876607e-03 -3.0962473850262160e-02
      -2.5364068730916801e-05 -4.1151258346601863e-03
      -1.4612941345331228e-03 -1.0769476502447266e-02
      8.4898413640306005e-03 -1.7637523186882956e-02
      -1.0229873386921367e-02 2.2334887987310138e-02
      -8.4767102288662785e-03 -1.6467135628852499e-02
      1.9376791241356838e-02 4.8247729614597345e-03
      -4.7650930907418051e-02 -2.8973832003325144e-02
      2.4947023709326632e-03 -3.3637154823716008e-03
      1.0805350971884028e-02 2.9677975675631144e-02
      4.6068914960144510e-03 1.6190917159347295e-02
      1.4279190588024791e-02 2.4835497303190134e-02
      1.8501169215664928e-02 1.0467165940721336e-02
      1.1192455999508577e-02 -2.9075781145230888e-02
      4.7979068432145574e-03 -8.7867430177487015e-03
      -7.9873324410877806e-03 -2.3686570300587687e-02
      -2.3548050115640659e-03 -1.4952669022301072e-02
      -3.9496818329630727e-03 2.5130728796055320e-02
      -1.3083733324160256e-02 -1.7389876384016973e-02
      2.5981808424047133e-02 -1.0299047072334958e-02
      -8.0659567922372142e-03 -1.8980395828471601e-02
      1.7198858746878400e-02 3.4208225034956238e-04
      -8.7202328981089063e-03 1.9619982150843308e-02
      9.2235622773850084e-03 9.3290916048706851e-04
      -3.0074596905684464e-02 2.0615272957265604e-02
      7.6856320106882198e-03 5.1861865568919099e-03
      1.4242252421126757e-02 1.9402737012747088e-02
      2.1944253690145349e-03 1.8801358555488968e-02
      -2.0347706192744546e-03 1.4307126938405848e-02
      1.7934888611973641e-02 1.0902930910857121e-02
      -2.6102637705688193e-02 3.1529523549410902e-02
      1.9065517077238289e-02 1.6337625903224706e-03
      -3.2264923199519777e-02 2.2146236013283180e-02
      -6.1402954072641317e-03 8.5834983421910691e-03
      -4.0700767283675208e-05 -1.6507254885896681e-02
      2.0704595658591039e-02 -2.9293548671616588e-02
      1.4993078844653670e-02 6.7403963659484452e-03
      6.4972712310429163e-04 -2.0205491630597094e-02
      1.7513009317449223e-02 -4.4198897844171811e-03
      8.8177554000811228e-03 -1.4203233138699587e-02
      8.2427439003734133e-03 1.0535521515190565e-02
      9.4465016780775398e-03 2.0523950233839874e-02
      9.5149279635245720e-03 1.9608409475401149e-02
      -5.6132716588467987e-03 1.1788532578067118e-02
      4.3377728277870118e-03 5.5184121059854499e-03
      1.5558877143938216e-02 -1.9202211898640624e-02
      -1.0484707022000068e-02 -9.5178509538896162e-03
      -5.7598486645581096e-03 -2.6998039265590048e-02
      1.0921094548289224e-02 -1.9829067606726276e-02
      1.3841182544960471e-02 2.6295030621618681e-02
      9.1205056806362567e-03 -1.6871854804326299e-02
      -1.7590486205851030e-02 1.3224364822873832e-02
      -3.7678452089518394e-02 -1.6018043655902301e-04
      1.2548489065396479e-02 -8.7629581424972479e-03
      1.2435732923006561e-02 1.5678523986326999e-02
      4.0553155616997868e-03 -5.1207845139102657e-03
      7.2321666346063804e-03 -7.5747177967379446e-03
      -2.8885429739675842e-02 -2.3873746310451402e-02
      1.7920557035513160e-03 -3.0585520277556358e-02
      7.7851806134502863e-03 -3.0876368616980694e-04
      4.0357460329710840e-02 -7.3499720756581904e-03
      2.9822604689251773e-02 -1.3622223013976325e-02
      9.4463203853603368e-03 -2.3913687742747387e-02
      3.9455779669936561e-02 4.4178695274098151e-03
      -9.3868208297624225e-03 -1.9050281076260996e-02
      -1.3700917014993949e-02 -4.9956825498867641e-03
      8.4456480236969056e-03 7.5135038963952093e-03
      1.3966925431464871e-02 -9.0937432911335457e-03
      8.8867401571889604e-03 -5.6124022432659237e-03
      4.0511716880301009e-02 1.0340865374771555e-02
      -6.5950352346424851e-03 8.4975604709366694e-03
      -1.7644952610036151e-05 -1.0783325703594851e-02
      2.3459971250688504e-02 -2.3372811498419663e-02
      4.1238299212585624e-03 4.7905572415598155e-03
      3.1780796331687400e-02 1.2415518674171044e-02
      -3.8621207520028636e-02 -1.8042661710405982e-02
      3.4529971455335977e-02 9.9852108044220771e-03
      1.4102174704730446e-02 -1.0963274502442046e-03
      -3.5156557877616054e-02 -7.4732900415713953e-03
      2.0148081327118518e-02 -4.7715183532281519e-02
      2.4863126490243955e-03 -8.5863591122614987e-03
      2.7294893037679190e-02 1.9749191646398732e-02
      4.3496189376553886e-03 -2.6662153783824572e-02
      -2.2108151747685070e-02 1.0232175730013513e-02
      4.2782051306816317e-02 -3.9631205110804306e-02
      9.7445122163016575e-03 2.3136632653940992e-02
      -2.7294738525468501e-02 -1.0140374332441089e-02
      -1.7382599114920041e-02 -7.3701985442863563e-02
      3.4356971086588174e-02 -4.7816905317795231e-03
      -5.1289781816714764e-04 -2.1760491677233290e-02
      -4.6573735438926334e-03 2.1720720644025391e-02
      -3.1359873195224527e-02 -3.6734456516895686e-03
      -1.1280799661177074e-02 3.8960405320625672e-04
      -1.1214821560232686e-02 3.3073888235055998e-02
      -2.7431389178437786e-02 -5.7420636108135451e-03
      3.9071131596294609e-03 3.1050256686731587e-02
      -5.2926420994643994e-02 -5.2223210728641410e-02
      2.1034200331609822e-02 3.9732294577209760e-04
      3.1072352045499886e-02 2.7289378265175957e-02
      -1.8105353487140170e-02 -5.2955299834396737e-02
      -2.3689830256579118e-02 -5.3630000730179379e-02
      -2.9067869555159411e-02 -1.0395374678514693e-02
      4.6401346997288956e-02 4.1705607686304769e-02
      -3.3019984193481122e-02 2.2783744895174020e-03
      -4.3947815292090639e-05 -3.1768467793625126e-02
      3.3756044497538641e-02 -9.0576184459420402e-03
      7.3084717166475004e-03 -2.5608494102125977e-02
      -2.9489572268072223e-02 -4.1000047286347603e-02
      -8.6290371123820871e-03 -1.4253061401430320e-02
      -3.0679418246376409e-02 -1.2223634556489682e-03
      1.0999167552949050e-02 8.8021437867525053e-03
      -1.3269274321980266e-02 3.3090860762598907e-02
      2.2865175066012523e-02 -3.9292301112916699e-02
      -1.6759462418678556e-02 8.5747175322134425e-03
      -6.1277540473064765e-03 4.1879434440232385e-02
      1.7378169416297724e-02 1.5317369038602339e-02
      7.3974000055760682e-04 -3.1252464957010936e-02
      9.9667859370793505e-03 1.7564506760975356e-02
      -2.1363944986253165e-02 8.2351891678908613e-03
      -1.4456555469553370e-02 -1.4578563447421855e-03
      -9.7600697266925183e-03 -4.8498877284051832e-03
      1.6437419288146512e-02 -3.4336336871103458e-03
      2.1429039792401964e-02 -1.1426163724383854e-03
      -1.9162659073711237e-02 -5.0225995654104655e-02
      -1.6527793254171523e-03 1.9115249454684821e-03
      -1.3642367791825970e-02 1.0890204206560439e-02
      2.9525168710051754e-02 7.3003400877923192e-03
      -1.6280343185514703e-02 3.1155916357322618e-02
      2.3876949000974514e-02 1.6425331600339354e-03
      6.7981832384598232e-03 8.7749989000697071e-03
      -2.4755091497418738e-02 -2.4654781754384663e-02
      -7.3437642522468302e-03 8.0596309778744582e-04
      -6.5862224960627613e-03 -2.8554884524026620e-03
      5.8087685591941629e-03 2.4367891891730352e-02
      -1.1882612329224511e-02 -1.6253909859358453e-02
      4.5739270324898079e-02 -1.8988850843442786e-02
      1.8904992345718460e-02 1.2451346425344928e-02
      -5.5600351842711076e-03 -1.8389128564281359e-02
      -4.5137399757468853e-02 -1.3864423324214862e-02
      -5.4149261072064065e-03 7.7969926408307470e-03
      8.4544307421495022e-03 2.5921866962794377e-02
      1.1248627065080705e-02 3.3111640973730185e-02
      -4.6336252064066434e-02 -2.2079497664666586e-02
      2.3072575628561718e-02 -4.9791297836485851e-02
      5.6648848115395167e-02 -1.1159873740147722e-02
      2.9123023732849310e-03 -5.7018487259880811e-03
      1.4837066686832793e-03 -2.7829927849705081e-04
      2.3047214843636150e-02 1.8411214399220110e-02
      -1.6941116856680646e-02 4.5649391887720138e-02
      -3.0368549165334227e-02 1.4448557498821601e-02
      1.7162407963556604e-02 -3.0941331414646282e-02
      -4.1883855608838838e-02 1.1888266526597356e-02
      4.5609565615111140e-02 1.5770328315786378e-04
      -1.4195447540286305e-02 -1.2455732336438055e-02
      -2.4481022603664322e-03 -3.0219236420465968e-02
      7.8235708689741775e-03 -3.9814857611938599e-02
      -1.2081753341189787e-02 -4.4432710401398089e-02
      -1.2988596161427926e-02 9.7597347941390921e-03
      8.6500320595399478e-03 1.3987217963619410e-02
      -1.4613147038692017e-02 -9.3724387765989504e-03
      -3.9951639594354438e-02 2.7949145927925589e-02
      -1.2864172893748882e-02 5.9754960776658012e-03
      -1.3420060086842749e-02 -2.7856309825508227e-02
      2.0046897044138413e-02 2.2775774016541166e-02
      1.9133687524137733e-02 1.5135901449151824e-02
      -1.7550961348957197e-02 3.2352075038842125e-02
      -1.7262571189823099e-02 1.8564564107143736e-03
      1.8480571595111257e-02 -1.3609264288670661e-02
      2.7508174792852773e-02 2.1800130156090794e-02
      -4.1111606325676467e-03 2.5496489232467142e-03
      1.8073487778666353e-02 1.5868669572939066e-02
      -1.1014532929324715e-02 -3.1279823304275908e-02
      3.0388220676074353e-03 -3.2960638397156475e-02
      -1.3400583629498719e-02 5.1728261338694374e-03
      2.6985245774798130e-02 -4.4662368925144122e-02
      -1.7463808510541287e-02 -1.8814695017541305e-02
      -4.0515146491063355e-03 6.9190745455351569e-03
      3.6169698953334258e-04 -3.2087789301486545e-03
      9.9256935070900915e-03 2.6367842660440718e-02
      -1.3447441362421205e-02 2.1860488222694680e-02
      3.1846443331419845e-02 -3.6791977262377547e-02
      -9.5526942836929654e-03 2.0216064976671527e-02
      1.6852254284568696e-02 -2.5548952685896919e-02
      -8.0649730578231955e-03 -1.6520199896338864e-02
      8.9194486866444565e-03 -7.8967176623715644e-05
      -2.3558219051897953e-02 9.6635067447922423e-03
      9.9219630936812526e-03 -4.0088397629283075e-02
      3.0007056862343929e-03 -2.2813997269771406e-02
      -1.0934321377908821e-02 1.3268317771565009e-03
      1.0655018047105837e-02 2.9329035199991459e-03
      -1.7776590675340490e-02 -5.5509637313161950e-03
      -6.7135763104824613e-04 -3.1639780253575917e-02
      3.8726716281449842e-03 -2.8593451620026415e-02
      4.7145522342196634e-02 -4.6217845619620855e-02
      2.8001405727701201e-02 1.2950335238114702e-03
      2.2084815355143075e-02 2.8605095648079615e-02
      2.0139960528460076e-02 2.7617147359761000e-02
      -1.0934542850187129e-02 -1.6405776516440203e-02
      -2.0135571062547581e-03 5.2199309343889451e-02
      -2.4525791125410284e-02 -2.7964098663875659e-02
      -1.3045185571697746e-02 -3.7846197369825565e-03
      -2.5487142189393013e-02 -1.6736569022720766e-02
      5.9707032455493671e-02 2.9486182962315675e-02
      7.0645358448307360e-03 -3.8123648797131870e-02
      -3.2667394894131681e-02 -3.7962889710592571e-02
      2.5045638277411224e-02 1.7765185634610464e-02
      -3.3471437900881779e-02 -1.5615406418294184e-02
      -2.7018472242142069e-03 2.9944201858796517e-02
      -5.7898012962997727e-03 -4.1630383868028406e-03
      3.0368671705635793e-02 1.7022819583467855e-02
      -4.5334274215012016e-02 4.1113560995717752e-02
      2.5044732292981146e-02 -1.0204983217748627e-02
      -1.9001422093527839e-03 2.7576757762689006e-02
      2.2246610590636560e-02 -2.4905547757474208e-02
      -3.6139881923695487e-02 -2.1556925687541879e-02
      -1.1335688433661924e-02 -5.4214755979291041e-03
      1.1532678498010663e-02 5.0487285148897113e-03
      -1.3139933135236227e-03 1.3993657422774058e-02
      5.9153885302330612e-03 -1.6123225819923790e-02
      3.8934114520237178e-03 2.5098722485128101e-02
      -3.1051079910986688e-02 2.0191551964994594e-03
      -1.1277521355724724e-02 3.6102058547711924e-02
      7.3452265294614879e-04 -2.1635280395874729e-02
      -1.4804991972367738e-02 6.7641622937724730e-02
      -2.2805738171114676e-03 1.8894155737413227e-02
      8.7697575390146415e-03 1.1513680199731934e-02
      5.3758229004331130e-02 1.3210006031597801e-02
      -3.2587900445289655e-02 -5.5371453775044108e-03
      -2.9712439354773031e-02 -2.4670249330834677e-02
      -1.3589491264167369e-02 -8.1714813994163398e-03
      -2.8972638627608974e-02 2.9312006093491522e-02
      1.8836934257021317e-02 2.3938398914154242e-02
      -2.6968143298049415e-02 3.2534224363235109e-02
      -8.7070767094580403e-03 -1.1751152250633739e-02
      3.2367698354936927e-02 -9.8767262518542030e-03
      -3.2556006899607665e-02 -2.3481535297715749e-02
      -8.4304261215270180e-04 9.1590889194434998e-03
      -6.4147586764843178e-03 -1.7362236124487302e-02
      2.5535550119299692e-02 3.9249966662683378e-02
      -1.4799518808296346e-02 -2.6689391859198865e-02
      -2.1969391969296970e-02 1.5233095721331639e-02
      4.1046476152015532e-03 -2.9206620309036799e-02
      -4.5830818330202657e-03 -3.3406637236132746e-03
      -9.2801464210535414e-04 3.5789945522617342e-02
      -2.4909083763157411e-02 3.1318974945996732e-02
      3.8501730930673786e-02 -7.3898471715951363e-03
      -1.7451252773448379e-02 -2.9880577865550012e-02
      -2.5546882534541702e-02 -7.3031661972503020e-02
      2.7539420586619366e-02 -4.0394108523147954e-02
      4.3478211410556758e-02 2.8858470112783516e-02
      -1.5387049302071999e-02 -3.0132261043642534e-02
      -9.3216444622751648e-03 -2.6367867770734486e-02
      -3.9074191534557094e-02 -6.8992414184871828e-03
      8.7006178093560881e-03 -1.0190600589627060e-02
      -1.1890667087387114e-02 5.3892723921320357e-02
      1.7608022075302560e-02 -8.1534903356146986e-03
      6.2874468520335066e-03 -1.4178230639737549e-02
      -5.7129642726402363e-02 -3.0324664789796608e-02
      7.6382447286509015e-03 -4.0711126411832180e-02
      3.3683140193520575e-02 3.9363154984900527e-02
      2.7591291689850170e-02 3.5751696382110273e-02
      3.2205887731644019e-02 1.2264071682064261e-02
      7.1070943971298945e-03 -7.8566132738997884e-03
      1.3970805606936695e-04 -5.3648868271649153e-04
      2.1314573485088051e-04 -2.8436944766695827e-02
      -6.9305560097359239e-03 8.8751024008514251e-04
      -2.3449245554715750e-02 6.3340221777133101e-03
      -1.5569868643328488e-02 -1.4287426443368731e-03
      2.7455714518330628e-03 1.4884638359536470e-02
      8.6350583650175727e-03 -8.6486158144226718e-03
      1.5730959804261140e-02 1.9901907840421708e-02
      -8.4608286319624772e-03 -4.1348374740056114e-03
      -2.2448573497950018e-03 1.0776141493753229e-02
      -9.7460163992086450e-03 1.7503827316767043e-02
      -1.3793187866765578e-02 1.1509411544361626e-02
      -2.6451245448410637e-02 2.6040382586962684e-02
      7.0602285994568956e-02 -1.1479849305796316e-02
      -1.9749785856620631e-02 6.7517384850804022e-03
      -9.1789491844021965e-04 -1.7960711984081272e-02
      -1.7378953484384566e-02 1.4633948276450934e-02
      1.8320399805048595e-03 -1.0526289084151536e-02
      3.3063581694557408e-03 9.7119674016585359e-05
      -2.5904543720924631e-02 -3.4050974022066011e-03
      -2.0659254819022210e-02 -1.4823243425605453e-02
      1.4271948880682958e-02 -2.6068891367876174e-02
      1.1920851226520935e-02 5.2341916143338928e-03
      2.7251788097958658e-02 1.3542848725347821e-02
      -1.8531901944115813e-02 -9.8173392368641737e-03
      1.5691734566900032e-03 -1.0672366487670015e-02
      -1.9113630992660155e-02 -1.2029477374076272e-02
      -1.4145940708788416e-03 -3.7042628446972577e-03
      1.9169343536846531e-02 4.2806002749547862e-03
      4.9129383450323210e-04 -8.9521825779246243e-03
      -5.0839124274700978e-03 -1.0664300607319889e-02
      -8.7190467232081095e-04 -1.0530925526956975e-02
      3.1048229972265452e-02 -6.3534469669721217e-03
      2.4634523185911128e-03 -1.6051334378241466e-03
      -2.6949903776214396e-02 -1.9584524654903495e-02
      2.4010776997547219e-02 1.9334787589740433e-03
      -3.3778920843449974e-02 -4.3557850493645776e-03
      1.4750288516706485e-02 -2.1731994494246839e-02
      -2.9918973683880710e-02 9.5268700127096716e-03
      -1.2614365196574214e-02 6.3137276471838420e-03
      -5.4803304941148149e-04 -2.6827520558376661e-02
      -1.7293634312582091e-02 1.5384512970478036e-02
      5.4781057350418915e-03 -1.1328677283624081e-02
      -2.2010162130300477e-03 -1.7030005227231409e-03
      -4.4017421777004941e-02 -2.1315459463407124e-02
      9.9634767175185816e-03 -7.8017093946368868e-05
      2.5357973735306311e-02 4.2612965774881115e-03
      -8.5790336913340627e-03 2.4948675229870255e-02
      -1.4852401115260707e-02 3.8606348193245463e-04
      1.4983741856222421e-02 7.6568820063805778e-03
      2.2716461829203640e-02 -2.2211927824213145e-02
      6.0557284197464332e-05 -1.0610621713123014e-02
      -4.0281151404401054e-03 -1.2258773937825542e-02
      -9.2118624957721537e-03 -8.0052493898727774e-04
      -4.6229279746051542e-03 2.9749740875423772e-02
      -1.0997745242973317e-02 -3.0895239508876671e-03
      2.1321918832935254e-02 -9.2381171409442586e-03
      -6.0843375378141990e-03 1.5277188753436330e-02
      5.1951825368378224e-02 -3.2598953144453678e-03
      -4.5496987076083642e-02 2.8577197399036237e-02
      9.0412831574052752e-03 1.9979644648257518e-02
      -1.8870714951062968e-02 3.3741582384843026e-03
      5.8718810786759033e-03 1.3463680144379691e-02
      9.4965493523793340e-02 7.2008185474318840e-03
      -1.9430262026837713e-02 5.7578369243157665e-02
      -1.2620172786133102e-02 2.6630158294289842e-03
      -4.2657680777875590e-03 -1.7391503033129183e-02
      -3.0662019842927022e-03 1.5394470219700088e-02
      5.4056825628611893e-03 2.2043042836911532e-02
      -2.5748764782676024e-03 3.5886019446022641e-02
      -3.8421625858478161e-03 2.1422631222891668e-02
      8.5315454827683355e-03 -1.9464630984137542e-02
      2.1108542694630326e-02 -2.5552755140684665e-02
      2.9227414012437052e-02 1.8010493842387686e-02
      7.2090294316170351e-03 -4.4467231588760536e-02
      -7.6409616661660762e-03 -1.3871696012221931e-02
      5.7880828724660811e-03 -2.0331029667216109e-02
      2.9672103385565186e-02 -8.7161493180062874e-03
      9.5851501877150160e-03 3.1111026976650802e-02
      1.0277462952404550e-04 3.4887357747119367e-03
      8.4534772469692758e-03 1.5658193075961894e-02
      -7.3781333599998271e-03 1.2243939271806895e-02
      1.1985135114208170e-02 -1.8131762332980791e-02
      -2.3995661234793996e-03 4.9071918951355811e-03
      1.9644369982762779e-02 -2.7440965162610676e-02
      8.1493557497160380e-03 -2.2443576825599030e-02
      -1.8011753153515875e-02 5.1790763824252031e-02
      -1.6951355975773883e-02 -2.5383291823159442e-02
      -1.2128719127511844e-02 -3.9867459842307017e-05
      9.6440208009752112e-03 -2.6754537458262683e-02
      3.5238158485668735e-03 1.9871424939198495e-02
      1.7547279473985957e-02 3.5213331882929584e-02
      -5.4265611122866677e-03 -3.3347687664607800e-02
      1.2893426113280589e-02 -1.0787998961217961e-02
      -4.4732645864810613e-02 -2.2287153714650031e-02
      -2.8584686425784508e-03 -2.5570020550186482e-02
      -7.8797550130093041e-03 2.7312367327308970e-03
      2.9594976743703257e-02 5.8457260335354781e-03
      -4.5074182719040311e-02 6.6226960003626767e-02
      1.1145088137473006e-02 -3.9377101127593628e-02
      -6.9317589361526802e-03 -4.7002947391068797e-03
      6.4880325414726908e-03 5.6900956580574216e-02
      6.0976291972626023e-02 -4.4207257920147895e-02
      2.0505435957736386e-02 -4.1540000831753209e-02
      1.8185536080679396e-02 2.6755800390433331e-02
      -2.7830235772960520e-02 3.0501895441140098e-02
      -1.4753290540411143e-03 3.3076887255968825e-03
      1.6844787277326308e-02 -4.3265712017814588e-02
      5.6977937339771710e-02 2.1964429887773432e-02
      -1.3402032499627643e-02 4.3261435448702659e-02
      1.0672973937337659e-02 -4.9794796286232644e-02
      -4.0492297824105149e-02 -1.9928552497392855e-02
      2.6106865853186708e-03 2.6358579350722538e-02
      3.3265104531515571e-02 1.7246806709703331e-02
      -3.3546404977558328e-02 6.6806182721456274e-03
      -1.2548558151323646e-02 9.8605950578777874e-03
      3.1778598726825272e-02 1.4267454826493373e-02
      -5.0311854827029710e-03 -8.5977197678967377e-03
      -2.7079677075618657e-02 -3.3638828558207420e-02
      -5.0353177873533675e-03 2.6345318797352413e-02
      6.6994434550515574e-03 1.3986710449961245e-02
      -3.9327450220961492e-02 -1.1947438439871070e-02
      4.7997920212561496e-02 -2.0981033688359699e-02
      3.3180541829258260e-02 3.5363129999605634e-02
      2.8633218641162968e-02 3.2753156263411820e-03
      -3.8206103120892350e-02 -3.5629692039940479e-02
      -2.0969970527892749e-03 1.4998094341211214e-03
      2.9717716322442342e-02 -3.5373959940590186e-02
      1.5045784722174644e-02 2.6488647935353656e-02
      -4.7154454121732761e-02 -1.9273240504814954e-02
      -4.6530886467736465e-04 -4.7886696130955274e-02
      4.4415656506845376e-02 -6.7035212636299291e-03
      1.8432383054970088e-02 -9.1100373585209816e-03
      2.4969067145822524e-03 5.4480790091869478e-02
      1.5985299221268519e-02 2.5189150236135976e-02
      -2.1065469394219691e-02 -2.4338757054574237e-02
      -1.9555424128566264e-02 4.2084512463582836e-02
      2.6614196263772809e-02 2.5833477585001555e-02
      -1.1882656953747125e-02 2.1744844164595309e-02
      -2.0827709892733477e-02 -2.2496894391025122e-02
      1.8512921076597810e-04 8.9111714533289844e-03
      2.0311530011981973e-04 -3.5608384481540009e-02
      -1.0620476314092535e-02 -3.0168048938398938e-02
      2.4691040818438259e-02 -3.0076496373178233e-02
      -2.3311248293534249e-02 6.1471927211766012e-03
      -1.4975431222987711e-02 9.3332250239331737e-03
      1.2392489162332296e-02 -3.6140235617869623e-02
      -3.0446777300485603e-02 -1.1226532820282539e-02
      3.3279438585910146e-03 -7.5276839028880493e-03
      -3.1162379762607044e-02 -2.8825861402938146e-02
      -5.0676691535860984e-04 1.7153760146991881e-02
      3.1774193608454869e-02 2.1517690671867269e-02
      4.8157392300388208e-03 -2.6267517648284465e-02
      -1.1424653191691227e-02 -9.9838168222359525e-03
      5.8379883284735484e-03 -4.5719857833174123e-02
      -2.2460102823436631e-02 2.7449272799157459e-02
      -3.5301484000761184e-03 5.2583112369739195e-03
      1.2085619147598634e-02 -2.1110545474128713e-03
      -8.1429699079765046e-03 -2.3095432836735087e-02
      3.6570335538951698e-02 -2.8037409652468107e-02
      9.3814543728322208e-03 -2.1492713363139546e-02
      -6.7823528447015276e-03 -1.8992696608954154e-02
      -2.5403301905977470e-02 -7.1324097172122481e-03
      -1.3555293281198073e-02 -3.6051499650775441e-03
      4.4850452433547558e-02 -3.0494770802712529e-02
      1.4467242865625717e-02 7.3396763321410610e-03
      2.1152223319608716e-02 8.6444746056716596e-05
      3.8662058885934804e-02 -6.5511227035630254e-02
      1.2785269692686100e-02 -1.6366403508703518e-02
      -1.0534695757536254e-02 -3.0412484640269424e-02
      3.5422739404523240e-03 8.3440318937872994e-03
      -2.6292055655285078e-02 -2.9381699889983359e-03
      2.4782669075179224e-02 -3.0809203251726426e-04
      -3.3635742373064867e-02 -1.3228315517377671e-02
      1.0943716386774112e-02 1.8718042613205792e-02
      -5.8188892266186299e-03 -1.1916598612311941e-02
      1.8480042621487489e-02 2.8114292042635942e-02
      -5.6657286081712947e-03 -9.3603203791212848e-03
      -2.5263306761956286e-02 -3.5058263898134386e-02
      -8.9505158892924253e-03 1.1269914692172262e-03
      2.2036454054931254e-02 -3.4833988858321563e-02
      -4.2488948929386957e-03 -7.5999983394711805e-03
      -1.1670554719128215e-02 -1.3758553286304650e-02
      -4.1262727834723914e-03 -8.6227813357349047e-03
      9.0752923038525963e-03 4.5931399356982566e-02
      -1.9304587540251667e-03 7.6459508342180656e-03
      -1.4656691410524699e-02 -1.8364812123797914e-02
      1.3327249764131894e-02 1.6578626867542141e-02
      -1.8186733673103077e-02 2.1797438783274510e-02
      1.1601411998646076e-02 5.1255291778039884e-02
      -9.5004320465028151e-03 -2.9245396407234676e-02
      -2.7128562590781540e-02 -2.2780820201706416e-02
      6.5894230117386366e-03 3.6596651808842068e-03
      -8.5428207446307785e-03 -2.5173445711520689e-02
      4.7014235069152234e-02 4.2573878110348153e-03
      -4.0545627340235611e-02 5.4530588763389586e-02
      2.1413232798836606e-03 -3.5785878651505267e-02
      -2.8683069045746117e-02 1.1494958240156689e-02
      -2.5862604498825846e-02 4.7539009255695812e-02
      -1.3163098328587412e-02 -4.9565201223002370e-02
      -4.0773400363734299e-03 -6.2765119154824314e-03
      -1.1101781365284469e-02 1.8366081545840848e-02
      4.7773757430179031e-02 -3.6365523702428140e-02
      1.5410711410645549e-02 -4.2828030429884166e-02
      2.9530727823033766e-02 2.4663781836879378e-02
      -8.5912982667677561e-03 -7.1505961507525981e-04
      1.4352991836235033e-02 -2.1873673410420374e-02
      -5.5887185992586188e-03 -2.8651052874377629e-02
      3.5247169919956384e-02 1.8783014769203320e-02
      -1.9660740964990778e-03 1.1288847850459850e-03
      1.1535278853784971e-02 -9.3062129849481728e-02
      5.2380279908414680e-03 8.2951603402881997e-03
      -1.6902217836265204e-02 2.5555117459990284e-02
      4.9192622445288318e-03 -1.1226486313986116e-02
      1.5209520145565085e-02 1.1176209547006739e-03
      2.7382385029835393e-02 -4.6119294154723421e-03
      3.1065836974398242e-02 -1.4947622785815781e-02
      -4.3941553548550824e-02 -1.8666581821882276e-02
      2.3435175637672379e-02 -5.0013281653695993e-02
      -2.0646033578208624e-02 -5.3357743510063773e-03
      -1.1360817726419782e-02 -1.5333391083206574e-02
      -6.5335108540138685e-03 -6.2829090496878334e-03
      2.9839052216192687e-02 -1.9774866696683345e-02
      2.5446177767928329e-02 3.1206506716882406e-02
      2.9134046362412860e-02 -1.4390248319238533e-02
      -1.2953274199793382e-02 -4.7011433958621680e-02
      -2.8514054455771559e-03 -5.0417404910513497e-02
      2.9294834761348587e-02 1.6421928335439002e-02
      1.0649229852962547e-02 2.7784914008669514e-02
      -5.1560182963565106e-02 3.0103709154191689e-03
      2.0394785130544150e-02 -1.7573815651503871e-02
      2.8298055935524879e-02 -1.6320736765349300e-02
      -6.9467091871548807e-03 -5.3708481210659846e-03
      1.2355551173388060e-02 1.4931097904044859e-02
      1.4899740416561041e-02 2.8732430654191066e-02
      -3.4890226859985045e-02 -6.0204451280258635e-03
      2.9797584132494719e-03 -4.5852100584570406e-04
      2.9391825092409405e-03 -3.3227738753050844e-02
      -3.0948054093414324e-02 2.3172741060587282e-02
      1.1956523528811474e-02 1.0424604235471579e-02
      -4.8374099368750055e-02 2.6468197387758016e-02
      1.2113909168284958e-02 -2.7023175258585972e-02
      2.4908603462497094e-02 -5.0419316542754423e-02
      2.6744389143260227e-02 -1.7062851538404793e-02
      -1.8730177212523017e-02 1.0123002955774401e-02
      3.4359430225178911e-03 -1.8949411217232470e-03
      -3.4941132016014224e-02 -1.8604453196280794e-02
      -2.1601646157348268e-02 -2.3081082170316375e-02
      4.4121748442696826e-02 -3.0208191056029399e-02
      3.6415421317471323e-02 -3.3296073134946945e-02
      6.4429556684204824e-03 1.5151226238820525e-01
      3.8628143802430730e-02 1.2364283577749488e-01
      -8.5443481068057520e-02 -9.1623602830401395e-03
      2.0094833674255963e-02 -3.7224616077747352e-02
      -2.9625107615316511e-02 2.5298030842859424e-02
      -1.9179905887164082e-02 -8.2796289551450283e-02
      9.4369254819481760e-02 -5.4742573877726332e-03
      -5.9334780346989448e-02 -2.4977027184494134e-02
      2.5338050821785058e-02 -5.6704391866556396e-02
      9.5824086288531882e-02 -3.8269527662517511e-02
      8.9667144981652888e-02 -5.1511370788428365e-02
      1.3139305147701869e-01 7.7142057696154134e-02
      8.3134993157627148e-03 -1.4645240302298215e-01
      -6.3637134531243963e-02 -5.8661883693794381e-02
      1.3309880368393906e-01 4.5863303599791435e-04
      4.5789192359851169e-02 -3.4047234277329412e-02
      7.3842794174626233e-02 -5.8750011172311239e-02
      -2.9736834971890395e-02 9.9600348517234302e-02
      1.0407964727442997e-02 -2.4509819798837512e-02
      1.3329405905714289e-01 -1.7426062036035631e-01
      -6.6935685792130443e-03 3.9119283544883851e-02
      8.2561751277546627e-02 1.7481530984324183e-02
      4.4103628320820251e-02 9.8012439298413523e-02
      -8.4319903022672629e-02 -1.3546263418980209e-02
      1.8606586104269383e-02 -1.2179555540661170e-01
      -8.5410170529035111e-03 -9.8435375133355846e-02
      6.9830490316803814e-02 -2.4960679952685586e-02
      1.4543814165494010e-01 -2.6629061570911060e-02
      -3.5470917227805848e-02 1.5146147207652402e-01
      -2.0899367419365045e-02 -2.2236803061337100e-03
      4.5468352856503719e-02 7.2457139403230855e-02
      -8.4213372145256621e-02 -6.3972355303080861e-02
      -1.4151337363730074e-01 -7.1069141886212592e-02
      -5.5326361429458917e-02 -3.6903055648904309e-02
      1.5164535711631030e-01 1.6360666406613789e-01
      -8.2829711614844592e-02 5.0416716081518376e-02
      1.0093967262075298e-01 -9.4348670982694560e-02
      -6.5464627058702707e-02 -7.1999387813968641e-02
      -5.3979328784843524e-02 2.8983458419715669e-02
      1.1058471072569702e-01 1.2255482836294337e-01
      -8.7421681360509415e-02 1.3847742109868505e-01
      9.9504240171184408e-02 -1.3371406245825562e-01
      -6.4730106397815498e-02 3.8768986667524187e-02
      -4.2658497160749854e-02 -1.4022086485676111e-01
      6.4758159796750217e-02 -3.2488126405798935e-02
      -3.2887053205413520e-03 -1.1493082012979100e-01
      -1.4188300169564155e-01 -4.3033533946516760e-02
      -7.0224966846091808e-02 -7.4429050031322677e-02
      -1.0337173349910028e-02 1.3555291375168026e-02
      -4.0665275229258939e-03 1.2893427741755559e-02
      -1.0882791570882417e-02 -3.2416627048130683e-03
      3.1108763135989478e-02 3.6775413178180616e-02
      3.0456898893609198e-03 -6.2739726281416390e-04
      1.9413876457222146e-02 -1.4603389370320104e-02
      7.8084636155026609e-03 -1.0243097032776415e-02
      7.9527592900151805e-03 3.1836213899691206e-02
      7.0886916964029338e-03 9.3667800976807020e-03
      2.6262468526215402e-02 -5.0462639167534089e-03
      1.0593534771087968e-02 6.5297914374751733e-03
      4.4788945645463747e-03 2.1407823642104574e-02
      -1.4068031464432761e-02 -8.9795265329993528e-03
      -1.6181314795141018e-02 -5.5938270784743104e-03
      4.6680120993049818e-03 1.9589376722649265e-02
      -7.1310870793779388e-02 7.6489550577213145e-03
      -1.9604408966988496e-03 -1.4246732120721918e-02
      6.1654162813315067e-03 2.5928784282614449e-02
      5.2296675321272150e-03 2.3821698386896201e-02
      -7.3079964619812677e-04 -9.6026357952353099e-03
      -3.5931704979453070e-04 -1.4608902178715254e-02
      1.5778520064198942e-02 -2.3118102077934282e-02
      -1.0786374968954958e-02 -1.4801657355253692e-02
      3.0014402762606365e-03 -3.4196557665241234e-03
      -8.7000276751623886e-03 1.4001638209375606e-02
      -3.0329884622917226e-03 2.3566242893797478e-02
      1.6644681143192862e-02 3.7588222289091582e-02
      -2.8466631689802024e-02 -2.2933678626178629e-02
      -1.2554496833192769e-03 2.9975117838391106e-02
      -4.2015165821761369e-03 4.5817407167125972e-03
      -1.2310967437218544e-03 -3.8037452935279492e-03
      -2.1000254904050022e-02 -1.1121942105742532e-02
      -1.3064514427832473e-03 -3.3952508922907604e-02
      2.9859856944898299e-02 -3.3840594474899371e-03
      -2.9502009462527286e-02 8.8686585848294572e-03
      1.0936626096303574e-02 1.7111385631708692e-02
      1.9519954501513243e-02 1.9488399393551632e-02
      -9.0907279263960812e-03 2.0763695676229779e-02
      1.9531406552529763e-02 1.1300557388878410e-02
      3.5525407301166272e-03 3.6677761749927644e-02
      2.5718677346594471e-02 1.5309562188593145e-02
      3.5511671489559288e-03 1.6817610840894177e-02
      -1.0205382603801183e-02 -5.9125411853415237e-03
      -1.0115277010709916e-02 -3.7738650055855597e-02
      -9.0194367164765157e-03 1.1307657880459955e-02
      -8.6023414531088936e-03 3.1047510988210761e-03
      4.4557305116447843e-02 5.5925829504918714e-03
      -8.1659124502209623e-04 4.0341169236482862e-03
      -6.5686434850712443e-03 -5.0682351544617445e-03
      -2.3732754362035209e-02 -2.8165295687913490e-02
      -5.1253102356404234e-02 -4.8889131487813348e-02
      -1.6438013787136892e-02 3.4445556584791481e-02
      -3.1806174838495418e-02 4.0756390641965068e-02
      -3.1351179998059094e-02 -3.8282363299143763e-03
      1.8084755797065068e-02 2.6587737447083919e-04
      2.2314300169736269e-02 -1.2316140121532535e-02
      -1.5320064420826021e-02 -4.4163731760565671e-02
      -5.7122921974038666e-03 2.2226212165177683e-03
      -2.4328698297269507e-02 -3.0988211249865758e-02
      8.1570786890673205e-03 -4.5710808834295069e-02
      -8.3571806535325033e-02 -1.8705205681390849e-02
      3.2771041197632411e-02 -9.7022333838057261e-03
      -3.5634716293028799e-02 -3.9179785473218119e-03
      -2.7533662755683634e-02 -5.7504693478791398e-02
      1.6723700900773842e-02 3.2079844017828857e-03
      -1.9583314202070737e-01 5.3285431427635928e-02
      4.0084783975468878e-02 4.5202085577643141e-04
      9.7791743208648918e-03 -2.0294295352191300e-03
      -9.7399288294715350e-03 3.2690027332597777e-04
      1.4271438081756439e-02 -5.1978623006784352e-02
      4.4100334983944644e-03 -1.6309460881544134e-02
      -9.5535004530516773e-03 3.2261636260207241e-02
      1.8477827839449269e-02 -2.3796228565381834e-02
      -1.1116377018371006e-02 -2.1065213391236456e-02
      -9.2177312729609540e-04 1.2048913717675780e-02
      -2.8237060762986745e-02 -6.8270389938133924e-03
      -5.5880208967506702e-04 8.5031007052664032e-02
      -4.3308868018061733e-02 2.8417255148953643e-02
      -3.0854359171687317e-03 -1.8893069013782911e-02
      -3.1680852881065133e-02 5.3787250667369342e-02
      -4.0089380910237463e-02 -2.4264759540904800e-02
      -2.3028154666589407e-02 1.8807047557186825e-02
      -3.6156712206198746e-02 -4.7470037942521984e-02
      1.1721621027575856e-02 -9.8435718185503861e-03
      -5.7695591311314734e-03 3.4183725367440271e-02
      2.6768664399110409e-02 1.0300577750315303e-02
      1.0644721002161775e-02 5.1087921145227914e-03
      -2.7118733655679704e-02 1.3774203126831449e-02
      -1.4838523937140483e-02 3.5128360473488822e-02
      1.0900931174911593e-02 3.6405941215034675e-02
      -2.9623117478556481e-03 -1.1366917485294604e-02
      -8.4262134383887560e-03 -2.5585995881676062e-02
      6.8922175748187559e-03 -4.3478442217466245e-02
      -2.2267327314689146e-02 -2.5659208725695062e-02
      2.4643331638680065e-02 3.2534647360679660e-02
      -3.2213449982785953e-03 4.5889382683319178e-02
      6.7536708920983263e-02 4.5574670131667883e-02
      -2.4735386157821487e-02 2.8651932909740000e-02
      6.5755971498150856e-03 -2.1882871128043125e-03
      1.7952166832929850e-03 3.0923291611497122e-02
      2.1476970578389485e-03 -2.9419684835781491e-02
      -2.3555767668404469e-02 -1.4687530099863613e-02
      1.2199639787468580e-02 1.9378455715847710e-02
      3.4484769769381307e-02 3.1059434362793733e-02
      1.2256022796551416e-03 4.4107001105373285e-03
      -2.2356073692039662e-02 -6.6712911100050131e-03
      1.4446040394567003e-02 -3.4085561597249577e-02
      -1.9315620574154028e-02 2.0278547122271007e-02
      -1.7829406158015284e-02 -1.9929698197448373e-02
      6.9786545698676278e-03 3.6078662828351775e-03
      -1.7806180885964706e-02 -3.8225300301609658e-02
      2.0282618419513569e-02 8.4695054224741568e-03
      -1.9374438470727232e-03 -1.1628815039837639e-02
      1.2378208542446317e-04 -2.8602841766206980e-02
      -7.7546635621785990e-03 -4.4989664757143527e-02
      -3.2828034451617645e-02 -2.5483521229900157e-02
      2.6788677928338091e-02 -2.0483063373023320e-02
      2.5700183568147773e-02 2.5747107256160313e-02
      2.4388930159493623e-02 4.6449642389920333e-03
      1.5948151955767976e-02 -1.1368232832195966e-02
      -5.8556360450403794e-03 1.7050797029305440e-02
      2.4272788296632871e-02 -1.9077580224267504e-02
      1.5755268018488318e-02 2.8182650280150342e-03
      9.9780069727187833e-03 1.5120033814827795e-02
      5.2178280214337505e-03 -7.6689265692959821e-04
      -1.2715565537473029e-02 -3.6352203632753495e-02
      -1.0261109208459455e-02 2.7592855426766556e-02
      -3.2318674867667402e-02 -1.5793923621695072e-02
      2.3399312744485954e-02 3.3356357323755650e-02
      9.8245225113748821e-03 1.5700933280587758e-02
      -4.0422470001713035e-02 -2.2117596461508893e-02
      1.3049054686975991e-02 -1.2090286092429178e-02
      -8.7266413715812764e-03 -7.7965909822703267e-03
      1.3209253935483905e-02 4.4599246990151995e-03
      -1.4689656479459915e-02 -9.0714061794927685e-03
      1.1607504607830233e-02 2.8909995446116422e-02
      1.8927337947420738e-02 1.1260757796015056e-02
      -1.6295909542633089e-02 6.3544323706627714e-02
      -3.5729002985953585e-02 -3.1617984890044797e-02
      -7.7140161779597318e-03 1.1010558723619558e-03
      2.9619881570201487e-03 -8.4108179393250875e-03
      3.0269267055716344e-02 -8.0748389614232873e-03
      5.8743137171484864e-03 -2.5093208694207574e-03
      -5.5407703979863266e-03 -3.9162433928240217e-02
      -9.0266497923329417e-03 5.7633857067584666e-04
      -3.2786986174689142e-02 -1.5755045938194136e-02
      1.5943017174013085e-02 4.1288448695324248e-02
      -1.9146133397942362e-02 2.1029947334408862e-02
      -1.8508694525605454e-02 -1.7979647269350810e-02
      -2.3088922586434614e-02 7.9738642473316974e-03
      -2.0126057640015006e-02 1.8813086165067966e-02
      -2.0992564959063344e-02 5.3468716132825710e-03
      -6.0932815857993516e-03 9.0415040585748174e-03
      -2.0222308594324018e-02 5.9668331476343019e-03
      2.7739102066394267e-02 1.4446121530109973e-02
      -1.5334514082338654e-02 -1.6296787972961507e-02
      -1.4661426482034733e-02 -3.0754920452583309e-02
      5.5221938721141022e-03 -1.3519829475704643e-02
      -1.3745926691368366e-02 -1.2486900263114213e-02
      4.5098026319580660e-02 6.2938116256660041e-04
      1.4303176489407869e-03 -2.9332767659920978e-02
      1.7203581794172865e-02 -2.4393292093122444e-02
      -2.8735249882379420e-02 1.9220609547737293e-02
      -1.6846222479376560e-02 -2.1808633461664735e-02
      -4.4550206878584608e-03 1.7232732643013116e-02
      7.2181829994068511e-02 1.8147207284960234e-02
      1.6986611330571215e-02 -3.9493118593725660e-02
      -1.6849324750165290e-02 8.5845675696115866e-03
      6.7147948288711337e-03 1.8953499460984173e-02
      3.1513276700003978e-02 -6.5741663929976449e-02
      1.4283556458868378e-02 7.7811887375327186e-03
      -1.2489361351753322e-02 3.3473333448982043e-03
      -1.6320856913431606e-02 -5.5293632289218891e-03
      -9.2799917243013529e-03 -2.2392009992777590e-02
      1.3337677811883723e-02 -3.1159891080957641e-03
      -5.4792378806410033e-03 -5.9657398855566587e-03
      -5.5220057653605787e-03 2.8723872057203628e-02
      1.7555607345720134e-02 2.7446909206954084e-02
      2.4437331986134819e-02 5.3265491796815057e-03
      -2.0165231381418573e-02 4.0065802832588780e-02
      -3.3515795814575471e-02 -4.7577621743445764e-02
      2.5733114649565677e-02 -3.9546873404278683e-03
      -1.0215220137153424e-03 -2.7472868024057198e-02
      -9.2216812705078546e-03 6.1191151181827080e-03
      7.4176058854617567e-03 2.8471373049872607e-02
      -1.9319776341812554e-02 2.9658988342666187e-03
      -1.0585164845845711e-03 -1.1422787104557346e-02
      -3.7597084662699745e-02 6.5067145769916127e-03
      -3.1231173834642863e-02 6.2125503939043005e-03
      -2.1669522235894623e-02 2.3179295048868259e-02
      -8.8749683095529861e-03 -1.0459632572821552e-02
      1.5886558647443115e-02 1.8752281693983502e-02
      2.9558537889889300e-02 -3.2146701129611467e-02
      -3.3717423404401210e-02 -3.2329646217868657e-02
      3.4512739213976094e-02 3.7283785499328766e-02
      -2.1992884961499023e-02 5.4460925058095813e-03
      2.3897438003835040e-02 1.3001803619568731e-02
      -1.9234419682602952e-02 2.2732571846845965e-02
      1.6634591515437402e-03 -3.6934519467832503e-03
      -1.7872621104746710e-02 3.6611503272913577e-02
      1.4083034204624837e-02 -1.2034598527490701e-02
      -1.2637286435373292e-02 1.7915203057164118e-02
      -1.4130146444084770e-02 2.2372995944802718e-03
      -3.6326185557243327e-03 2.6194398269741868e-02
      2.8157871154958887e-02 -3.2014444196631922e-02
      1.2609474809492172e-02 -4.2468609662513913e-03
      1.8962408567860543e-02 -6.0142201333834692e-04
      1.8524150607021192e-03 -1.5903866498483143e-02
      1.2636789188403186e-02 -8.9887122727790487e-03
      -2.1022463553060016e-02 -6.9701590178909605e-03
      2.9479649730695875e-03 -2.0838972384655177e-02
      7.1464602003019646e-03 -1.3608370288425028e-02
      1.0178919554245731e-02 -1.5975384216925150e-02
      2.3736574125077722e-03 -6.0805383032342276e-04
      6.4336874793422989e-03 -1.1331870717207367e-02
      9.4561896088124053e-03 -2.3621284071817628e-02
      3.8407188826839446e-02 -3.8633439121095008e-02
      1.7429334189391046e-02 -5.1636384504224536e-03
      2.6784760409283109e-02 4.7077438712288039e-03
      -2.5253126531362621e-02 -1.9608283322066048e-02
      3.5869623280241300e-03 -8.4971453580073089e-03
      -1.9528305805063827e-02 -6.8188722731581195e-03
      7.6777664303955516e-03 3.8293129947006626e-03
      -5.5488678181210048e-03 -1.9370807503992438e-02
      2.3851122896907346e-02 1.9258676490435798e-02
      -2.1282673990292881e-02 1.3611909666589183e-02
      1.8332174180299664e-02 -1.4491723322430702e-02
      -1.5085181984542376e-02 3.2288379418760303e-03
      2.3684547364654092e-02 -4.5174465821136642e-03
      1.3873024419694862e-02 7.0217060581520161e-03
      9.9058064737584037e-03 2.3854018524882410e-02
      -2.2236872952094280e-02 3.2093915452625861e-02
      -2.6903086083423105e-02 -1.0790307342123032e-02
      1.1624883913398878e-02 1.1109613896270045e-02
      3.4412850858604917e-04 7.8616655211477433e-03
      -2.2660133590817217e-02 -1.4671604648395013e-02
      5.3204623310539097e-03 1.1199870105535784e-02
      -8.2506950993700718e-03 1.2689279900886001e-02
      1.6421888705569609e-03 -1.6995899821880826e-02
      8.3218750502637422e-03 -3.1060021689782100e-02
      1.7238687067296518e-02 1.4525225105485864e-02
      -1.1269241026432343e-02 1.0297067529190719e-02
      -1.3972886943834620e-02 1.1866681783456314e-02
      4.7178609538123866e-03 -5.0374570551631219e-03
      1.4986608138345249e-02 6.2419329010781075e-03
      1.5416789838585352e-02 -2.2206189145423768e-02
      -9.0447331558328339e-04 5.7717013284234652e-03
      -1.9955496620643966e-02 -1.6477632264859650e-03
      -7.7597591480805138e-03 -2.4842826817676446e-02
      -2.3819677940869411e-02 7.8593956097516311e-03
      -1.5249928062153804e-02 -4.0486991197993032e-02
      -4.0292728111953419e-02 3.5040439628830399e-03
      9.0178355582349219e-03 -1.8187994759935822e-02
      8.6840971986568670e-03 -1.6372272819812867e-02
      1.2666356595386338e-02 -1.5503726497645504e-02
      1.8331933227168938e-02 2.1590754941704867e-02
      -1.3934816388421235e-03 -1.6982152498035988e-02
      -1.3132018148321037e-02 3.9837718640999328e-03
      -1.6549240224271313e-02 -1.5983642009333835e-02
      1.6974111091605428e-02 -1.1371066572768228e-02
      -3.8446492081600919e-02 -1.2106774274039212e-02
      -2.7862044040965631e-03 6.3525062102600697e-03
      3.7786029656026940e-03 1.1666871848330358e-02
      -1.5641199409331827e-02 -3.0483745872297428e-02
      8.2482844087621594e-03 -1.1399742676352751e-02
      -3.0058835634404420e-02 9.0055892920110747e-03
      2.7599649059294726e-02 -2.3003750203480409e-02
      -6.1810688705178727e-03 5.3023215655089197e-03
      4.2648427650865146e-03 4.0042672200508948e-03
      3.3881590429501673e-02 -6.3658047996304881e-02
      7.3834923910198816e-03 2.4412678741205670e-02
      -2.0999316717738819e-03 4.3607620254262555e-03
      -1.0453212204837803e-02 1.7179321335767822e-05
      -2.9155465820734288e-02 2.9775682303858925e-02
      2.3134056652121091e-03 2.0249125784380331e-02
      -1.9281086074021330e-02 -9.8040899668129945e-03
      -5.6898816463908219e-04 5.1780025357291794e-02
      1.5868574896586978e-02 1.4851015086070630e-02
      -1.4766133996775744e-02 5.4365452314387684e-02
      -9.2034723061045843e-04 -5.6889991749675866e-03
      -2.1519424852951011e-02 -4.4649650789590989e-02
      2.5078031041617047e-02 2.2696452922073306e-02
      -2.0108914901666844e-02 -2.7660574436478121e-02
      2.0907108053258079e-02 2.3288407326337364e-02
      2.4098940088910972e-02 1.4772788831270475e-02
      -5.0086528276103775e-03 -1.2349826745015204e-02
      1.1367910902416825e-03 -1.7558834441397081e-02
      1.2353679403326075e-02 -1.5463109809671050e-02
      -1.5623928992881515e-02 -2.1065026286613477e-02
      8.3751236641044762e-03 5.3008764478806210e-02
      2.9471049276304409e-02 8.9254947083142310e-03
      -2.7190017341121354e-02 3.1216328758999122e-02
      9.0172470361195248e-03 -3.8323948374946334e-02
      -8.8050221753873236e-03 1.9230497007412965e-02
      1.0899492862264366e-02 1.1790057389911134e-02
      -1.2583657327282545e-02 2.7928332022510591e-02
      1.7728740739376928e-02 3.7847543563533079e-02
      -3.6628332924353600e-02 4.4632722850460903e-02
      2.3548607778001805e-02 -1.9561780373436410e-03
      -6.2622250061362293e-03 2.9033128530966856e-03
      -2.3359386971329651e-02 6.3789389871427932e-02
      2.2396683364335097e-02 -4.7589073188983528e-03
      -2.4615585380952036e-02 -8.0075209010019646e-03
      -2.1269061887123279e-03 1.1817209122743253e-02
      2.1428380492468754e-02 -3.5799097944165290e-02
      2.5540239419999024e-02 -1.8877542713164230e-02
      -3.7132638735533361e-03 2.9858911677353269e-02
      1.5854829774904296e-03 2.4703069803220954e-03
      -2.0568333103629453e-02 1.4643128687007420e-02
      -2.5057317287319851e-02 -3.7453003956193290e-02
      1.5797765790421098e-02 8.3389967193965436e-03
      -2.5909314158897918e-02 -1.4104788382895599e-02
      8.3648338580758191e-03 8.3215958201005077e-03
      -7.5530941635241359e-03 2.1891332075993193e-04
      -3.5179237751957061e-02 2.6024168675454876e-02
      -5.0036653474878477e-02 3.1783059596688451e-02
      -1.4243664647617445e-02 -2.7221601565226822e-02
      -1.7932674580290606e-02 8.8176252257980235e-03
      -1.9969816887578318e-02 9.0811035538416671e-03
      -3.3371028090743222e-02 8.4885953844850547e-03
      1.2163260945405523e-02 -1.6331676874504812e-02
      4.0786928104133242e-03 3.4036240455511339e-02
      -3.8218259562213489e-02 -5.1726747024919964e-03
      -2.8551266725179939e-02 -8.1656263651488283e-03
      -8.4072243228111021e-03 -1.6593475196202630e-02
      6.7667088132471825e-02 9.6035427525985196e-03
      2.4772295840734624e-02 9.4950847939218180e-03
      5.8571204499833435e-03 -9.9973846598114258e-04
      -2.4816369073473836e-02 -4.2336684981629111e-02
      -2.7392408023000133e-02 3.0431801953284637e-02
      4.0596338528224217e-02 -1.2568118537488362e-02
      -3.5715846510010113e-02 1.2892113742221644e-02
      -2.3334652168050030e-03 -2.2148759870620482e-02
      2.7291776431504631e-02 1.2222239904847864e-02
      1.8940055169969897e-02 2.4808803604138965e-02
      2.3101922601611233e-02 -4.2287172091662797e-03
      -3.8528859561076635e-02 -2.2276857562873242e-02
      9.6293979146611121e-03 -5.4140106857639009e-02
      -7.0231102730963389e-04 4.5878923870378209e-02
      3.5374161303537233e-03 5.7802201753391728e-03
      2.6574621872319078e-02 8.8616879085773852e-03
      -2.4840120159199782e-02 -1.6050478564219640e-02
      3.2349034581979408e-02 -1.5755853494541741e-02
      8.9641238453683006e-03 1.3527893319026096e-02
      2.8917965381583081e-02 1.6835257077264298e-02
      3.6763630905146172e-02 2.0472895541921613e-02
      -3.8121338308211884e-02 9.9476599180860770e-03
      3.2656541847002417e-02 -3.5527785394695896e-03
      4.1647131809995859e-02 -1.4846893344799379e-03
      -2.9616971756089964e-02 1.2554977330338314e-02
      -8.0616777749090190e-05 6.0448474617552910e-03
      9.4225842238390076e-03 -1.9650234024506243e-02
      -1.0137995969685261e-02 -1.3428814724922751e-03
      -6.5876054112549423e-04 -2.3931401015796921e-02
      3.9214459357598186e-03 -9.1417829587519955e-03
      -1.0567901964569509e-02 1.5569923491040166e-02
      4.5706806837795774e-04 4.2697156404775567e-02
      -1.6455696832057227e-02 -2.4746630509475006e-02
      3.0663273019894650e-02 -1.2545119202164655e-02
      -3.1009503578583387e-02 -1.0138865190093851e-02
      3.5191106207774235e-02 3.2032546015000642e-02
      2.1497606000004700e-03 -1.0761279135150131e-03
      -2.0219390544225337e-03 8.4465787183584922e-03
      1.6832446479945438e-02 4.7730161634359794e-02
      -8.4649711642340916e-03 1.4686000430162735e-02
      3.0203504260938541e-02 2.4387441219380440e-02
      -4.1224513721417368e-03 1.1687216227511402e-02
      -2.6570613172219266e-02 -1.8861543461103750e-02
      5.4302479861031115e-03 -2.7593171700656029e-02
      -2.4047147332863957e-02 3.9994572879742250e-02
      -1.0005377257009786e-02 7.9871005191326661e-03
      -5.9213256401531578e-03 8.7493393092097499e-03
      -8.9074062040106084e-03 -4.2867409126395905e-03
      2.3174916039236410e-02 -2.6429629761574591e-02
      1.8373397605888329e-02 -6.8625407090787023e-03
      -1.6573662547725570e-03 3.6349311327934494e-02
      4.0434554643383651e-03 -2.8603667713250996e-02
      2.1799921333843994e-03 7.0442985706274221e-03
      1.1622961005930023e-02 -1.4461636597425548e-02
      1.4793621730939914e-02 9.5576417899224057e-03
      1.9392871388916752e-02 3.9594953845348779e-02
      -6.4903024970528944e-03 -2.1143828649380822e-03
      -8.3828415375918324e-03 3.9113964099826842e-02
      -1.7740151738352132e-02 -4.1523724974959148e-03
      1.6833798598907233e-02 -2.2505867703181821e-02
      -6.1512792299017504e-03 -1.6129414980253377e-03
      -1.7104948640886870e-02 -1.8333289856920929e-02
      2.2284161380353749e-02 -1.9009405664791493e-02
      -7.9601262874337050e-03 3.7348298658552548e-02
      2.3225694303218160e-03 -3.4065874740576818e-02
      -1.7119263266413852e-02 -1.5804851791518641e-02
      -1.0337143420935242e-02 7.4448477331746563e-04
      -1.0958228456673600e-02 2.6284105399993648e-02
      7.3275231604338353e-03 5.2046268734427636e-02
      3.4069774287424385e-03 -6.3128980849808053e-03
      2.6848135339034067e-02 -1.9269249787978653e-02
      -4.6637149883460453e-02 -2.8700172821906712e-02
      2.1464744285324990e-02 -1.3006129187116371e-02
      -3.2992838092509184e-02 -1.7795937790244291e-02
      3.3488530188441008e-02 7.8351885566766890e-03
      -2.8706957020103903e-02 -2.0783628075375826e-02
      -3.1391622845241149e-02 -2.9107127189278686e-02
      -4.6375560967730342e-03 1.1127028594317655e-02
      3.0784490091747031e-02 2.3405700454424871e-02
      2.3319910729289416e-02 -8.9277269330577391e-03
      -5.4943372111388158e-03 -1.8335582210986561e-02
      5.7795701086871146e-05 7.1092790484522975e-04
      1.4507442078633350e-03 3.6011539158126819e-02
      1.7536429513510560e-02 -8.5589756042318069e-03
      5.2763233860606404e-03 3.3819808509985040e-02
      2.7097881130898692e-02 -1.6879079808365859e-02
      -9.4944553851865569e-03 4.1314966189946517e-03
      1.0697775270445747e-02 -6.8422164741271427e-02
      2.1875756816407924e-02 2.1195162098892158e-02
      2.2884266692699676e-02 -3.4088561052457840e-02
      -2.4035686269339780e-02 -2.0264610925325277e-02
      2.2412089943413118e-02 -3.5166077835942131e-03
      5.4793590678003393e-02 1.1857254843010195e-03
      2.5579941585676686e-02 1.9945707541910992e-02
      1.0193874082016567e-02 -8.4849319539313794e-02
      1.2300038556641345e-02 -4.7446435314678841e-02
      -1.1143590961509623e-03 -2.5611997196771038e-02
      2.8824035637797625e-02 2.2313510034468284e-02
      -3.6865227597252144e-02 3.8335558879737310e-02
      2.3523307342510104e-02 1.0046457960394974e-02
      1.4003467014543245e-02 1.1143642545664679e-02
      1.3830022835951618e-02 5.1340096303557625e-03
      -4.1582765853915793e-02 -5.8067482259668603e-02
      1.8647972538573098e-02 1.0594035490613858e-02
      1.4810345116777439e-02 -4.6684884335168812e-02
      -1.9378472301370735e-02 3.5812827148609436e-02
      1.3840757067063755e-03 -2.1802988406026753e-02
      6.7419974694068097e-04 -2.2110904411867423e-02
      2.9138018493612548e-02 -2.0597568926033087e-02
      -2.3596789588265648e-02 -4.0324128793169413e-02
      -8.5229491161400925e-03 3.0307121658484537e-02
      3.5883109920150306e-02 7.0622257519338913e-02
      -2.5142809442223184e-02 1.7976902807792024e-02
      -1.7328835180351547e-02 -5.0488174586178533e-02
      7.7812435126893504e-03 -8.9190118514454186e-03
      -1.3077240320783147e-02 4.2233872880853160e-02
      2.3969886246706533e-02 -1.6275611185599323e-02
      -4.7325789087131483e-02 2.6537825276201618e-02
      3.8086038647936034e-02 -6.0058519613926831e-02
      -1.8769722995580124e-02 -6.2401676629527504e-03
      -8.2561537590109229e-04 4.3649659292101191e-02
      2.7050424926514560e-02 2.3353057959661413e-02
      -2.6047171952388645e-02 4.6507447387617987e-02
      -2.3260827050885956e-02 -3.6011966728169607e-02
      -3.6970374047002659e-02 -4.5123662539139971e-02
      8.6426909376839060e-03 2.5334057092537051e-02
      3.6654614175510754e-02 1.7990868826574295e-02
      5.4338690066901884e-03 -8.9421700909509128e-03
      -3.4453084901737360e-02 -2.3386504065640627e-02
      5.9742752869868755e-03 -2.9305046781488743e-02
      -3.0561350738349965e-03 9.6651224642556582e-03
      -1.1214036597809351e-02 2.1446764609767818e-03
      6.6465409227292474e-04 -2.9920958529638799e-02
      7.8780881622703813e-03 1.1346537700012188e-03
      -1.2114484645118823e-02 2.9307704637655280e-02
      9.3024612624076231e-03 -3.8597113569708557e-03
      -2.9650317840110640e-02 2.3756705948297908e-02
      1.3102729261063963e-02 4.2885101258991018e-02
      -2.8535598380824624e-02 2.4266469093570952e-02
      -1.1696287014964328e-02 2.4357100342501044e-02
      4.4425790544725965e-02 1.1442274396662852e-02
      -4.0882898377721556e-02 2.8316226928713647e-03
      -3.4089931062049696e-02 -2.4241609119327809e-02
      1.3323500552344400e-03 1.5664103247017901e-02
      4.6017722983709647e-03 9.3266217127887258e-03
      -6.4688660274913609e-03 4.2903909862670078e-02
      -1.3939939565673031e-02 4.5040761152177644e-02
      -5.2467975841704673e-03 3.0319043223518943e-02
      1.7345123932555637e-02 -2.4272698897977330e-03
      -1.3685994427398764e-02 -2.5668353894136808e-02
      3.5544719480766103e-02 -1.7203582064367459e-03
      1.6299249215431834e-02 -2.3939144862747584e-02
      2.2536799175478597e-02 1.1939132748689737e-02
      -3.0654272121232481e-03 -1.8432734209014107e-02
      -1.6084538999979459e-02 2.2873512773761213e-02
      3.6854911233439466e-02 -3.2079737864810096e-02
      1.9913798727517546e-02 -1.9954374293909567e-02
      -2.5914660235156206e-02 1.9053891880038705e-02
      -1.6818282523140930e-02 2.7392572709708428e-02
      2.1023760893997757e-02 1.0267300212814363e-02
      -4.8447176683192095e-02 -3.4642455459821184e-02
      -3.5229653570918559e-03 -4.0612265905837497e-02
      1.8657482709212522e-02 -6.6927837445184046e-02
      -2.8849468737514868e-02 4.0521610755421586e-02
      4.4854592283366281e-03 -5.2318482323940232e-03
      1.6009902621485529e-02 -8.8528749383031836e-03
      -4.2165427946993704e-02 -6.3090112491982538e-03
      1.8973969001649812e-02 4.9357509825031145e-05
      1.7866044838790084e-02 6.6098998253477245e-02
      1.0660875389093841e-02 -1.4122798634721705e-02
      2.6984175549789442e-02 2.0900992804140362e-02
      -6.5420625013150435e-02 -3.6555443849795574e-02
      -5.2116838148922534e-03 -1.5038058444609948e-03
      2.7919212095782218e-02 8.5006706506820379e-03
      2.9377488576152654e-02 2.6646065180634927e-02
      6.2935719114210878e-02 -1.5696660653793215e-02
      3.1732703199168454e-02 6.3638474167610776e-03
      2.4491389945086775e-02 -1.0787583889255659e-02
      -1.9832403171142380e-02 -3.4096144855651357e-02
      -3.8498116137618554e-02 9.1701257795241634e-03
      -2.2372628365704358e-02 2.0788286618650540e-02
      -7.1882859402950918e-03 -2.6932636378018831e-02
      4.7972210976512473e-03 -1.2082737940204457e-02
      1.1484735640485813e-02 -2.9002993138172355e-03
      -1.5498944811779424e-02 2.8450863878423074e-02
      -3.3854077707124994e-02 -4.6289728311925474e-03
      1.8412762432415807e-02 -2.6854202789623752e-02
      -1.7947145517943051e-02 2.1359338619369700e-02
      -1.4558182198829759e-02 1.9664705457779083e-02
      1.0910252601645345e-02 -2.1141569528806397e-02
      5.4672648779916962e-02 2.3805022415814728e-02
      1.4640355176056467e-02 -3.3836245653019459e-03
      -3.5743556406131284e-02 9.0850962789995691e-03
      -2.4476304090627912e-02 -3.3286235246443238e-02
      -8.6797886185349617e-04 2.6232951789715284e-02
      2.2935276025303733e-03 5.9380587917929557e-02
      9.6445709771166739e-03 -8.3170557089492676e-03
      -1.0672023961672560e-02 -4.8148056073934846e-03
      2.0037460417976410e-02 8.4202848017769297e-03
      -1.4138739887283051e-03 2.8300010318752799e-02
      9.6753580782599094e-04 -1.6991737740742276e-02
      -1.3542169047409628e-02 -7.0932029774890923e-02
      4.4102261695137063e-02 1.8318426198653450e-02
      -1.2157228635334527e-02 -3.3626930835663718e-02
      2.0735392436358538e-02 2.3772000540339986e-02
      7.8933767735115505e-03 -1.1584699940591773e-02
      1.8023837122104185e-02 1.7163378946796325e-02
      -1.4915806712150686e-02 3.8129499903629190e-02
      -4.4666494851438344e-02 3.0282969249423988e-02
      -4.8983174069683931e-03 3.4113792337661521e-02
      -5.2951391184683325e-02 -3.3940666477530329e-02
      2.1301408205159238e-02 -3.7496824078216258e-02
      2.8348987738441026e-02 -3.4772401767933316e-02
      1.2996080523643809e-02 -1.0707989908685782e-02
      -2.5441153478505708e-02 -4.7709895801693533e-02
      -7.5602147967499551e-03 -2.4933880041849911e-02
      -1.8686079331642458e-02 4.1688051832101690e-02
      -7.0694588797977484e-03 9.8157583996059221e-03
      -1.1465154268084711e-02 3.9977921740198992e-02
      -3.3889841237183076e-03 2.9632101858875813e-03
      -2.0682689648736069e-02 -2.2786721550998680e-02
      -2.4261891181943190e-02 -1.3768620379531650e-02
      1.4746449173410547e-03 -2.0408623528185316e-02
      -2.3443770548953109e-03 2.8399997255442084e-02
      5.5303827030809570e-02 2.5651164785602101e-02
      3.8812871874741993e-02 1.7074084701561923e-02
      1.3094758317841734e-02 -3.3351547893791147e-02
      6.7785950146881015e-03 2.1879634602195639e-02
      5.1147666929988464e-03 7.0355688315065553e-03
      -2.2657298021919726e-02 1.3158177599220989e-02
      -7.1817633845293605e-03 2.3206981734139359e-03
      1.7231371034293476e-03 -1.9934412961213423e-02
      -1.3116390761173564e-02 -1.3211904635942529e-03
      1.4498651306411595e-02 1.6229159318894459e-02
      -1.5668430647503093e-02 9.5642076084114062e-03
      -2.4300671200634272e-02 -6.3729484432990272e-02
      4.8663992382406984e-02 -7.5944931666656834e-02
      -1.2626473158725430e-03 -1.5989710662955552e-02
      3.5658837228762577e-02 -7.3539023886255708e-03
      -4.7173322049045958e-02 -7.4522793366922149e-03
      2.4427069046534206e-02 -1.3419345380050723e-02
      5.2017263360475852e-02 -2.6325240278373144e-02
      -5.8683674134566259e-03 -1.3051486213584044e-02
      2.5769496058887533e-02 -3.4614758890672892e-02
      -4.8400785052744606e-03 -2.7871408576295182e-02
      2.6156270767883929e-02 1.0868207845984744e-02
      7.7092558758544557e-03 -3.7405236140541386e-02
      -4.7957337523756575e-02 -7.0364797298076319e-03
      2.5125263045961840e-02 -4.9944178183314182e-02
      1.7459535310803208e-02 8.6623435567627222e-03
      -3.3798349122483905e-03 -3.0006978061231017e-02
      3.2864320997552277e-03 -1.1360587993533047e-01
      -2.3694860401100074e-03 -1.9712309908721026e-02
      6.0925376467059022e-04 -4.2818820930592950e-02
      1.4015209013231162e-02 6.1245655404793861e-02
      -1.3842885631296513e-02 -2.9654163615385355e-02
      -2.2294464670286781e-02 6.0733889036451464e-03
      2.2302230717403750e-02 -9.7516871340483785e-03
      -1.4033623676572547e-02 -2.1138944111437116e-02
      7.0041776045601713e-03 2.4341502781858090e-02
      -1.5631573721936194e-02 -3.4542226647255855e-02
      5.7856688620024098e-02 1.7636665958541117e-02
      3.5732699077048583e-03 1.5543133750088037e-02
      -1.5462505303957595e-02 -5.1286480551217331e-02
      -4.0291546055308609e-02 -5.6576250908950833e-02
      -2.9493379415951954e-02 -2.9338983313607681e-03
      4.4609540257715873e-02 1.0250405227341282e-01
      -1.9289508598978461e-02 -3.2355959419277415e-02
      7.9750325952752006e-03 -3.0388090014623208e-02
      4.2723965760968922e-02 2.8358411573947480e-02
      -2.4928686381684672e-02 -7.7301065487436704e-02
      -1.6267629588253833e-02 -3.5981642454816887e-02
      -1.3732083027181171e-02 3.1957637750379235e-03
      -3.5496270895999604e-02 1.8621940952473340e-02
      -3.6113224630342312e-02 6.6686975246020672e-02
      -3.2907462032846502e-02 4.6635617746054417e-02
      -8.9318268193405402e-03 -4.2612824775815177e-02
      -1.3071123181801047e-02 -1.4441066692227994e-02
      6.6659606945317041e-04 5.4687724697399465e-02
      4.2247549896185295e-02 -6.9586669585146753e-03
      -9.7515923101654436e-03 -3.1094574597135733e-02
      1.3379640484075354e-02 3.2906485885627161e-02
      -9.3223443987180878e-03 2.5836345052129343e-02
      8.7757587545001566e-03 8.6397494388174498e-03
      7.8590443681091516e-03 7.6054817202551219e-03
      4.0674787186662856e-02 -1.9519006068433174e-02
      -7.1674676684995780e-03 1.8032370666865730e-03
      -4.4228607538518592e-03 -3.1671357027133647e-02
      -2.6711217797630461e-02 -6.9837358820465396e-03
      -1.3224146570449166e-02 3.4052310880488934e-02
      5.3068900966004119e-02 2.0159164708044925e-02
      -1.3790050081479354e-02 2.3226921622631958e-03
      -2.2216826451771430e-03 1.2805621012673093e-02
      2.9694136571338479e-02 -1.1093503227878413e-02
      -1.5365200171368148e-02 -4.9514086118429557e-02
      -1.6971365882714324e-02 3.4662430611481767e-03
      1.5424484926589193e-02 -3.8674019675786759e-03
      1.8064343439852217e-02 3.9306847071139397e-03
      -1.9200692339890833e-02 -1.4629375568395254e-02
      1.6625096513700414e-02 -2.7240228812890439e-03
      2.9989628855619396e-02 -5.5473985149868121e-03
      2.3689974710439207e-02 -1.6854463308193002e-02
      -1.5707351035439798e-02 -1.2242101616718909e-02
      -1.2581123410733863e-02 1.2336644690850112e-02
      -1.1817770607655911e-03 2.4181802500066529e-02
      2.2113297914677886e-02 -5.7113653285444023e-04
      -4.8948204171456705e-02 1.6930913110620352e-03
      9.6769544179351151e-03 -2.3354461217957305e-02
      5.3728530087100199e-02 -1.8355050187434101e-02
      5.4446986111599338e-03 5.2072270953797163e-03
      -2.6730819213229614e-03 2.3175623079784873e-03
      2.0277916001629332e-02 2.0850202972433351e-02
      -6.5709877354987230e-03 1.0531441174461241e-02
      -3.1992164568411516e-02 1.2891524328725786e-02
      1.9665394521402056e-02 1.2101551318813417e-02
      7.3262196975836273e-03 1.8229611939086104e-02
      1.6206404704505014e-02 1.8268571119994768e-02
      -1.6195415451439880e-02 1.8191186174073865e-03
